tree
version=v4
num_class=1
num_tree_per_iteration=1
label_index=0
max_feature_idx=47
objective=regression
feature_names=Column_0 Column_1 Column_2 Column_3 Column_4 Column_5 Column_6 Column_7 Column_8 Column_9 Column_10 Column_11 Column_12 Column_13 Column_14 Column_15 Column_16 Column_17 Column_18 Column_19 Column_20 Column_21 Column_22 Column_23 Column_24 Column_25 Column_26 Column_27 Column_28 Column_29 Column_30 Column_31 Column_32 Column_33 Column_34 Column_35 Column_36 Column_37 Column_38 Column_39 Column_40 Column_41 Column_42 Column_43 Column_44 Column_45 Column_46 Column_47
feature_infos=[3:520277] [0:3] [2:80] [0:1] [0:1815] [-1:1] [-1:1] [-0.97492791218182362:0.97492791218182362] [-0.90096886790241903:1] [0:1] [0:5] [0:12] [0:1] [0:19.298387903336014] [0:16.156949373701934] [0:13.789278486014178] [5:85687] [0:0.23999999999999999] [0:0.10000000000000001] [1:29] [0:69] [0:5219] [0:1] [-8.2201728820800781:9.2545604705810547] [-1.7377686500549316:2.4313521385192871] [-0.89016628265380859:0.93970799446105957] [-1.034320592880249:0.67022466659545898] [-0.68587785959243774:0.58325350284576416] [-0.7950286865234375:0.50754338502883911] [-0.53887057304382324:0.64665889739990234] [-0.59955835342407227:0.53308850526809692] [-1.0955601930618286:0.37354195117950439] [-0.42003530263900757:0.49201101064682007] [-0.58375024795532227:0.39207026362419128] [-0.50657057762145996:0.38490819931030273] [-0.46644076704978943:0.48707428574562073] [-0.50151801109313965:0.45109894871711731] [-0.43059474229812622:0.38548040390014648] [-0.42899525165557861:0.38838458061218262] [-0.60805398225784302:0.57723087072372437] [-0.42231518030166626:0.43562322854995728] [-0.40523594617843628:0.33607462048530579] [-0.34869378805160522:0.38207721710205078] [0.69314718246459961:12.398494720458984] [1.0272115468978882:12.18364429473877] [0.22579033672809601:3.5702519416809082] [2.1972246170043945:14.779463768005371] [0.77424019575119019:12.984609603881836]
tree_sizes=5252 5531 5557 5559 5532 5536 5571 5562 5584 5589 5568 5577 5580 5570 5595 5589 5574 5555 5597 5588 5597 5616 5605 5620 5593 5626 5628 5572 5645 5592 5635 5637 5642 5619 5630 5637 5625 5625 5650 5640 5616 5618 5651 5643 5647 5644 5671 5635 5631 5636 5658 5660 5645 5644 5642 5651 5636 5645 5666 5634 5602 5647 5674 5649 5654 5665 5654 5643 5671 5652 5641 5689 5659 5662 5634 5653 5671 5663 5645 5678 5677 5670 5629 5661 5690 5682 5640 5663 5648 5687 5648 5666 5689 5679 5648 5666 5659 5640 5664 5668 5655 5673 5669 5645 5675 5635 5653 5636 5636 5616 5613 5642 5647 5641 5692 5644 5650 5641 5653 5633 5610 5647 5633 5657 5643 5668 5610 5674 5664 5646 5668 5653 5616 5658 5639 5621 5624 5646 5692 5635 5643 5675 5640 5649 5656 5680 5640 5643 5634 5694 5649 5622 5622 5649 5635 5634 5627 5650 5644 5671 5646 5617 5627 5655 5631 5653 5618 5635 5629 5650 5656 5642 5634 5586 5587 5686 5645 5685 5649 5667 5697 5640 5686 5661 5628 5581 5658 5684 5623 5683 5654 5644 5647 5625 5666 5607 5595 5627 5648 5629 5629 5658 5642 5606 5645 5679 5673 5659 5614 5671 5627 5678 5626 5616 5660 5643 5621 5634 5656 5671 5632 5673 5613 5646 5640 5624 5641 5607 5638 5624 5642 5638 5621 5656 5654 5646 5653 5644 5695 5640 5637 5627 5646 5636 5659 5646 5651 5659 5647 5662 5638 5676 5649 5693 5660 5637 5685 5657 5673 5656 5667 5629 5664 5622 5650 5632 5647 5691 5625 5657 5705 5669 5672 5661 5679 5694 5668 5714 5657 5620 5693 5697 5650 5637 5665 5658 5682 5689 5663 5685 5684 5667 5631 5688 5679 5684 5681 5673 5671 5676 5687 5707 5677 5680 5643 5659 5684 5664 5665 5689 5680 5691 5697 5689 5664 5676 5685 5676 5669 5648 5653 5656 5680 5691 5709 5710 5691 5717 5677 5684 5676 5707 5668 5708 5670 5698 5672 5660 5701 5727 5724 5697 5695 5670 5677 5695 5689 5693 5687 5673 5685 5730 5714 5691 5665 5723 5703 5698 5698 5675 5696 5705 5730 5666 5690 5689 5689 5724 5726 5726 5701 5692 5707 5711 5700 5697 5646 5720 5725 5687 5679 5768 5690 5746 5721 5693 5718 5727 5712 5714 5679 5710 5695 5720 5694 5677 5754 5724 5723 5716 5670 5740 5684 5709 5718 5727 5714 5748 5737 5710 5736 5718 5701 5725 5701 5723 5718 5720 5728 5755 5728 5738 5710 5735 5749 5702 5744 5746 5715 5730 5732 5717 5762 5687 5741 5701 5740 5723 5733 5729 5754 5735 5730 5717 5762 5736 5738 5744 5754 5733 5765 5758 5725 5720 5763 5731 5722 5730 5742 5759 5720 5753 5745 5709 5743 5759 5779 5719 5711 5743 5723 5729 5758 5737 5736 5737 5717 5738 5704 5772 5709 5722 5735 5757 5758 5703 5764 5768 5759 5751 5776 5748 5771 5725 5729 5754 5760 5743 5758 5745

Tree=0
num_leaves=63
num_cat=0
split_feature=23 47 23 14 21 44 23 23 17 17 4 47 19 9 44 15 44 15 47 12 21 4 16 14 2 4 47 15 2 19 2 2 16 15 19 4 16 47 23 12 4 21 0 12 4 4 17 43 4 43 23 27 22 5 29 17 23 4 0 23 17 30
split_gain=9479.36 4719.14 3133.07 1678.25 1127.21 838.99 791.642 516.97 446.949 436.126 211.079 169.499 168.961 162.423 160.86 144.723 132.963 129.188 128.187 126.093 113.202 110.644 106.991 103.482 97.4454 97.4399 95.5238 93.8406 103.553 88.5864 82.9162 82.6429 72.9833 72.3939 66.8688 66.8477 66.2599 64.7454 63.3483 59.3935 56.3291 52.1943 70.5046 51.8699 51.2225 51.0349 50.9365 55.1425 48.1816 44.5046 42.5732 42.077 41.3083 38.6618 38.2557 38.0654 37.4074 36.7279 51.1544 36.3661 33.7843 33.3591
threshold=1.0406639575958254 8.712675094604494 3.5942602157592778 11.610219983159883 131.50000000000003 10.115059375762941 -0.60143852233886708 -1.6654415130615232 0.030158064637477285 0.029447709383012239 401.50000000000006 7.3743317127227792 20.500000000000004 1.0000000180025095e-35 7.2853057384490976 6.7244330414940263 7.0677843093872079 7.4969295228992632 5.555098533630372 0.069366479550922219 2.5000000000000004 243.50000000000003 1888.0000000000002 12.586720158246402 30.500000000000004 251.00000000000003 5.7765305042266855 6.8601392875512452 46.500000000000007 25.500000000000004 16.500000000000004 39.500000000000007 171.50000000000003 9.4589567185031616 25.500000000000004 318.50000000000006 367.50000000000006 7.8499538898468026 -0.073861598968505845 0.028174603174603175 65.500000000000014 1.0000000180025095e-35 52663.500000000007 0.35634920634920642 742.50000000000011 61.500000000000007 0.032775462896456484 8.5830440521240252 2.5000000000000004 7.8572528362274179 0.47295784950256353 0.19495187699794772 1.0000000180025095e-35 -0.25881904510252113 -0.029930037446320053 0.02402541561508912 1.8616893291473391 251.00000000000003 687.50000000000011 -2.8036913871765132 0.021616101228435422 0.0014452636241912844
decision_type=2 2 2 2 2 2 2 2 2 2 2 2 2 2 2 2 2 2 2 2 2 2 2 2 2 2 2 2 2 2 2 2 2 2 2 2 2 2 2 2 2 2 2 2 2 2 2 2 2 2 2 2 2 2 2 2 2 2 2 2 2 2
left_child=1 6 4 7 9 23 14 31 12 11 18 39 35 -7 61 36 -14 -13 -6 30 -4 49 33 24 -5 37 -11 46 41 -23 -15 59 -20 57 -32 -8 -9 -18 51 45 54 42 -29 52 -28 -2 -16 -48 -39 -17 -27 -26 -41 -30 -19 -42 -34 -10 -59 -3 -51 -1
right_child=2 3 20 5 10 13 8 15 22 26 -12 17 16 19 27 21 25 40 32 -21 -22 29 -24 -25 38 50 44 28 53 -31 34 -33 56 -35 -36 -37 -38 48 -40 43 55 -43 -44 -45 -46 -47 47 -49 -50 60 -52 -53 -54 -55 -56 -57 -58 58 -60 -61 -62 -63
leaf_value=7.2810405004076948 7.2379975164283978 7.3891808940219121 7.1160170359500752 7.375263260738353 7.0714716929994808 7.4134916574421776 7.245761302748166 7.3048347776504068 7.2318389856521623 7.1517807568900018 7.0892894764349288 7.2367937917300429 7.2417031514121142 7.5461438349447061 7.298417747844864 7.2663887590843235 7.2801058147599367 7.3652193511498973 7.0928748385908991 7.3981051257180956 6.9944904801271326 7.2252242464314191 7.1921386935073519 7.3987570467240156 7.3221676615750733 7.2707202728382363 7.203754589257418 7.3039608051730998 7.3057281951869344 7.3316993487678754 7.4119930996301564 7.2871510898600746 7.2012632165296031 7.2878257645070565 7.4908927512442913 7.167532000812626 7.2501306810701216 7.370001453132228 7.249021746757272 7.1883322013178779 7.3092626393024753 7.345451501712212 7.3714234560024661 7.2859610656054166 7.1216309042575752 7.3116332837517577 7.2761497915949711 7.182010570901058 7.3023753549416854 7.3617391768525993 7.2271229173709175 7.3820517485959432 7.2252253626401099 7.2542999391720171 7.2896329314046664 7.2436605800934544 7.1562850447309669 7.1315919953950253 7.2270522335700154 7.3562157877644925 7.3208963634188269 7.2159018103200117
leaf_weight=30 82 135 21 246 36 129 468 73 442 142 190 117 241 58 210 26 542 47 25 40 219 56 228 200 110 151 375 245 79 30 32 34 118 54 167 29 229 29 23 115 48 260 46 26 20 33 60 21 287 79 89 40 223 68 26 41 76 23 36 220 141 57
leaf_count=30 82 135 21 246 36 129 468 73 442 142 190 117 241 58 210 26 542 47 25 40 219 56 228 200 110 151 375 245 79 30 32 34 118 54 167 29 229 29 23 115 48 260 46 26 20 33 60 21 287 79 89 40 223 68 26 41 76 23 36 220 141 57
internal_value=7.26886 7.30129 7.17448 7.36177 7.19784 7.40633 7.26744 7.31624 7.2526 7.22143 7.12918 7.24585 7.26609 7.46034 7.30355 7.2884 7.27533 7.27683 7.15891 7.48068 7.00512 7.31119 7.22098 7.36917 7.35504 7.28272 7.18695 7.30928 7.31922 7.26237 7.49354 7.36162 7.17328 7.23282 7.47821 7.2412 7.26335 7.29059 7.32629 7.2278 7.30574 7.32917 7.31463 7.21791 7.1996 7.25913 7.28543 7.25174 7.30858 7.32825 7.25455 7.33814 7.21267 7.28194 7.3383 7.27904 7.18364 7.22689 7.18984 7.36875 7.33556 7.23836
internal_weight=7743 5763 1980 2068 1740 1045 3695 1023 2619 1295 445 758 1836 426 1076 634 1339 279 255 297 240 332 783 619 419 1098 537 989 698 86 257 389 219 555 199 497 302 858 173 479 162 551 291 364 395 115 291 81 316 246 240 150 338 147 73 89 194 501 59 355 220 87
internal_count=7743 5763 1980 2068 1740 1045 3695 1023 2619 1295 445 758 1836 426 1076 634 1339 279 255 297 240 332 783 619 419 1098 537 989 698 86 257 389 219 555 199 497 302 858 173 479 162 551 291 364 395 115 291 81 316 246 240 150 338 147 73 89 194 501 59 355 220 87
is_linear=0
shrinkage=1


Tree=1
num_leaves=63
num_cat=0
split_feature=23 47 23 14 21 44 23 23 17 17 4 19 44 47 13 47 12 44 15 21 16 13 44 2 4 47 16 12 2 23 21 21 2 15 15 16 23 4 47 43 13 4 6 4 4 23 23 23 17 23 42 34 29 17 15 4 16 17 2 5 23 13
split_gain=8555.12 4259.03 2827.59 1514.62 1017.64 757.189 714.685 466.565 399.73 397.108 199.796 154.41 148.607 148.087 139.653 129.311 124.459 117.149 114.956 102.165 100.405 95.1622 94.9664 90.0163 87.3335 79.5634 77.7183 76.1622 74.5852 73.5187 93.7769 74.9519 71.1172 69.8598 67.9709 61.5865 60.8652 60.2732 59.253 55.9995 51.7523 50.837 50.8348 45.7581 43.4192 43.1831 39.0712 35.9007 35.2327 34.9217 34.8739 34.6297 34.5257 34.354 34.2087 34.069 44.4869 33.7439 33.4211 34.9171 32.8204 32.7081
threshold=1.0406639575958254 8.712675094604494 3.5942602157592778 11.610219983159883 100.50000000000001 10.115059375762941 -0.61734580993652333 -1.6654415130615232 0.029447709383012239 0.030158064637477285 401.50000000000006 20.500000000000004 7.2853057384490976 7.3743317127227792 12.525135195563371 5.555098533630372 0.069366479550922219 7.0677843093872079 7.4969295228992632 2.5000000000000004 1888.0000000000002 15.581931787474788 9.5434002876281756 49.500000000000007 251.00000000000003 5.7765305042266855 171.50000000000003 0.074537037037037054 39.500000000000007 0.16295409202575686 246.50000000000003 1.0000000180025095e-35 43.500000000000007 6.8808976929142709 9.4589567185031616 309.50000000000006 -3.2496256828308101 318.50000000000006 7.8499538898468026 11.60075092315674 14.898561522105121 65.500000000000014 0.37940952255126048 742.50000000000011 2.5000000000000004 -1.7011704444885252 0.47295784950256353 2.2071483135223393 0.013134198579125957 1.8616893291473391 0.019600390456616882 0.029843255877494815 -0.029930037446320053 0.02402541561508912 6.6333175676286595 251.00000000000003 734.50000000000011 0.012768604424168056 41.500000000000007 -0.70710678118654735 -2.8036913871765132 14.758372665992852
decision_type=2 2 2 2 2 2 2 2 2 2 2 2 2 2 2 2 2 2 2 2 2 2 2 2 2 2 2 2 2 2 2 2 2 2 2 2 2 2 2 2 2 2 2 2 2 2 2 2 2 2 2 2 2 2 2 2 2 2 2 2 2 2
left_child=1 6 4 7 8 22 12 28 13 11 15 37 -1 35 -9 -6 39 -13 57 -4 34 27 32 29 38 -10 -17 33 60 31 48 -16 40 45 55 50 -18 -8 -19 -7 -5 52 -35 61 -40 -14 -26 -37 -31 -28 -2 -50 -20 -43 -49 -11 -57 -15 -29 -60 -3 -27
right_child=2 3 19 5 10 16 9 14 25 20 -12 17 21 18 23 26 36 24 41 -21 -22 -23 -24 -25 46 43 49 58 -30 30 -32 -33 -34 42 -36 47 -38 -39 44 -41 -42 53 -44 -45 -46 -47 -48 54 51 -51 -52 -53 -54 -55 -56 56 -58 -59 59 -61 -62 -63
leaf_value=-0.03075754919639194 -0.024292032679785854 0.11430486025633635 -0.14520080607561839 0.012069716900587084 -0.19024200342796946 0.1755450453978401 -0.021992581986897328 -0.013184150386015454 -0.1099696048502381 -0.034640173787708423 -0.17062155082968128 -0.025210545459233319 0.065093301370357862 0.028477803012356164 0.020133808306578932 -0.17083725367601102 0.16153991413116456 0.010591915947374861 0.091541393259738368 -0.260651045221172 -0.072799800046593532 0.096909290710181908 0.12427837035820349 -0.026955028221011163 0.0018666159170560349 -0.066773043863497181 -0.062335144173130547 0.03014117994384833 0.017376544929164298 0.08938582438975573 -0.089296672414056963 0.076759660732147572 0.031117478524476796 0.083200209201054864 0.018235555291175844 -0.036536300620159452 0.050065079711930596 -0.096261588175748966 0.096084389039154713 0.21470934198748681 0.094791994792358114 0.038382515396612388 0.044030345317650925 -0.13986762940883637 0.031907847858473955 0.0040027516175281828 -0.03965021989627459 -0.12982866891659797 0.046799256268047519 -0.10493688689002507 0.064827565032811396 -0.03320057335173867 0.019734293279739527 -0.023939440526613377 -0.05543942167971503 -0.12938849174458047 -0.040366545504528201 -0.043044490747567409 0.034565391909116165 -0.015379857284312843 0.082988007530062038 -0.013904172577895224
leaf_weight=83 23 135 21 20 37 222 471 224 141 446 191 243 39 20 87 26 25 544 47 219 229 66 194 50 156 341 123 256 34 20 20 178 59 144 57 342 24 29 29 155 346 48 195 20 289 112 89 20 31 79 21 24 26 41 68 23 36 94 52 107 220 32
leaf_count=83 23 135 21 20 37 222 471 224 141 446 191 243 39 20 87 26 25 544 47 219 229 66 194 50 156 341 123 256 34 20 20 178 59 144 57 342 24 29 29 155 346 48 195 20 289 112 89 20 31 79 21 24 26 41 68 23 36 94 52 107 220 32
internal_value=-2.18758e-12 0.0308061 -0.0896644 0.0882617 -0.0674734 0.130599 -0.00135041 0.0450136 -0.0446862 -0.0152421 -0.131637 -0.00256439 0.033458 -0.0211459 0.018564 -0.103539 0.181904 0.00622665 0.00797013 -0.250549 -0.044893 0.0389471 0.0952914 0.0359094 0.0131275 -0.0777483 -0.0894693 0.03472 0.0881216 0.0446406 0.00690259 0.0581693 0.0820597 0.0480688 -0.0335217 -0.0380996 0.10694 -0.0263002 0.0206146 0.191647 0.0902717 0.0350394 0.0606689 -0.066188 0.0377604 0.0197811 -0.013215 -0.0438648 0.0325557 -0.0789962 0.0182423 0.0118902 0.0659663 0.0096724 -0.0723461 -0.0393637 -0.07507 -0.0304967 0.0189588 0.000954438 0.0948972 -0.0622374
internal_weight=7743 5763 1980 2068 1740 1045 3695 1023 1284 2641 456 1850 1054 750 634 265 426 1350 276 240 791 971 619 410 1107 534 228 905 389 360 95 265 425 490 562 474 49 500 862 377 366 162 339 393 318 151 245 430 75 202 44 55 73 89 88 505 59 114 415 159 355 373
internal_count=7743 5763 1980 2068 1740 1045 3695 1023 1284 2641 456 1850 1054 750 634 265 426 1350 276 240 791 971 619 410 1107 534 228 905 389 360 95 265 425 490 562 474 49 500 862 377 366 162 339 393 318 151 245 430 75 202 44 55 73 89 88 505 59 114 415 159 355 373
is_linear=0
shrinkage=0.05


Tree=2
num_leaves=63
num_cat=0
split_feature=44 23 13 44 23 23 21 21 4 47 21 17 23 4 12 17 12 2 4 23 13 23 21 15 4 13 17 23 4 15 47 12 17 29 0 47 19 13 17 46 19 19 2 0 12 23 2 4 15 47 21 24 43 41 29 17 23 47 25 6 37 47
split_gain=7746.26 3923.33 2034.27 1091.69 1014.2 826.058 698.773 605.719 331.689 322.275 288.508 261.821 256.355 171.889 166.891 128.529 116.489 115.784 113.478 105.948 104.525 98.7 87.3827 86.7353 84.2407 75.8217 75.3028 74.1689 73.0644 62.8645 62.0654 59.5538 59.0392 63.6755 58.6775 52.5395 51.1072 51.0546 49.1912 49.0027 48.5362 48.3136 47.7724 47.2907 46.5091 45.2839 53.2738 41.2472 39.6661 38.498 37.9226 37.1634 36.2627 33.9012 37.3025 33.2502 33.1763 33.1119 33.1198 32.6513 32.6472 32.0067
threshold=8.1564083099365252 2.6044239997863774 15.123250744434047 10.115059375762941 0.70214366912841808 -0.57928895950317372 1.0000000180025095e-35 404.50000000000006 242.50000000000003 6.9185731410980233 1.0000000180025095e-35 0.029447709383012239 3.5942602157592778 435.50000000000006 0.069366479550922219 0.032100255541590898 0.29217479674796754 34.500000000000007 397.50000000000006 -0.2454569339752197 15.277799028917821 -2.1118278503417964 16.500000000000004 6.7730797210986085 208.50000000000003 13.245031327319706 0.032775462896456484 -1.061681270599365 214.50000000000003 8.7175181582867669 5.555098533630372 0.22335600907029482 0.01586737865861023 0.077309157699346556 358.50000000000006 5.7368547916412362 25.500000000000004 15.895327848423561 0.02997755892576412 12.854769706726076 27.500000000000004 20.500000000000004 39.500000000000007 53.500000000000007 0.07362240289069559 -2.1604499816894527 14.500000000000002 414.00000000000006 8.595357002842297 5.8165235519409189 15.500000000000002 -0.10727222263813017 11.60075092315674 0.13208754360675815 0.099601097404956832 0.014341044896390714 -2.6678733825683589 8.1429185867309588 -0.025452310219407078 0.1294095225512602 -0.037694310769438737 8.6348810195922869
decision_type=2 2 2 2 2 2 2 2 2 2 2 2 2 2 2 2 2 2 2 2 2 2 2 2 2 2 2 2 2 2 2 2 2 2 2 2 2 2 2 2 2 2 2 2 2 2 2 2 2 2 2 2 2 2 2 2 2 2 2 2 2 2
left_child=1 4 5 8 9 10 59 11 17 26 24 20 35 23 34 27 25 45 51 31 36 -16 55 38 48 40 -1 -11 -28 -17 -13 -10 -25 -34 60 -8 43 -19 39 53 50 -29 -31 -6 57 -4 -47 -32 -2 -45 -12 -9 -36 54 -7 -22 -27 -43 -59 -3 -5 -48
right_child=2 6 3 14 7 13 12 18 19 15 16 30 -14 -15 21 29 -18 37 -20 -21 22 -23 -24 32 -26 56 28 41 -30 42 47 -33 33 -35 52 -37 -38 -39 -40 -41 -42 44 -44 49 -46 46 61 -49 -50 -51 -52 -53 -54 -55 -56 -57 -58 58 -60 -61 -62 -63
leaf_value=-0.019872106491484093 0.0068048878889789598 -0.091280321137786946 0.11481482013206308 0.11180212272419816 -0.048912498869681631 -0.017016064789209327 -0.20221488837684906 -0.1242987185302708 0.08511456413528859 0.04201981143528366 -0.0016087714107112683 -0.10421482529303042 -0.2474835137044806 -0.11783919092506552 0.14020394342286246 -0.026703729485220547 -0.013969996153581432 0.04950079421334707 -0.15273351102745791 -0.04399388547224755 0.089674987241223053 0.0030908354957188879 -0.057880269132909327 0.077036829392115286 -0.067553986694563084 0.11104227947787598 -0.040069380855824906 -0.011949415282705928 -0.10247331691111944 0.068168617965763109 -0.057550912916194658 -0.011486602215855211 -0.0086338456857497064 0.052887771608164685 0.17508129809390416 -0.13285131639777087 -0.062744467212124386 0.10339392829272483 -0.053655016004901246 -0.034596375057008119 0.077666991460888138 0.019810004293031376 -0.020915892570176061 -0.054646899080013522 0.0027740502693233212 0.14243060117348647 0.058088222784904123 -0.12763197930445047 0.081950783282518397 -0.014654476245684703 0.050744591204037195 -0.073087890236412434 0.20931619353916334 0.065135455131530767 0.044616530078553387 0.01090320743886488 0.078393814472849321 0.084849185293371043 0.022388722856597203 -0.033785003157289224 0.18815561646506901 0.091099898872148796
leaf_weight=388 144 58 240 42 174 118 42 54 39 219 47 99 227 39 35 316 41 236 139 66 37 21 21 30 37 104 203 202 61 34 460 27 220 52 176 78 108 54 108 160 124 338 27 68 383 39 107 22 20 523 131 103 138 20 31 21 309 44 41 43 21 234
leaf_count=388 144 58 240 42 174 118 42 54 39 219 47 99 227 39 35 316 41 236 139 66 37 21 21 30 37 104 203 202 61 34 460 27 220 52 176 78 108 54 108 160 124 338 27 68 383 39 107 22 20 523 131 103 138 20 31 21 309 44 41 43 21 234
internal_value=-3.52406e-10 -0.0420844 0.0594295 0.102599 -0.0266799 0.0227292 -0.182547 -0.0543492 0.0748698 -0.00424761 0.0538363 -0.0417055 -0.216237 -0.0155349 0.169328 0.00780095 0.067992 0.0856139 -0.119832 0.00080101 -0.025563 0.0887865 0.0295121 -0.0101359 0.000594139 0.0726919 -0.0338885 0.0156464 -0.0544885 -0.0177331 -0.0681559 0.0455959 0.0104696 0.00312764 0.181292 -0.157129 -0.0305469 0.0595361 -0.0243758 -0.0147644 0.0536511 0.00991643 0.0287378 -0.0260014 0.0153965 0.0978116 0.0870727 -0.0607496 0.015969 -0.019256 0.036921 -0.0907018 0.190127 0.0040114 -0.00419318 0.0611542 0.0866152 0.0268253 0.0547212 -0.0668021 0.137253 0.0807414
internal_weight=7743 4533 3210 1475 4085 1735 448 1829 1042 2256 957 1533 347 778 433 1604 756 910 296 132 952 56 79 739 201 715 652 1227 264 377 581 66 302 272 377 120 873 290 437 329 302 1008 61 765 806 620 380 482 164 591 178 157 314 169 149 58 413 423 85 101 63 341
internal_count=7743 4533 3210 1475 4085 1735 448 1829 1042 2256 957 1533 347 778 433 1604 756 910 296 132 952 56 79 739 201 715 652 1227 264 377 581 66 302 272 377 120 873 290 437 329 302 1008 61 765 806 620 380 482 164 591 178 157 314 169 149 58 413 423 85 101 63 341
is_linear=0
shrinkage=0.05


Tree=3
num_leaves=63
num_cat=0
split_feature=23 47 23 14 21 23 47 23 17 17 4 21 47 9 47 47 47 28 4 47 14 13 21 20 4 13 21 2 12 47 2 13 12 14 12 4 0 21 4 18 33 14 12 4 2 4 12 2 2 27 17 19 45 47 14 13 17 12 2 4 27 4
split_gain=7001.62 3484.15 2298.4 1232.12 843.865 585.912 576.375 387.428 333.809 328.721 163.454 136.348 123.357 115.153 108.957 108.358 99.2391 93.191 91.1571 97.3878 90.4258 83.6544 82.5029 78.0115 77.7787 75.5722 71.8197 70.7663 68.415 66.892 64.8692 63.508 68.8819 59.5804 58.9696 57.9105 55.082 55.7433 51.4508 48.7451 47.5554 47.4817 46.8677 46.5443 45.1501 43.7265 42.4332 42.4182 41.7446 41.4668 41.088 53.5551 39.5864 39.4556 39.0955 38.0681 37.6814 36.6827 35.7047 35.4611 35.2414 34.821
threshold=1.0406639575958254 8.712675094604494 3.5942602157592778 11.610219983159883 100.50000000000001 -0.60143852233886708 10.275352001190187 -1.401405334472656 0.030158064637477285 0.029447709383012239 401.50000000000006 97.500000000000014 7.3743317127227792 1.0000000180025095e-35 7.5388696193695077 5.555098533630372 7.12422800064087 -0.030379746109247204 27.500000000000004 11.183655738830568 8.9242570120275868 12.180897210107679 2.5000000000000004 1.0000000180025095e-35 214.50000000000003 13.757887799800232 1.0000000180025095e-35 50.500000000000007 0.07362240289069559 6.2100920677185067 43.500000000000007 15.323800284518574 0.29217479674796754 12.624317287206987 0.037749287749287756 366.50000000000006 90842.000000000015 12.500000000000002 42.500000000000007 0.00032481327288568803 0.077128436416387572 11.231429785660694 0.028174603174603175 58.500000000000007 30.500000000000004 61.500000000000007 0.35634920634920642 33.500000000000007 14.500000000000002 0.19495187699794772 0.030788944159638263 20.500000000000004 1.6049625277519228 6.8407893180847177 12.624317287206987 12.735112530246846 0.013134198579125957 0.13680926916221037 26.500000000000004 390.50000000000006 0.023856565356254581 716.00000000000011
decision_type=2 2 2 2 2 2 2 2 2 2 2 2 2 2 2 2 2 2 2 2 2 2 2 2 2 2 2 2 2 2 2 2 2 2 2 2 2 2 2 2 2 2 2 2 2 2 2 2 2 2 2 2 2 2 2 2 2 2 2 2 2 2
left_child=1 5 4 7 9 14 17 26 11 12 15 16 42 -8 34 -6 56 30 -15 -20 52 -9 -4 41 33 -14 58 35 40 -11 48 32 36 57 -1 38 37 50 -23 -13 -22 -17 45 -27 -19 -2 -44 -30 -5 -46 -16 -52 -18 -26 -50 -36 -7 -10 -3 -41 -55 -31
right_child=2 3 22 6 10 8 13 21 24 29 -12 39 25 18 31 23 20 44 19 -21 28 27 -24 -25 53 43 -28 -29 47 61 -32 -33 -34 -35 55 -37 -38 -39 -40 59 -42 -43 46 -45 49 -47 -48 -49 54 -51 51 -53 -54 60 -56 -57 -58 -59 -60 -61 -62 -63
leaf_value=0.041237999737117587 -0.026264481007394088 0.068464246015487756 -0.13149660488679296 0.15765238885457319 -0.17349186024150334 0.034331790267606264 0.12284766201067854 -0.015430327971054855 -0.028663353651658237 -0.09330092732555903 -0.15479928113481137 -0.090615219554226648 -0.026083986045649422 0.24636537383000057 0.034752708731231922 -0.096643983423709875 0.00662064087768169 0.084250732569188039 0.12339275866193143 0.19311291625422816 0.034845997498426116 -0.016701133497473267 -0.23524430778609018 -0.065743329328631334 -0.09628533329708841 0.057140080084239965 0.081583661088568515 -0.033570982422679661 0.030762271468512833 -0.052639242485313424 0.046363591784850146 0.083617405422233254 -0.022892812175753841 0.052724315319210291 -0.037353943587764157 -0.042691991478204731 0.11692622124471448 0.058681338216292157 0.046852084950976702 -0.017961903008011478 0.094575296304164794 -0.19610264331102373 -0.048186424851708404 0.00476493259096363 0.030235072393070467 0.041895173106229672 0.018136119212095552 -0.0074237969243048894 0.085359600845437797 0.1080246348466192 0.062993017149468269 -0.022960195360025644 -0.022160973001421076 -0.072056609084208814 0.12397747551834824 0.0063456276300604703 -0.018660980907512066 -0.060423274151980878 -0.014823014730767858 -0.074516751332318082 -0.017191329893345635 -0.12067583117634058
leaf_weight=77 82 22 21 48 37 36 108 179 449 199 191 38 104 48 347 30 334 193 74 155 229 36 219 178 77 76 412 44 126 315 39 74 48 20 79 23 22 196 276 150 39 20 333 96 93 33 26 172 117 21 24 74 186 75 149 135 492 114 31 34 48 20
leaf_count=77 82 22 21 48 37 36 108 179 449 199 191 38 104 48 347 30 334 193 74 155 229 36 219 178 77 76 412 44 126 315 39 74 48 20 79 23 22 196 276 150 39 20 333 96 93 33 26 172 117 21 24 74 186 75 149 135 492 114 31 34 48 20
internal_value=2.54725e-10 0.0278691 -0.081116 0.0798359 -0.061109 -0.00121545 0.118022 0.040829 -0.0139774 -0.0403583 -0.119538 -0.00232016 -0.0190111 0.166641 0.0298473 -0.0941241 0.00273322 0.0896606 0.183715 0.170583 0.0113782 0.0127399 -0.226166 -0.0812442 -0.0413116 0.00756284 0.0745358 0.0260446 0.0252073 -0.0703404 0.107182 0.0395347 0.0349466 -0.0320817 0.00371486 0.0338747 0.0391341 0.0364641 0.039519 -0.0390596 0.0435379 -0.136427 -0.0344846 0.0279074 0.0695139 -0.00670562 -0.0433831 0.00872199 0.114736 0.0445647 0.0266786 -0.00191043 -0.00367432 -0.068217 0.106991 -0.00978646 -0.0150478 -0.0350943 0.0197491 -0.0284123 -0.0506458 -0.0567011
internal_weight=7743 5763 1980 2068 1740 3695 1045 1023 2619 1284 456 1836 750 385 1076 265 1614 660 277 229 1086 558 240 228 783 276 465 379 566 534 353 785 711 583 291 335 663 641 312 222 268 50 474 172 307 115 359 298 314 114 445 98 520 200 266 214 528 563 53 184 123 335
internal_count=7743 5763 1980 2068 1740 3695 1045 1023 2619 1284 456 1836 750 385 1076 265 1614 660 277 229 1086 558 240 228 783 276 465 379 566 534 353 785 711 583 291 335 663 641 312 222 268 50 474 172 307 115 359 298 314 114 445 98 520 200 266 214 528 563 53 184 123 335
is_linear=0
shrinkage=0.05


Tree=4
num_leaves=63
num_cat=0
split_feature=44 23 13 44 23 23 21 21 4 47 17 4 4 45 21 17 19 47 2 13 4 23 21 2 16 4 23 15 13 47 2 4 28 19 2 19 15 17 23 4 0 2 4 2 0 0 4 23 16 4 13 16 46 15 27 4 47 2 0 40 23 15
split_gain=6341.68 3214.43 1675.55 882.773 828.212 682.186 573.981 493.97 277.218 267.128 212.188 210.866 169.395 142.412 126.578 106.964 99.5959 97.4845 95.54 93.1943 91.577 88.4197 70.5105 64.5461 64.4505 62.7719 61.2701 58.2768 52.7732 52.1221 49.0371 48.1449 47.2578 45.9434 45.7347 43.7601 43.2578 52.2752 43.2294 42.9274 42.5597 42.3265 41.9267 39.8019 38.9938 38.9883 62.8834 37.9807 37.0172 36.099 36.0624 35.6131 40.1864 35.3293 34.7159 33.8549 31.114 31.105 35.8017 31.237 30.9887 30.8058
threshold=8.1564083099365252 2.6044239997863774 15.123250744434047 10.115059375762941 0.70214366912841808 -1.1868820190429685 1.0000000180025095e-35 388.50000000000006 242.50000000000003 6.8407893180847177 0.029447709383012239 129.50000000000003 435.50000000000006 1.7747042179107668 1.0000000180025095e-35 0.032100255541590898 27.500000000000004 11.300938129425051 34.500000000000007 15.277799028917821 397.50000000000006 -0.2454569339752197 16.500000000000004 46.500000000000007 1888.0000000000002 208.50000000000003 -1.2754430770874021 8.7175181582867669 12.21773431550746 5.555098533630372 45.500000000000007 210.50000000000003 -0.042284119874238961 20.500000000000004 39.500000000000007 25.500000000000004 9.8346973029344316 0.036482593245676813 -2.8036913871765132 108.50000000000001 25.500000000000004 35.500000000000007 51.500000000000007 51.500000000000007 7145.0000000000009 225.50000000000003 463.00000000000006 -0.3886799812316894 1375.5000000000002 214.50000000000003 12.600584589708665 1831.5000000000002 10.654335975646974 6.7244330414940263 -0.2367964833974838 414.00000000000006 7.2825450897216806 12.500000000000002 240.50000000000003 -0.059942439198493951 -2.0703606605529781 7.4529821614335061
decision_type=2 2 2 2 2 2 2 2 2 2 2 2 2 2 2 2 2 2 2 2 2 2 2 2 2 2 2 2 2 2 2 2 2 2 2 2 2 2 2 2 2 2 2 2 2 2 2 2 2 2 2 2 2 2 2 2 2 2 2 2 2 2
left_child=1 4 5 8 9 14 -3 10 18 24 19 39 13 28 25 26 41 31 32 35 -9 43 -21 38 -1 48 -11 51 -7 -12 42 57 -4 -28 -29 40 37 -20 -16 -8 -6 47 -30 -10 -35 -13 -47 -15 -2 -26 -40 -17 -53 -43 -49 -31 -42 -5 -59 -60 -34 -58
right_child=2 6 3 17 7 12 11 20 21 15 29 45 -14 16 23 27 -18 -19 36 22 -22 -23 -24 -25 49 -27 33 34 30 55 -32 -33 60 44 -36 -37 -38 -39 50 -41 56 53 -44 -45 -46 46 -48 54 -50 -51 -52 52 -54 -55 -56 -57 61 58 59 -61 -62 -63
leaf_value=-0.02586634229633987 0.012383019764725445 -0.060317459820059705 0.105768263454074 0.17682420807640728 -0.051807945155898073 -0.0063926940929377452 -0.16629507988541117 -0.082112517710951974 0.068679496239532123 0.040275358573070484 -0.094549064654292483 -0.19703616897265119 -0.10771602866932369 0.01581123628018332 0.09559051591277748 -0.013619159149637104 0.056191899157350969 0.17684527727060539 0.053347910911060753 0.057126853623074195 -0.13775487847143797 -0.040620469771833589 -0.051744929067790518 0.0018996419970478331 -0.029522872599022046 -0.057702467264607551 -0.011059090050979955 0.065903159100562339 -0.0089673829726858202 -0.051819524892084502 -0.011050285837781202 0.066899544939709218 0.098253830131448686 0.01160065963438674 -0.019005124887515761 -0.057625197541158371 0.08972544867940474 -0.01660122504878429 0.037894886480096507 -0.22928800922730624 -0.026419803145591576 -0.073632323263356322 0.050202903861589369 -0.01368802511556582 0.056682932698259171 -0.07104721001038948 -0.15886389778015464 0.040461876112967733 0.086865892193534161 -0.096991902091963733 0.072182629551229144 -0.014698102673951616 -0.077149170735164696 -0.025894973342656159 -0.027881027326585001 -0.11531079086390408 -0.023051171190132506 0.073059679433703423 0.17251811718398877 0.12018328038630662 0.067494361826039129 0.014675201684759373
leaf_weight=508 69 101 249 41 114 128 31 158 44 183 99 21 39 81 143 228 42 215 193 58 139 66 20 35 31 26 226 35 35 460 54 27 122 806 29 108 66 31 102 212 434 65 207 22 51 36 47 20 22 55 309 47 57 96 262 22 103 25 44 81 249 114
leaf_count=508 69 101 249 41 114 128 31 158 44 183 99 21 39 81 143 228 42 215 193 58 139 66 20 35 31 26 226 35 35 460 54 27 122 806 29 108 66 31 102 212 434 65 207 22 51 36 47 20 22 55 309 47 57 96 262 22 103 25 44 81 249 114
internal_value=1.1752e-10 -0.0380783 0.0537722 0.0929509 -0.0241347 0.0204647 -0.165219 -0.0491386 0.0680159 -0.00386343 -0.0376977 -0.195753 -0.00550496 -0.00147846 0.0583157 0.00642237 -0.0178919 0.152956 0.0778382 -0.0231532 -0.108154 0.000301593 0.029211 0.0677515 -0.0326429 0.0108138 0.0135166 -0.0162576 0.020432 -0.0615046 0.0320318 0.129395 0.0889183 0.00899502 0.0274291 -0.0278318 0.0541496 0.0436675 0.0719118 -0.221252 -0.0236256 -0.02383 0.0416452 0.0412237 0.0142835 -0.136174 -0.120775 -0.0143661 0.0303899 -0.0726717 0.0636733 -0.0246792 -0.0489261 -0.0451678 -0.023034 -0.0547175 -0.0186905 0.13823 0.127681 0.138605 0.0776093 -0.00323179
internal_weight=7743 4533 3210 1475 4085 1735 448 1829 1042 2256 1532 347 1029 990 706 1662 566 433 910 951 297 132 78 589 594 117 1266 396 424 581 296 218 620 1083 64 873 290 224 554 243 765 524 242 66 857 104 83 363 91 86 411 332 104 161 282 482 651 191 150 125 371 217
internal_count=7743 4533 3210 1475 4085 1735 448 1829 1042 2256 1532 347 1029 990 706 1662 566 433 910 951 297 132 78 589 594 117 1266 396 424 581 296 218 620 1083 64 873 290 224 554 243 765 524 242 66 857 104 83 363 91 86 411 332 104 161 282 482 651 191 150 125 371 217
is_linear=0
shrinkage=0.05


Tree=5
num_leaves=63
num_cat=0
split_feature=23 47 23 14 44 23 12 23 17 19 4 16 2 9 17 4 19 44 4 13 47 12 16 16 0 14 13 8 17 15 0 4 46 47 2 2 2 14 19 47 0 4 23 15 2 29 4 23 2 4 23 47 36 15 45 36 4 4 46 14 0 12
split_gain=5730.42 2856.4 1872.4 1005.64 499.558 477.754 407.344 319.702 275.081 189.484 178.877 218.06 146.164 127.93 118.969 113.882 110.682 106.543 99.5061 98.726 98.1762 90.0923 84.4936 74.8119 72.268 72.2318 72.1446 71.9589 71.7087 68.7853 68.2081 65.81 62.6291 61.7785 59.2369 55.6251 54.7854 53.9562 52.5917 52.1849 51.2522 50.6402 50.407 48.1318 47.7567 47.5186 45.1002 42.7624 41.5892 40.4867 39.7957 38.2922 33.4215 38.3565 39.1159 31.4182 30.817 29.9935 28.1523 27.9097 27.4288 27.2439
threshold=1.0406639575958254 8.712675094604494 3.5942602157592778 11.610219983159883 10.115059375762941 -0.61734580993652333 0.032795698924731186 -1.6654415130615232 0.030158064637477285 24.500000000000004 255.50000000000003 882.50000000000011 62.500000000000007 1.0000000180025095e-35 0.02441358466608997 487.00000000000006 20.500000000000004 7.2853057384490976 42.500000000000007 12.525135195563371 10.916247844696047 0.069366479550922219 987.50000000000011 1888.0000000000002 7145.0000000000009 12.662941244189222 15.581931787474788 1.0000000180025095e-35 0.012768604424168056 8.6767577465519441 52663.500000000007 242.50000000000003 9.5723290443420428 8.0659399032592791 30.500000000000004 39.500000000000007 31.500000000000004 10.705152716060148 25.500000000000004 6.2574284076690683 177.50000000000003 53.500000000000007 -0.17645978927612302 9.4589567185031616 43.500000000000007 -0.034602424129843705 318.50000000000006 0.69143199920654308 14.500000000000002 601.50000000000011 1.5515661239624026 7.657330036163331 -0.090041581541299806 7.1616207992213861 1.6618199944496157 0.0096396245062351244 463.00000000000006 3.5000000000000004 11.869406223297121 8.325424527024575 451.50000000000006 0.11396103896103897
decision_type=2 2 2 2 2 2 2 2 2 2 2 2 2 2 2 2 2 2 2 2 2 2 2 2 2 2 2 2 2 2 2 2 2 2 2 2 2 2 2 2 2 2 2 2 2 2 2 2 2 2 2 2 2 2 2 2 2 2 2 2 2 2
left_child=1 5 6 7 25 17 28 35 16 10 14 40 15 60 37 50 46 -1 -15 61 -20 33 -13 43 39 34 30 -4 45 -30 44 41 -31 48 -5 -3 51 -8 -33 -16 -12 -21 -36 -10 52 -2 59 -38 55 -24 -11 -23 -19 54 -54 -18 -42 -35 -32 -7 -6 -9
right_child=2 3 27 4 13 8 9 19 23 12 11 22 -14 18 24 -17 21 26 20 31 -22 36 49 -25 -26 -27 -28 -29 29 32 58 38 -34 57 42 -37 47 -39 -40 -41 56 -43 -44 -45 -46 -47 -48 -49 -50 -51 -52 -53 53 -55 -56 -57 -58 -59 -60 -61 -62 -63
leaf_value=-0.027035033381936781 0.094670871038127824 0.078560946485237551 -0.1421492460876321 0.08234664858502197 0.081351430756682219 -0.030188067579212993 -0.032008100242679381 -0.0028197409449842391 -0.032258396380912921 -0.052517197168837751 -0.19468748370806377 -0.034398906154376345 -0.21409844259421029 0.22524279335449482 -0.081302862668942141 -0.14392752261602715 0.010966916605830193 0.009456291389938417 0.10294189944233695 0.0094081139861373238 0.17306936539354778 -0.0052448287344664156 -0.064121055500764468 -0.061246942747160631 0.038518657708274472 0.10404493561024493 0.082453366580673246 -0.21636353452407306 -0.031344757363721346 -0.040940836567431693 0.053620239761808235 -0.034521526169245607 0.055064976894964451 0.10203303221613169 0.055233814441538479 0.011614629198961399 -0.010531278626395031 0.023736867351089042 0.043834188207983973 -0.043564487645261975 -0.074538922247787326 0.053468010493218449 -0.022670142414669196 0.016211401424043925 0.0031109245881659085 0.00086392720264417153 -0.08254209674637894 -0.049630963663342874 0.0054845256400046349 -0.13041253125383742 -0.087936910442076632 0.03386352596423297 0.035747011897431812 0.049332587421425461 -0.0085878744119933497 0.096654186709581522 -0.1388621234645446 0.036769883755790898 0.12859891149259747 -0.0058387966089598516 0.12769879436408971 -0.046340447010265462
leaf_weight=83 27 355 39 254 58 241 83 179 505 124 30 164 24 58 140 73 20 138 71 92 168 162 51 229 21 187 66 201 193 25 31 61 53 20 154 34 302 91 33 265 27 224 24 57 194 27 29 91 483 42 220 102 161 288 72 23 60 147 21 230 71 45
leaf_count=83 27 355 39 254 58 241 83 179 505 124 30 164 24 58 140 73 20 138 71 92 168 162 51 229 21 187 66 201 193 25 31 61 53 20 154 34 302 91 33 265 27 224 24 57 194 27 29 91 483 42 220 102 161 288 72 23 60 147 21 230 71 45
internal_value=1.71992e-10 0.0252126 -0.0733838 0.0722655 0.106764 -0.00112182 -0.0553259 0.0370255 -0.0124798 -0.06692 -0.0546084 -0.0817482 -0.0941118 0.148436 -0.0376912 -0.0872061 -0.0019282 0.0273378 0.166494 0.015131 0.152237 0.00551466 -0.055988 -0.037158 -0.0519204 0.0780846 0.0319855 -0.204304 -0.00484669 -0.0153307 0.028305 0.0297149 0.0242939 0.0180913 0.0668472 0.0727096 -0.00775106 -0.00285412 -0.00701367 -0.0566099 -0.138333 0.0406404 0.0447299 -0.0273424 0.0249158 0.0477674 -0.0220239 -0.0195849 0.00967949 -0.0940591 -0.0751693 0.00986522 0.0313349 0.03713 0.022047 0.0567996 -0.1189 0.0445858 0.0839001 -0.0182978 0.10686 -0.0115627
internal_weight=7743 5763 1980 2068 1045 3695 1740 1023 2641 1415 974 374 441 426 600 417 1850 1054 297 634 239 1350 257 791 426 619 971 240 325 271 905 410 78 693 432 389 657 174 94 405 117 316 178 562 853 54 500 393 526 93 344 264 659 521 233 43 87 167 52 471 129 224
internal_count=7743 5763 1980 2068 1045 3695 1740 1023 2641 1415 974 374 441 426 600 417 1850 1054 297 634 239 1350 257 791 426 619 971 240 325 271 905 410 78 693 432 389 657 174 94 405 117 316 178 562 853 54 500 393 526 93 344 264 659 521 233 43 87 167 52 471 129 224
is_linear=0
shrinkage=0.05


Tree=6
num_leaves=63
num_cat=0
split_feature=44 23 15 44 23 23 21 21 47 2 17 47 45 21 12 9 23 2 45 17 17 24 12 23 2 47 15 15 21 17 17 23 17 28 47 47 15 15 26 45 23 16 23 15 2 12 12 0 23 20 17 0 2 43 21 15 43 0 28 6 16 46
split_gain=5182.11 2627.86 1278.59 735.858 675.066 621.355 476.571 413.523 226.633 190.418 174.889 170.15 155.319 128.663 125.664 128.518 113.621 96.0642 86.1376 85.745 85.1596 81.886 81.1027 64.8528 60.7915 58.5798 55.8689 55.3792 54.2919 54.2675 50.8931 49.7576 48.0359 47.6454 46.7665 44.7034 43.831 42.0802 40.3515 61.1922 38.3808 41.5804 38.2794 37.9363 37.4293 37.2667 38.2309 35.7131 35.2434 33.3311 32.2726 35.3798 31.8574 31.7886 37.032 31.8783 31.7633 31.5549 29.1876 28.8348 28.5889 34.6953
threshold=8.1564083099365252 2.6044239997863774 8.7776324532243422 10.115059375762941 0.70214366912841808 -0.95648527145385731 1.0000000180025095e-35 356.50000000000006 6.9185731410980233 29.500000000000004 0.029447709383012239 5.1582927703857431 1.7747042179107668 1.0000000180025095e-35 0.069366479550922219 1.0000000180025095e-35 -0.3886799812316894 32.500000000000007 1.2559362649917605 0.02997755892576412 0.032100255541590898 -0.10727222263813017 0.26393188854489169 0.16295409202575686 16.500000000000004 7.3850882053375253 7.1793076790332488 7.4529821614335061 2.5000000000000004 0.032775462896456484 0.03289801318314093 -1.061681270599365 0.022282696683513733 -0.10937547683715819 8.2004842758178729 5.555098533630372 8.8482937578854006 9.9618503509185761 -0.06857499852776526 2.129766702651978 -0.9012475013732909 1026.5000000000002 -2.1957111358642574 3.1984648276080736 40.500000000000007 0.032795698924731186 0.35634920634920642 7145.0000000000009 -0.060492515563964837 14.511248073959939 0.013905450942778593 143.50000000000003 55.500000000000007 8.1847453117370623 404.50000000000006 6.9584479415054643 10.845900535583498 451.50000000000006 -0.084849633276462541 0.1294095225512602 1831.5000000000002 10.654335975646974
decision_type=2 2 2 2 2 2 2 2 2 2 2 2 2 2 2 2 2 2 2 2 2 2 2 2 2 2 2 2 2 2 2 2 2 2 2 2 2 2 2 2 2 2 2 2 2 2 2 2 2 2 2 2 2 2 2 2 2 2 2 2 2 2
left_child=1 4 5 9 8 13 59 10 29 38 25 -8 19 26 15 57 22 23 -16 43 31 -9 37 28 -17 45 30 -27 -14 -1 -2 -10 -30 -31 -15 -12 60 -11 39 -4 -40 -42 -36 -7 -38 -6 -47 -33 -21 -24 -29 -52 -13 -19 55 -55 -26 -5 -45 -3 -22 -62
right_child=2 6 3 14 7 12 11 21 20 16 35 52 17 34 18 24 -18 53 -20 48 36 -23 49 -25 56 27 -28 50 32 33 -32 47 -34 -35 42 -37 44 -39 40 -41 41 -43 -44 58 -46 46 -48 -49 -50 -51 51 -53 -54 54 -56 -57 -58 -59 -60 -61 61 -63
leaf_value=-0.016470431974403725 0.0080070187194035101 -0.076794427479135577 0.090990971887757066 0.080853463996512207 -0.0088612898399100404 -0.0098495809696614745 -0.20281927201534269 -0.12595821976063459 0.034578712074698446 0.054916940782498952 -0.085906685437216912 -0.11494622964250006 -0.0096044775407419236 0.02890675001544878 0.11500032118388587 0.21398065295712701 0.0011672716660957253 -0.01982157762247053 -0.015076104300096633 0.0056931047576945278 -0.011167528007255354 -0.074146309620051018 0.056008548572659494 -0.027440255956308359 0.11096256718491063 -0.025342182442203494 0.042174237724975687 0.064828856090704601 0.086058701221880168 -0.094691703308905875 -0.081482882549365365 0.0062259231626403504 0.002913860679836944 -0.036617766147865369 0.080603809148750538 -0.048998810050232315 0.064711303412914284 0.098206978389508523 0.089813624189732821 0.17831636187822925 -0.0013437050793852125 0.066840060658517983 0.054798203392381284 0.0021033981260150038 -0.018126121431589128 -0.039574117193486073 0.020652873281921662 0.051322899532818204 -0.054288292571436615 -0.013821326049596626 -0.052127684865679064 0.018800904021460424 -0.17504632868643466 -0.080688440067500908 -0.12768099308013917 -0.028914395335023518 0.1647815352972643 0.13132527293637394 0.045673504970654394 -0.022763655646595844 -0.011233486040778784 -0.070077930810776623
leaf_weight=388 47 58 157 60 172 50 226 137 219 243 99 92 98 93 35 58 140 55 20 50 221 172 25 206 33 136 64 30 38 42 24 962 32 222 275 479 30 73 146 23 28 111 301 47 25 447 28 46 48 54 21 108 29 58 20 61 162 64 211 43 46 55
leaf_count=388 47 58 157 60 172 50 226 137 219 243 99 92 98 93 35 58 140 55 20 50 221 172 25 206 33 136 64 30 38 42 24 962 32 222 275 479 30 73 146 23 28 111 301 47 25 447 28 46 48 54 21 108 29 58 20 61 162 64 211 43 46 55
internal_value=1.49438e-10 -0.0344214 0.0486081 0.0837704 -0.0218141 0.0202884 -0.149378 -0.0443882 -0.0035127 0.0602125 -0.0336688 -0.1772 -0.00656639 0.0528216 0.138303 0.148603 0.0398714 -0.0234471 0.0676998 0.01705 0.00659106 -0.0971179 0.0535893 -0.00863759 0.169041 -0.0203836 0.0082955 -0.00191815 0.0144181 -0.0283692 -0.0222431 0.0129771 0.0480496 -0.0458568 0.0618066 -0.0553204 -0.0141933 0.0649175 0.0836156 0.102149 0.0719102 0.0531052 0.0671186 0.0300113 0.0270579 -0.0288029 -0.0360239 0.00828392 -0.0236855 0.00827674 0.0181175 0.00725439 -0.12935 -0.0519975 -0.064729 -0.0541488 0.155674 0.106903 0.0377363 -0.0537912 -0.0212393 -0.0432775
internal_weight=7743 4533 3210 1432 4085 1778 448 1829 2256 1000 1520 347 974 804 432 377 535 568 55 406 1604 309 395 374 253 942 135 295 168 652 71 1227 70 264 669 578 377 316 465 180 285 139 576 308 55 647 475 1008 98 79 159 129 121 194 139 119 195 124 258 101 322 101
internal_count=7743 4533 3210 1432 4085 1778 448 1829 2256 1000 1520 347 974 804 432 377 535 568 55 406 1604 309 395 374 253 942 135 295 168 652 71 1227 70 264 669 578 377 316 465 180 285 139 576 308 55 647 475 1008 98 79 159 129 121 194 139 119 195 124 258 101 322 101
is_linear=0
shrinkage=0.05


Tree=7
num_leaves=63
num_cat=0
split_feature=23 47 23 14 21 23 44 23 17 17 21 9 4 15 43 15 4 47 17 20 4 4 19 2 14 43 3 8 26 28 19 17 14 47 2 15 47 4 2 21 0 2 18 15 25 25 29 23 21 23 43 20 4 25 4 14 18 14 5 47 3 4
split_gain=4687.17 2412.14 1468.36 821.157 561.567 410.286 404 261.336 241.456 205.08 125.727 107.221 98.0807 87.475 86.4085 84.8279 80.9214 81.3329 77.6573 74.2592 67.0023 66.6067 64.8096 60.9841 59.6865 59.3698 64.7384 59.2371 58.9431 55.7315 55.5483 48.7422 53.9469 48.3043 47.3716 47.0643 46.7657 45.6342 44.6644 41.4081 54.2563 40.6959 40.5251 39.9351 37.283 37.1709 33.4839 36.2573 31.9203 36.6418 31.8951 30.0356 29.5812 29.0005 28.8437 28.2896 28.19 27.4793 26.2559 25.5237 24.9616 24.9246
threshold=1.1056623458862307 8.712675094604494 3.5942602157592778 11.610219983159883 131.50000000000003 -0.60143852233886708 10.115059375762941 -1.6654415130615232 0.029628329729994605 0.029447709383012239 97.500000000000014 1.0000000180025095e-35 401.50000000000006 6.8601392875512452 7.2356436252594003 6.7244330414940263 42.500000000000007 10.916247844696047 0.012768604424168056 1.0000000180025095e-35 243.50000000000003 214.50000000000003 20.500000000000004 46.500000000000007 12.662941244189222 7.4498186111450204 1.0000000180025095e-35 1.0000000180025095e-35 0.26583975553512579 -0.078965708613395677 25.500000000000004 0.013001099765314212 8.843686924757959 5.5006213188171396 39.500000000000007 9.2899367398980974 5.7765305042266855 519.50000000000011 30.500000000000004 1.0000000180025095e-35 52663.500000000007 14.500000000000002 0.0003934881346037994 7.4969295228992632 0.13493525236845019 -0.095278203487396226 0.037407465279102332 -0.5173058509826659 5.5000000000000009 -0.14795756340026853 7.8572528362274179 12.60326086956522 146.50000000000003 0.35870333015918737 342.50000000000006 11.864226322599821 0.0044895537334375497 8.843686924757959 -0.25881904510252113 8.2862391471862811 1.0000000180025095e-35 3.5000000000000004
decision_type=2 2 2 2 2 2 2 2 2 2 2 2 2 2 2 2 2 2 2 2 2 2 2 2 2 2 2 2 2 2 2 2 2 2 2 2 2 2 2 2 2 2 2 2 2 2 2 2 2 2 2 2 2 2 2 2 2 2 2 2 2 2
left_child=1 5 4 7 9 13 24 34 10 18 14 61 19 29 31 48 -13 -18 43 45 50 35 -16 39 38 -20 -27 -4 56 51 -22 32 -7 -21 -3 -10 -11 42 -5 40 59 44 -12 -2 -24 -6 47 -40 52 -50 -17 -1 -9 -48 57 -38 -23 -43 -25 -15 -59 -8
right_child=2 3 27 6 12 8 11 15 21 36 37 16 -14 23 22 20 17 -19 25 33 30 28 41 58 -26 26 -28 -29 -30 -31 -32 -33 -34 -35 -36 -37 55 -39 46 -41 -42 54 -44 -45 -46 -47 53 -49 49 -51 -52 -53 -54 -55 -56 -57 -58 60 -60 -61 -62 -63
leaf_value=-0.05073080236480261 -0.0021695514114535588 0.071135687814684406 -0.12821220048727133 0.073872097417006441 -0.074587468728423131 -0.021150273904204372 0.078546857032924897 -0.010294352666068391 -0.029842739022632445 -0.083691465139067445 -0.067943403860233953 0.20328161963101091 -0.12893869589973728 0.011300916671094419 -0.013817972923357749 -0.0079004083401881722 0.092577798118893537 0.15640684573778085 -0.033237549429378024 -0.13258992614953413 -0.036172528781961387 -0.078879681532739998 0.1134725412087781 0.025728279219963304 0.094156718459673869 -0.022207002749305791 0.040325270070355725 -0.19554741815548038 0.0037907297126366759 0.014616308097520439 0.048141499832272533 -0.015218005145309963 0.077567726289553038 -0.055096554233459764 0.0093553552130127664 0.026891408633822819 -0.053614193892713186 -0.098874305781478489 0.037310708130615343 0.055736714623601392 0.079013935644584518 0.0065653080243780679 -0.016373481954797171 0.066647798517668569 0.018084735213778912 -0.15880044698715212 0.086647654134991037 -0.037722741351241158 0.038060140535235404 -0.024596955898616997 0.050645641155427162 0.020021827891469002 -0.072985223503339858 0.028963636790679117 -0.0062448374068950338 -0.0012675688984537764 -0.026473836064518943 0.039453194676643266 -0.015618305347145421 0.04784015262174228 0.014001983893171581 0.12354820215702056
leaf_weight=60 49 355 39 256 20 25 80 181 583 139 50 58 184 198 194 26 71 168 435 23 56 149 21 81 188 111 66 201 32 263 30 618 31 160 34 39 330 26 69 272 46 233 160 37 20 38 53 21 70 35 221 20 21 37 124 28 31 219 73 63 172 50
leaf_count=60 49 355 39 256 20 25 80 181 583 139 50 58 184 198 194 26 71 168 435 23 56 149 21 81 188 111 66 201 32 263 30 618 31 160 34 39 330 26 69 272 46 233 160 37 20 38 53 21 70 35 221 20 21 37 124 28 31 219 73 63 172 50
internal_value=3.97784e-11 0.021874 -0.0691853 0.0651655 -0.052086 -0.00180374 0.096251 0.0334154 -0.0121198 -0.0345301 -0.00224441 0.133726 -0.101449 0.0243411 0.00261858 0.0137706 0.150302 0.137445 -0.0170518 -0.0804613 0.0312488 -0.0345348 0.0120731 0.0340933 0.0706073 -0.0233037 0.00111012 -0.184605 -0.058738 0.00350052 -0.00676066 -0.0111705 0.0334972 -0.0648362 0.0657359 -0.0262855 -0.059077 -0.0363884 0.060453 0.0415312 0.0289451 0.0184392 -0.028652 0.0274379 0.0669419 -0.129761 0.041368 0.0198029 -0.00518779 0.0171744 0.0444829 -0.0330426 -0.0168117 0.0629331 0.0157807 -0.04952 -0.0698542 0.0201575 0.00612892 0.0201207 0.0282573 0.0958551
internal_weight=7743 5883 1860 2080 1620 3803 1051 1029 2727 1195 1893 427 425 1076 1657 640 297 239 698 241 333 834 983 733 624 612 177 240 212 343 86 674 56 183 389 622 497 236 436 579 307 789 210 86 41 58 180 90 307 105 247 80 202 90 748 358 180 624 154 261 391 130
internal_count=7743 5883 1860 2080 1620 3803 1051 1029 2727 1195 1893 427 425 1076 1657 640 297 239 698 241 333 834 983 733 624 612 177 240 212 343 86 674 56 183 389 622 497 236 436 579 307 789 210 86 41 58 180 90 307 105 247 80 202 90 748 358 180 624 154 261 391 130
is_linear=0
shrinkage=0.05


Tree=8
num_leaves=63
num_cat=0
split_feature=44 23 13 44 23 44 23 4 4 47 19 19 16 4 4 12 9 20 4 45 15 13 13 13 45 19 44 13 4 13 15 19 16 18 23 16 45 12 4 16 33 28 13 6 16 12 26 4 12 16 37 13 23 28 31 26 34 6 29 16 0 16
split_gain=4232.32 2210.37 1085.45 554.137 507.226 470.444 434.539 211.143 194.923 188.574 140.222 133.044 127.852 118.599 99.4862 99.1768 90.9772 81.6402 80.4997 79.1057 75.1505 73.0289 71.4218 71.0169 68.6562 65.6412 60.3244 59.19 55.3622 53.1524 51.048 50.0081 49.7147 48.4286 47.3499 47.0088 45.6001 44.8021 44.0143 43.1529 38.5002 36.9015 34.6734 34.3061 34.2295 34.0162 33.839 32.4088 35.6042 32.3414 34.5678 32.1594 32.0459 30.3756 30.2036 29.8862 30.7924 29.6465 28.7178 30.5679 29.7388 28.2038
threshold=8.2160243988037127 2.4045267105102544 15.123250744434047 10.03864097595215 0.53593826293945324 4.9559476375579843 -0.57928895950317372 242.50000000000003 212.50000000000003 6.8407893180847177 26.500000000000004 25.500000000000004 882.50000000000011 187.50000000000003 435.50000000000006 0.069366479550922219 1.0000000180025095e-35 1.0000000180025095e-35 414.00000000000006 1.7747042179107668 8.6149534247571857 14.728688636292345 15.167357059710504 14.898561522105121 1.5136269330978396 25.500000000000004 6.6993305683135995 13.259246964525266 690.00000000000011 15.686319117687956 10.13048366344105 24.500000000000004 188.50000000000003 0.0018701675826894016 -0.31550693511962885 1888.0000000000002 1.4751714468002322 0.070802005012531338 1.5000000000000002 999.50000000000011 0.078630127012729659 -0.086901389062404619 13.915326024616165 0.25881904510252057 779.50000000000011 0.067231638418079109 -0.06857499852776526 65.500000000000014 0.032795698924731186 1064.5000000000002 -0.074973236769437776 14.130083664055375 -0.9012475013732909 0.063932158052921309 0.099756427109241499 -0.015062518417835234 -0.076170183718204484 0.60355339059327384 -0.10981926694512366 511.50000000000006 177.50000000000003 1485.0000000000002
decision_type=2 2 2 2 2 2 2 2 2 2 2 2 2 2 2 2 2 2 2 2 2 2 2 2 2 2 2 2 2 2 2 2 2 2 2 2 2 2 2 2 2 2 2 2 2 2 2 2 2 2 2 2 2 2 2 2 2 2 2 2 2 2
left_child=1 4 6 7 9 -3 10 29 11 35 13 21 18 27 19 16 54 53 32 39 28 45 -18 36 -17 -24 -23 -2 -14 38 37 41 -10 -15 44 -1 -11 40 46 47 -25 -19 -35 -29 -9 -6 -4 -8 -49 50 -40 -12 -31 -7 -5 56 -21 -38 -28 -60 -61 -13
right_child=2 5 3 15 8 17 14 34 12 23 51 61 20 33 -16 24 22 31 -20 55 -22 26 25 30 -26 -27 58 43 -30 52 -32 -33 -34 42 -36 -37 57 -39 49 -41 -42 -43 -44 -45 -46 -47 -48 48 -50 -51 -52 -53 -54 -55 -56 -57 -58 -59 59 60 -62 -63
leaf_value=-0.021079874414643648 0.012723726056467153 -0.18474996697499557 0.13763117965148844 0.144304196536541 -0.015696375746294622 -0.15468452836755875 -0.0071453294849434731 0.076758450340657008 -0.13304288614541293 0.010186972738091851 0.053565882342654941 -0.067783220738259167 -0.050820299543803765 0.03080650213295999 -0.093877529006983554 0.097680525220277023 0.19602965096632641 -0.024238103974078384 -0.11961430214717986 0.035965589292798986 -0.021827602087855773 -0.028793057308595799 0.082103419113666462 0.025026557713175093 -0.0099914950504899035 0.14899293459104207 0.051208816250816559 0.062001139130334407 -0.1176421988436154 0.091942146928881974 0.086986761753048217 -0.1016126421931227 -0.047576073359640869 -0.099633591294288643 -0.037135681100077027 -0.065307245333013783 -0.0047036590926334103 0.0053237321302351875 0.082644685859559114 -0.014369691360923576 0.077994884937070311 -0.075612865590680672 -0.023409339866122685 0.019562628667688733 -0.0039874404349497386 -0.038604128909889582 0.070107978939874249 0.10434499163180591 0.031265365567058327 0.0054773943689771197 0.046104713695420498 0.085127212837714406 0.045804842719403299 -0.082367438273504387 0.083749214067791747 -0.035705785192633517 -0.016023415647885907 -0.034259684568387454 0.035400540050228732 -0.049554321890076004 0.0062460065055160953 -0.023321813059349855
leaf_weight=424 190 207 23 26 381 53 43 21 20 492 311 172 271 23 35 57 60 56 100 33 258 110 47 241 20 167 46 171 35 207 28 103 114 25 62 70 371 326 80 82 40 93 37 66 35 282 96 20 100 39 339 109 46 20 99 183 208 110 68 30 117 45
leaf_count=424 190 207 23 26 381 53 43 21 20 492 311 172 271 23 35 57 60 56 100 33 258 110 47 241 20 167 46 171 35 207 28 103 114 25 62 70 371 326 80 82 40 93 37 66 35 282 96 20 100 39 339 109 46 20 99 183 208 110 68 30 117 45
internal_value=-9.14471e-11 -0.0298816 0.0457305 0.0776496 -0.017584 -0.125835 0.0179476 0.0555481 -0.0352867 -0.000327614 0.0403436 -0.0229697 -0.0545956 0.0227781 -0.0117017 0.121667 0.131693 -0.088311 -0.0856665 -0.00740253 -0.0417044 -0.0154999 0.147819 0.00797309 0.0697138 0.134302 0.0022635 0.0335148 -0.0584633 0.0644453 0.0209801 -0.0748231 -0.0603323 -0.0311581 -0.00703428 -0.0273469 -0.000515552 0.0179353 0.0560669 0.0152158 0.0325665 -0.0563042 -0.0541449 0.0501828 0.0262923 -0.0254399 0.0831587 0.0300993 0.0434453 0.0490277 0.0530813 0.0617568 0.0835535 -0.134872 0.0963447 -0.0204721 -0.00890459 -0.0114628 0.0153525 0.00768088 -0.00514182 -0.0585631
internal_weight=7743 4683 3060 1424 4151 532 1636 948 2049 2102 932 1251 798 512 704 476 399 325 234 669 564 1034 274 1608 77 214 371 427 306 830 635 252 134 85 118 494 973 607 577 245 281 149 62 237 56 663 119 163 120 458 419 420 253 73 125 424 241 481 261 215 147 217
internal_count=7743 4683 3060 1424 4151 532 1636 948 2049 2102 932 1251 798 512 704 476 399 325 234 669 564 1034 274 1608 77 214 371 427 306 830 635 252 134 85 118 494 973 607 577 245 281 149 62 237 56 663 119 163 120 458 419 420 253 73 125 424 241 481 261 215 147 217
is_linear=0
shrinkage=0.05


Tree=9
num_leaves=63
num_cat=0
split_feature=23 47 23 13 44 23 12 23 17 47 13 9 19 43 12 19 2 12 14 19 47 2 19 7 28 2 17 2 23 13 13 19 2 0 47 14 23 46 14 25 9 2 13 29 23 25 5 33 17 13 16 29 18 13 33 24 20 12 16 14 24 19
split_gain=3837.98 1975.64 1198.24 673.389 342.874 341.391 283.543 217.227 158.586 122.874 117.262 102.068 93.8426 84.3313 76.1408 72.5898 67.2595 67.0753 56.53 54.614 54.2069 54.1213 52.6538 52.2166 51.7418 50.429 49.8991 48.4262 47.4992 46.2636 43.5278 42.5714 41.8436 56.4723 40.3232 39.319 38.0584 37.9819 39.2455 36.3999 33.4821 35.5725 33.6946 33.2448 32.51 58.2512 50.0069 47.3737 32.466 32.3816 31.2382 30.0437 32.2069 29.647 30.0574 29.3688 40.9128 35.9849 29.192 35.8524 28.323 31.5106
threshold=1.1056623458862307 8.712675094604494 3.5942602157592778 15.076430940619856 10.227481842041017 -0.15950798988342282 0.032795698924731186 -1.3023495674133299 0.029447709383012239 5.555098533630372 12.180897210107679 1.0000000180025095e-35 24.500000000000004 6.6268787384033212 0.069366479550922219 20.500000000000004 52.500000000000007 0.051956815114709856 12.662941244189222 26.500000000000004 7.6415817737579355 14.500000000000002 24.500000000000004 -0.8783796973249266 0.032990228384733207 48.500000000000007 0.012768604424168056 42.500000000000007 0.074974060058593764 15.565478029821929 14.690430182355911 26.500000000000004 25.500000000000004 134.50000000000003 9.2310132980346697 11.655084485852816 1.5515661239624026 8.3661098480224627 8.0264968855820289 -0.24178065359592435 1.0000000180025095e-35 47.500000000000007 12.493737128043648 -0.034602424129843705 -0.87700986862182606 -0.12320806086063384 0.37940952255126054 -0.047096867114305489 0.018118901930050394 15.323800284518574 242.50000000000003 -0.0014489069581031797 0.0017729901846713231 13.287563249783341 -0.091737799346446977 -0.31698927283287043 11.174754512488287 0.062996031746031758 309.50000000000006 11.541619806758149 0.081779353320598616 27.500000000000004
decision_type=2 2 2 2 2 2 2 2 2 2 2 2 2 2 2 2 2 2 2 2 2 2 2 2 2 2 2 2 2 2 2 2 2 2 2 2 2 2 2 2 2 2 2 2 2 2 2 2 2 2 2 2 2 2 2 2 2 2 2 2 2 2
left_child=1 5 6 7 18 10 26 19 15 31 13 -6 23 -1 35 -7 20 37 21 27 55 -5 50 29 -15 -4 43 53 40 48 -25 58 -32 -34 -28 -13 -14 -17 -39 -10 -9 42 -42 -2 -23 -46 47 -47 -11 -22 -19 52 -40 54 -3 -12 57 -57 -8 -60 61 -38
right_child=2 3 25 4 11 8 9 28 39 12 16 14 36 24 -16 17 -18 22 -20 -21 49 44 -24 30 -26 -27 34 -29 -30 -31 32 -33 33 -35 -36 -37 60 38 51 -41 41 -43 -44 -45 45 46 -48 -49 -50 -51 -52 -53 -54 -55 -56 56 -58 -59 59 -61 -62 -63
leaf_value=-0.06641811391768547 0.085591741239962493 0.064553372155536304 -0.10623074208696684 0.11800652208145371 0.086088048617192922 -0.02226853585573876 -0.13825559794902803 -0.01661034617344009 -0.018143818277367874 -0.099928108038147917 -0.0052870312659069902 0.18533705028436953 -0.047415386065840726 -0.023339422047314602 0.062776943903216836 -0.019689399949348874 -0.005913113596285751 0.028979494154759467 0.086711130291332844 0.067664670136370023 0.032818684622835576 0.061446098558972741 -0.036090123106678612 -0.045894160587039198 0.015871807847649726 -0.17553268028866678 -0.018309327711089417 -0.027918757731094958 -0.015592715522673516 -0.13541613281704487 0.04311430689692497 -0.14139117800137577 -0.068973470060154793 -0.012007812620498813 0.05273104587739165 0.13823829546068492 -0.084762425581688325 0.0023046896797543587 0.028440232172660118 -0.042461818897709738 0.005588655068645438 -0.024013093159539329 0.045702534697547155 0.003985314973844932 -0.031673519725778275 -0.0066788235767966221 -0.015438411040947989 0.07630549021065236 -0.043707521233994233 0.064794622766582863 -0.0065539835955024939 0.015171106249337721 0.078269872523970524 0.059679239101835549 -0.0070247430403304117 0.10485259460715146 0.012781802150179987 0.01994959234725684 -0.087334664185517843 -0.03589494861662388 -0.068145385815948242 -0.14572914223517142
leaf_weight=52 24 22 30 33 126 447 20 61 232 32 135 59 105 132 28 63 162 73 213 267 568 310 139 309 232 210 217 28 175 20 25 34 56 195 22 178 67 152 72 457 81 33 148 26 28 21 26 95 130 92 405 107 59 104 44 26 174 24 137 45 125 31
leaf_count=52 24 22 30 33 126 447 20 61 232 32 135 59 105 132 28 63 162 73 213 267 568 310 139 309 232 210 217 28 175 20 25 34 56 195 22 178 67 152 72 457 81 33 148 26 28 21 26 95 130 92 405 107 59 104 44 26 174 24 137 45 125 31
internal_value=1.04164e-11 0.0197936 -0.0626051 0.0589728 0.0853882 -0.00163499 -0.0471585 0.0283331 -0.0143812 -0.0569057 0.0159719 0.123136 -0.0498529 -0.00685646 0.140751 -0.00534648 0.0240131 0.00172282 0.0650585 0.0529085 0.0287707 0.0560683 -0.00900387 -0.0402809 0.00165235 -0.16687 -0.0022672 0.0330101 0.00538608 -0.0636703 -0.0330042 -0.0896294 -0.0185731 -0.0247173 -0.01177 0.149963 -0.0722362 0.0163329 0.0221519 -0.0342735 0.0167523 0.0245199 0.0315138 0.0431564 0.05181 0.0342383 0.047235 0.0612825 -0.0548128 0.0372759 -0.00112732 0.0348274 0.0508826 0.0430454 0.0168346 0.0131344 0.0242366 0.0640992 -0.080917 -0.0746161 -0.0839231 -0.104048
internal_weight=7743 5883 1860 2080 1117 3803 1620 963 2206 1331 1597 391 1095 416 265 1517 1181 1070 726 465 1019 513 617 767 364 240 289 198 498 182 585 236 276 251 239 237 328 453 390 689 323 262 229 50 480 170 142 116 162 660 478 238 131 170 66 359 224 50 202 182 223 98
internal_count=7743 5883 1860 2080 1117 3803 1620 963 2206 1331 1597 391 1095 416 265 1517 1181 1070 726 465 1019 513 617 767 364 240 289 198 498 182 585 236 276 251 239 237 328 453 390 689 323 262 229 50 480 170 142 116 162 660 478 238 131 170 66 359 224 50 202 182 223 98
is_linear=0
shrinkage=0.05


Tree=10
num_leaves=63
num_cat=0
split_feature=23 44 23 44 23 23 12 22 4 19 19 4 17 2 43 12 12 23 4 43 0 45 19 17 23 0 46 19 4 17 36 17 17 44 17 23 12 16 43 2 0 29 30 17 0 2 43 44 4 36 0 45 0 26 16 31 12 25 18 31 16 4
split_gain=3465.76 1518.55 1124.47 517.68 313.505 268.702 264.246 176.17 219.298 175.75 174.938 156.357 144.085 122.98 113.793 85.4514 77.9327 77.141 74.5825 84.0159 71.2748 62.7728 61.747 61.6129 60.6211 59.2354 55.4531 51.6148 51.3157 50.7726 50.5732 49.0746 46.9661 46.6125 46.5603 44.3042 43.1372 41.829 49.3347 41.3753 39.2512 36.8152 36.2565 35.9657 35.6114 34.8884 34.8319 33.1935 42.8869 32.4369 32.3428 35.0486 28.4475 27.7421 25.9665 25.4134 25.3771 25.1884 24.9987 24.9444 24.7688 23.8701
threshold=1.0406639575958254 8.7545933723449725 3.5942602157592778 10.492325782775881 -0.15950798988342282 -1.401405334472656 0.032795698924731186 1.0000000180025095e-35 463.00000000000006 22.500000000000004 22.500000000000004 21.500000000000004 0.030158064637477285 62.500000000000007 6.7362346649169931 0.069366479550922219 0.22016949152542376 -1.1868820190429685 214.50000000000003 7.247777223587037 59.500000000000007 1.3814830780029299 26.500000000000004 0.011348715136226701 -3.0241808891296382 90842.000000000015 13.124555587768556 20.500000000000004 214.50000000000003 0.012768604424168056 -0.081757776439189897 0.013134198579125957 0.02997755892576412 5.7393736839294442 0.024519549044436265 -1.5294361114501951 0.26393188854489169 793.50000000000011 7.7300941944122323 48.500000000000007 1959.0000000000002 -0.034602424129843705 -0.042806735262274735 0.02441358466608997 325.50000000000006 43.500000000000007 6.1087026596069345 7.6668605804443368 2.5000000000000004 0.064061034470796599 1857.5000000000002 1.5709441900253298 6022.5000000000009 0.28266614675521856 1888.0000000000002 0.11864904314279558 0.14415584415584418 0.080089572817087187 0.0016272001023165828 -0.010981395840644835 585.50000000000011 716.00000000000011
decision_type=2 2 2 2 2 2 2 2 2 2 2 2 2 2 2 2 2 2 2 2 2 2 2 2 2 2 2 2 2 2 2 2 2 2 2 2 2 2 2 2 2 2 2 2 2 2 2 2 2 2 2 2 2 2 2 2 2 2 2 2 2 2
left_child=1 4 6 5 14 24 29 8 13 21 -5 26 18 16 42 44 20 25 19 31 -8 -7 -15 -20 -3 45 -11 -21 56 41 -13 -6 50 60 -18 -17 -26 -31 -39 40 -19 -2 -1 -9 -12 55 -22 -29 -49 58 51 -32 61 -30 -23 -16 -14 -34 -25 -47 -4 -45
right_child=2 3 33 10 12 9 7 43 -10 11 15 30 28 22 17 35 34 39 23 27 46 54 -24 49 36 -27 -28 47 53 37 32 -33 57 -35 -36 -37 -38 38 -40 -41 -42 -43 -44 52 -46 59 -48 48 -50 -51 -52 -53 -54 -55 -56 -57 -58 -59 -60 -61 -62 -63
leaf_value=0.022329991941268629 0.08313786754453624 0.08029620841696912 -0.18809596379119231 -0.016779185414176296 0.034678940584554389 0.04928085303141011 -0.12951169263932014 0.012626621554131216 -0.11163765454664827 0.06316015642369166 0.085984666529973899 -0.029467206242744154 -0.017610778210392083 -0.074995490766706918 0.034653656621814036 0.096592485303567219 0.015725837346972592 0.011269575574686179 -0.085033264569938191 -0.011337067760113215 -0.07593718678173092 -0.014807648427802795 -0.19624589284261068 -0.043889702597896207 0.056324299563212811 0.11012303942441942 0.14146620399318635 0.0060005970570879679 -0.064354706275808263 -0.029552057228645248 0.055917073799104523 -0.017247378573738044 0.015886189646553247 -0.1002269509062171 -0.040937645594247535 -0.0062306635268032555 0.010089702001589883 -0.010340515701665956 0.058356134049795776 -0.011047068717391612 0.039190710554985464 0.00056896865091941981 -0.044619662929735675 -0.040785006646610444 0.13025612976089435 0.028952661632294104 -0.045299845653529965 0.086028052143314312 0.026724606973545281 0.014195477851218991 0.075948338647457703 -0.00033197220906896417 0.026734382973518225 -0.0011313128098845483 -0.06202087024884189 0.08843329877633116 -0.047158698240210392 -0.052836606632918115 -0.012611303779822395 -0.019139322416427046 -0.15297300271455228 -0.0082861856730388744
leaf_weight=26 27 277 83 27 51 36 31 53 195 52 54 41 417 21 489 22 67 619 34 135 117 203 21 92 509 25 40 177 131 145 58 422 40 30 79 20 56 89 37 159 158 27 91 293 286 56 448 34 295 77 55 53 20 20 34 23 88 20 209 52 127 70
leaf_count=26 27 277 83 27 51 36 31 53 195 52 54 41 417 21 489 22 67 619 34 135 117 203 21 92 509 25 40 177 131 145 58 422 40 30 79 20 56 89 37 159 158 27 91 293 286 56 448 34 295 77 55 53 20 20 34 23 88 20 209 52 127 70
internal_value=1.77055e-10 0.0196075 -0.0570698 0.0564502 0.00172747 0.0426404 -0.0430758 -0.052414 -0.0641876 0.0179996 0.10622 0.0409925 -0.0108102 -0.0523857 0.0178389 0.114913 -0.0476742 0.0213601 -0.00238607 0.00433622 -0.0556944 -0.0122365 -0.135621 -0.0205624 0.0611356 0.0346648 0.0972063 0.0161315 -0.0304066 -0.00241875 0.0216229 -0.0116486 0.0308915 -0.158526 -0.0149345 0.0476291 0.0517418 -0.0112405 0.00983231 0.0121918 0.0169472 0.0418534 -0.029742 -0.0259774 0.123225 0.0316221 -0.0516442 0.0234601 0.0328532 -0.0147634 0.0445949 0.0290594 -0.0313195 -0.0559807 -0.0215809 0.0370695 -0.0227597 -0.00702141 -0.0221715 0.00579726 -0.166855 -0.034518
internal_weight=7743 5763 1980 1883 3880 1474 1740 1415 979 632 409 359 2182 784 1698 382 742 1581 1526 1114 596 273 42 412 842 645 92 641 656 325 267 473 226 240 146 42 565 271 126 936 777 54 117 436 340 620 565 506 329 378 166 111 383 151 237 512 505 60 301 108 210 363
internal_count=7743 5763 1980 1883 3880 1474 1740 1415 979 632 409 359 2182 784 1698 382 742 1581 1526 1114 596 273 42 412 842 645 92 641 656 325 267 473 226 240 146 42 565 271 126 936 777 54 117 436 340 620 565 506 329 378 166 111 383 151 237 512 505 60 301 108 210 363
is_linear=0
shrinkage=0.05


Tree=11
num_leaves=63
num_cat=0
split_feature=44 44 14 21 44 17 45 4 43 44 12 21 15 21 4 15 13 15 0 13 13 0 4 45 4 25 44 17 18 45 4 12 34 21 24 14 16 15 21 5 6 45 38 17 44 31 13 21 16 0 34 46 14 7 12 24 4 37 43 34 24 0
split_gain=3134.07 1571.13 883.118 477.621 417.89 279.243 270.966 212.641 143.412 102.052 99.1256 98.9237 86.6455 84.1284 81.5286 98.9989 77.7551 70.9097 70.8299 63.4172 62.8867 57.5436 56.4827 56.242 52.7566 51.3776 50.442 48.8552 47.1767 46.7327 45.1975 49.1415 40.8583 40.5957 38.0407 35.7162 35.4786 44.6333 34.0417 33.7773 32.4752 31.1423 29.5292 28.8962 27.7164 27.3365 27.2295 34.0382 26.7207 29.5187 28.3948 29.1349 26.3661 26.2007 25.9078 25.4119 25.1301 29.5864 28.3061 25.9221 25.0552 24.8694
threshold=8.1564083099365252 5.5598855018615732 11.55095795662759 183.50000000000003 9.5434002876281756 0.029447709383012239 1.7580295205116274 394.50000000000006 7.2275032997131357 7.041142702102662 0.069366479550922219 1.5000000000000002 9.4589567185031616 9.5000000000000018 215.50000000000003 6.9897958832342217 14.791291338270565 7.1616207992213861 177.50000000000003 12.280915694898161 15.264397861930831 899.50000000000011 112.50000000000001 1.5136269330978396 324.50000000000006 0.081965733319520964 6.2965407371521005 0.032775462896456484 0.0003934881346037994 1.5709441900253298 285.50000000000006 0.32392686804451515 0.0021111890673637394 285.50000000000006 0.070750989019870772 4.7749040587885982 1076.5000000000002 9.5556259045873535 12.500000000000002 -0.60355339059327362 0.37940952255126048 1.8506458401679995 -0.045302353799343102 0.012768604424168056 6.7462432384490976 0.089070610702037825 15.858040455633512 79.500000000000014 324.50000000000006 853.50000000000011 0.061381794512271888 10.720774650573732 12.662941244189222 -0.8783796973249266 0.10300618921308578 0.33959218859672552 1.5000000000000002 -0.02880918979644775 8.5830440521240252 -0.027984946966171261 0.23478144407272342 240.50000000000003
decision_type=2 2 2 2 2 2 2 2 2 2 2 2 2 2 2 2 2 2 2 2 2 2 2 2 2 2 2 2 2 2 2 2 2 2 2 2 2 2 2 2 2 2 2 2 2 2 2 2 2 2 2 2 2 2 2 2 2 2 2 2 2 2
left_child=1 11 6 5 16 8 13 9 20 18 25 -1 26 17 15 34 -4 27 -5 -16 44 38 -20 -12 36 -6 41 39 -11 -28 31 -15 -23 -21 -8 -10 46 -38 -17 -2 -30 -7 -24 -22 -3 -35 56 -48 -37 -50 -51 -52 -14 -9 -31 -19 58 59 -18 -58 -32 -46
right_child=2 3 4 7 10 12 14 53 35 28 23 -13 52 30 19 21 24 55 22 33 43 32 42 -25 -26 -27 29 -29 40 54 60 -33 -34 45 -36 48 37 -39 -40 -41 -42 -43 -44 -45 61 -47 47 -49 49 50 51 -53 -54 -55 -56 -57 57 -59 -60 -61 -62 -63
leaf_value=-0.081626962260766475 0.029508762406407013 -0.027524704463020223 -0.026113541837399584 -0.15209039822220805 0.12273058907553397 -0.053195504926700603 -0.023158062443214063 -0.12117984781396532 -0.024053334809419975 -0.062389170263822263 0.077891852503353232 -0.15646404060535135 0.0012416175100952388 0.051773156742710297 -0.085423671944687765 -0.018291558436202733 0.10387787948803683 0.027547786115272574 -0.11808339118957521 -0.002868889782562732 0.061494812055637962 0.092093416288787255 -0.003468196143189238 0.001830652540472026 -0.033651654440909624 0.089324769370987558 -0.019427987487936005 -0.047024843450290739 0.0041416990545381904 -0.029739632703260417 -0.03516777913945799 -0.020012421504594386 0.02001768096597516 -0.019218928705280025 0.009713010474418601 0.03136189283936152 -0.017295843068250393 0.056083584222942601 0.041488377239909918 -0.018089834774788746 -0.036471536018055035 -0.12083967208862306 -0.056882285735944449 -0.0054460920393466956 -0.023256252900252797 -0.086717689310510951 0.097439697851865181 0.042104854609103917 -0.00022072424964011741 0.011612900555755078 0.017796908981359466 0.071752547498115091 0.068426112247549964 -0.085242201045912236 -0.051543581278148023 0.07602909529401411 0.090652820364908973 0.031604894932666154 0.050139385909331369 0.044660894450498749 0.034936963587999345 -0.0038363754573448646
leaf_weight=55 84 407 39 22 283 114 243 84 71 52 128 224 40 514 45 55 38 211 30 124 38 51 36 30 20 194 487 54 147 270 26 25 32 30 138 161 43 40 42 67 74 20 92 28 264 30 68 47 437 413 58 44 23 128 275 31 47 249 69 88 25 439
leaf_count=55 84 407 39 22 283 114 243 84 71 52 128 224 40 514 45 55 38 211 30 124 38 51 36 30 20 194 487 54 147 270 26 25 32 30 138 161 43 40 42 67 74 20 92 28 264 30 68 47 437 413 58 44 23 128 275 31 47 249 69 88 25 439
internal_value=2.6796e-11 -0.0267688 0.0378016 -0.0192303 0.0679445 -0.0120186 0.0149841 -0.0581518 -0.00195406 -0.0388097 0.0977745 -0.141711 -0.0313452 0.0317908 -0.00707736 0.00318501 0.0426209 0.0154292 -0.0680362 -0.0322179 -0.0143215 0.0337434 -0.0563324 0.0634499 0.0464018 0.109144 -0.0344311 -0.00620792 -0.0195396 -0.0306837 0.0441867 0.0484436 0.0643052 -0.0192057 -0.011252 0.0103298 0.0487255 0.0180677 0.00759254 0.00838886 -0.0094573 -0.0632916 -0.0418596 0.0330956 -0.0171409 -0.0529683 0.0529245 0.0748246 0.0125232 0.00933719 0.0174475 0.0410719 0.0257693 -0.0994816 -0.0407416 0.0337582 0.0477952 0.0418241 0.0692241 0.0606729 -0.000802709 -0.0111292
internal_weight=7743 4533 3210 4254 1383 3589 1827 665 2360 453 635 279 1229 1037 790 561 748 447 180 229 1176 180 158 158 709 477 1166 205 273 1032 590 539 83 184 381 1184 689 83 97 151 221 134 128 66 1110 60 606 115 1113 952 515 102 63 212 545 242 491 384 107 135 51 703
internal_count=7743 4533 3210 4254 1383 3589 1827 665 2360 453 635 279 1229 1037 790 561 748 447 180 229 1176 180 158 158 709 477 1166 205 273 1032 590 539 83 184 381 1184 689 83 97 151 221 134 128 66 1110 60 606 115 1113 952 515 102 63 212 545 242 491 384 107 135 51 703
is_linear=0
shrinkage=0.05


Tree=12
num_leaves=63
num_cat=0
split_feature=23 23 47 12 13 13 23 47 47 43 15 22 4 2 12 22 4 17 17 17 15 22 47 2 13 17 4 45 24 9 4 39 14 12 0 20 0 4 9 20 43 24 41 2 23 15 6 14 23 4 23 26 23 15 14 0 2 47 13 4 12 18
split_gain=2878.64 1292.11 906.9 416.826 354.309 249.115 192.219 180.849 180.423 164.446 148.665 119.013 115.806 105.681 98.8167 97.042 96.8403 85.1762 69.0938 68.4966 65.8135 60.1726 60.0133 59.9037 54.3528 52.0465 52.0233 51.5263 49.2967 48.9403 95.4856 48.0987 47.5133 44.2804 49.0501 43.0722 42.1325 39.7698 85.7651 39.4494 38.447 37.7532 34.9099 34.8329 36.9282 32.8786 32.632 32.186 31.207 30.8373 30.6952 27.5502 26.338 27.9296 26.0229 25.5598 28.6262 27.7885 25.0361 25.0168 38.0125 24.7972
threshold=0.22601604461669925 2.8945410251617436 8.8683896064758319 0.026671408250355622 15.076430940619856 14.95292640207418 1.4134509563446047 8.2004842758178729 11.056774139404299 5.1914448738098153 6.8601392875512452 1.0000000180025095e-35 414.00000000000006 45.500000000000007 0.070802005012531338 1.0000000180025095e-35 195.50000000000003 0.032308782067247424 0.012549106458077176 0.029447709383012239 8.8662290290699683 1.0000000180025095e-35 7.2825450897216806 62.500000000000007 13.245031327319706 0.022817332525427173 182.50000000000003 1.4700160026550295 -0.067868173122405992 1.0000000180025095e-35 27.500000000000004 0.056838512420654304 12.725365511058611 0.21778656126482215 63.500000000000007 14.511248073959939 90842.000000000015 23.500000000000004 1.0000000180025095e-35 11.342244224422444 6.7178564071655282 0.10230733454227449 0.056534541770815856 14.500000000000002 -0.21042799949645993 8.7175181582867669 0.37940952255126048 7.8520489969844895 -1.401405334472656 519.50000000000011 -0.8507704734802245 -0.087934855371713624 -2.1604499816894527 8.8671452320185562 11.956986010480721 171.50000000000003 46.500000000000007 7.6915957927703866 16.017761149837138 84.500000000000014 0.028991596638655467 0.00038009710450432878
decision_type=2 2 2 2 2 2 2 2 2 2 2 2 2 2 2 2 2 2 2 2 2 2 2 2 2 2 2 2 2 2 2 2 2 2 2 2 2 2 2 2 2 2 2 2 2 2 2 2 2 2 2 2 2 2 2 2 2 2 2 2 2 2
left_child=2 3 10 5 13 18 16 42 26 -3 17 12 23 15 25 24 19 40 -2 22 28 27 -5 33 59 -12 29 -11 49 -6 -31 37 55 34 -8 -19 43 38 -9 -17 -1 -37 -7 -27 46 -35 52 -24 -42 -18 58 -22 -45 -54 -53 -16 57 -57 -28 -4 -61 -14
right_child=1 9 4 6 8 7 11 31 -10 21 14 -13 61 -15 32 39 20 35 -20 -21 51 -23 47 -25 -26 36 50 -29 -30 30 -32 -33 -34 45 -36 41 -38 -39 -40 -41 48 -43 -44 44 -46 -47 -48 -49 -50 -51 -52 54 53 -55 -56 56 -58 -59 -60 60 -62 -63
leaf_value=-0.038798707610239153 0.046986147835850721 -0.15171348915831878 -0.0054507323995579126 -0.02081886632256031 0.052033412336629441 0.029527773287751385 -0.13107181226834655 0.059131829754436677 0.11780066250089918 -0.052300988613451664 0.063164093244760744 -0.023629525511239011 -0.14946999835471314 -0.026430111731336053 -0.034088442344218498 0.041302572749555115 -0.057085565309606345 -0.043516820192215803 -0.017312539525221226 -0.029360086562980389 0.030618049892103139 -0.029717189448479661 -0.018073075863399676 -0.12567653816479904 0.061180406509142297 0.084765398469956024 0.029419429164666396 -0.12338142090636056 -0.033418592994677879 0.1704917340443052 0.075907244912870125 0.13784228861664558 0.061417111143087733 -0.033694015939213472 -0.05052539556467267 -0.019548970492184164 0.093657057748540593 0.026115677600488243 0.17599840700626374 -0.025007048123826581 0.035100142885633609 0.041315919597400358 -0.016715613623651173 0.091774139925837522 -0.0039740064369360789 0.038266021707518534 0.016775352368131279 0.021931609150861956 0.0037718072047149675 -0.10741095711526119 -0.018272723860683897 -0.014712935340989913 0.024979310300671034 0.076774005175513388 -0.06924774777516722 0.0015533488304181784 -0.0071704158346596386 0.026500624433175957 0.080941808566048337 0.071412063110619789 0.022465720309532224 -0.093833865213000092
leaf_weight=46 45 202 43 208 188 74 20 73 226 37 124 260 24 70 40 32 153 169 584 322 29 39 63 26 298 23 65 82 252 29 334 28 39 57 344 125 23 43 20 75 94 32 91 26 109 22 237 249 515 38 21 175 111 34 25 216 233 231 37 56 136 121
leaf_count=46 45 202 43 208 188 74 20 73 226 37 124 260 24 70 40 32 153 169 584 322 29 39 63 26 298 23 65 82 252 29 334 28 39 57 344 125 23 43 20 75 94 32 91 26 109 22 237 249 515 38 21 175 111 34 25 216 233 231 37 56 136 121
internal_value=-3.73454e-11 -0.0318189 0.0292101 -0.0221349 0.0583067 0.00572749 -0.0333126 0.040982 0.0791399 -0.121826 0.00990824 -0.0519832 -0.0639897 0.0318984 0.020101 0.038278 -0.0225344 -0.0051159 -0.0127125 -0.0112374 -0.0366893 -0.0836164 -1.53025e-05 -0.0519157 0.0470015 0.0338396 0.0661765 -0.101281 -0.0479395 0.0727397 0.0834636 0.0781655 0.0076656 -0.0475866 -0.054951 -0.0259996 0.0273809 0.0658792 0.0842644 -0.00517613 0.0052781 -0.00714339 0.00402384 0.024558 0.0218796 -0.0136545 0.0287865 0.0138537 0.00860738 -0.0670979 0.0367755 -0.0149259 0.0454336 0.0371243 -0.0215298 0.00475406 0.00703891 0.0144456 0.0481089 0.0290214 0.0367417 -0.103043
internal_weight=7743 3706 4037 3346 1610 958 2388 329 900 360 2427 874 614 710 1446 640 1514 981 629 842 672 158 520 469 533 687 674 119 443 551 363 164 759 443 364 326 563 136 93 107 655 157 165 540 517 79 408 312 609 191 123 229 171 145 200 720 680 447 102 235 192 145
internal_count=7743 3706 4037 3346 1610 958 2388 329 900 360 2427 874 614 710 1446 640 1514 981 629 842 672 158 520 469 533 687 674 119 443 551 363 164 759 443 364 326 563 136 93 107 655 157 165 540 517 79 408 312 609 191 123 229 171 145 200 720 680 447 102 235 192 145
is_linear=0
shrinkage=0.05


Tree=13
num_leaves=63
num_cat=0
split_feature=23 23 21 13 13 2 23 17 17 21 43 21 23 46 0 2 23 16 4 4 12 10 19 12 12 14 19 24 19 15 43 37 13 8 15 0 16 0 46 23 29 37 20 0 5 4 33 43 20 24 23 24 5 43 43 37 36 7 20 4 4 6
split_gain=2598.71 1123.81 805.789 433.979 415.156 461.814 234.37 152.051 115.899 115.492 90.4699 86.5008 86.1889 75.4226 67.8062 66.8321 62.1618 61.7038 60.431 57.7561 57.4154 57.269 53.0579 50.1083 45.4475 45.0995 44.7075 44.0448 43.9166 43.6768 42.7929 47.4482 39.5891 38.8501 38.715 41.1423 53.4979 46.8683 37.2109 36.9404 35.7645 34.8947 34.2521 33.9117 33.9041 33.6156 32.1094 31.5158 31.2265 28.6156 29.0149 28.3389 25.8118 25.2832 24.905 24.7015 23.499 23.4473 22.9735 22.2392 20.9642 24.4122
threshold=1.1056623458862307 -1.1868820190429685 174.50000000000003 15.686319117687956 14.879747894334844 14.500000000000002 2.7537899017333989 0.029447709383012239 0.02997755892576412 689.00000000000011 10.845900535583498 1.0000000180025095e-35 0.24037623405456546 10.386899948120119 90842.000000000015 61.500000000000007 -0.2454569339752197 1888.0000000000002 2.5000000000000004 397.50000000000006 0.033908045977011504 1.0000000180025095e-35 20.500000000000004 0.26393188854489169 0.35634920634920642 11.069478076048672 27.500000000000004 0.46348331868648535 20.500000000000004 6.462248816637195 10.555394172668459 -0.07650700211524962 13.245031327319706 1.0000000180025095e-35 9.6907269761802315 3783.5000000000005 825.50000000000011 90.500000000000014 8.7260713577270526 2.4677457809448247 -0.094950392842292772 -0.027769021689891812 10.500000000000002 36.500000000000007 -0.91597561503675329 519.50000000000011 0.0073755057528615007 6.0809524059295663 22.500000000000004 -0.21901676058769223 1.7839555740356448 -0.26840883493423456 -0.37940952255126059 7.5568501949310312 7.7901313304901132 0.045286387205123908 -0.088619753718376146 -0.60785761079279388 12.60326086956522 397.50000000000006 742.50000000000011 0.91597561503675351
decision_type=2 2 2 2 2 2 2 2 2 2 2 2 2 2 2 2 2 2 2 2 2 2 2 2 2 2 2 2 2 2 2 2 2 2 2 2 2 2 2 2 2 2 2 2 2 2 2 2 2 2 2 2 2 2 2 2 2 2 2 2 2 2
left_child=1 3 7 11 8 21 19 20 12 13 -5 14 26 43 25 47 -11 44 -15 49 28 -6 -19 27 39 40 48 32 -2 -17 -23 -32 -13 -8 35 36 37 -20 -30 -22 -1 -27 -41 -7 54 -14 -37 -9 -3 -4 -51 -43 -18 -45 -10 -36 -39 -21 -38 -46 61 -49
right_child=2 4 6 10 5 9 33 15 17 16 -12 23 45 18 -16 29 52 22 34 57 24 30 -24 -25 -26 41 -28 -29 38 -31 31 -33 -34 -35 55 46 58 56 -40 42 -42 51 -44 53 59 -47 -48 60 -50 50 -52 -53 -54 -55 -56 -57 -58 -59 -60 -61 -62 -63
leaf_value=0.020915592491655845 -0.024494468834098074 0.011286597567127384 -0.088072598535412314 0.074023646140626329 0.027639444718758267 -0.04587966518428846 -0.099494947200374939 -0.064746654560653177 -0.011851198285958677 0.026944523759186267 0.11993939137521262 0.027737857824011322 -0.013924796954539968 0.061468933484866289 0.086928981865810995 -0.15543296120383523 -0.033426867952304228 0.011130246649937411 0.091805310070514679 -0.11693155354687146 -0.02106860962282385 0.1380017099281152 -0.052200822795321261 -0.00068648645915744605 0.028603471680066717 0.048577646115451185 0.047160119885828959 0.085133671838169306 -0.034181336313486098 -0.065527242964931898 0.015070960419252516 0.099505652534314482 0.052658921119668495 -0.14677100055514999 0.069327418987864056 0.014457001709291395 -0.033624295330290419 -0.015099399127066135 0.033791808402724569 -0.1098033712933893 -0.027439562084741499 -0.024134022815198435 -0.037869952932805206 -0.0041850306951639578 -0.019160592925946643 -0.079710512980818757 0.068077571521181685 -0.038326373131588175 -0.010284084602021478 -0.020973838737053385 -0.065557427961077247 0.021766340126467741 -0.092940317711939946 0.024762686783447865 0.039361372927398705 0.0098726761527359493 0.027424350528401795 -0.077957045763384469 0.0019273358254202671 -0.072867280989885333 -0.085091488249599945 -0.0016090892151825959
leaf_weight=64 73 542 48 300 30 39 56 123 53 25 167 243 668 96 34 22 35 38 25 70 383 57 255 57 39 103 67 72 24 35 20 99 463 194 58 53 56 40 125 23 95 41 59 307 532 20 59 280 243 72 74 187 38 100 43 25 173 86 241 20 20 54
leaf_count=64 73 542 48 300 30 39 56 123 53 25 167 243 668 96 34 22 35 38 25 70 383 57 255 57 39 103 67 72 24 35 20 99 463 194 58 53 56 40 125 23 95 41 59 307 532 20 59 280 243 72 74 187 38 100 43 25 173 86 241 20 20 54
internal_value=-3.32731e-11 0.0162874 -0.0515154 0.0488612 0.00162633 0.0216945 -0.0992061 -0.0288055 -0.0111215 0.0111991 0.0904432 0.0345722 -0.00267399 0.0152287 0.0186483 -0.0490579 -0.0411026 -0.0249465 0.0241752 -0.0727953 -0.0139091 0.091494 -0.0439872 0.0445651 -0.0232412 0.0139105 0.00795544 0.0478805 0.00727715 -0.100228 0.102378 0.0853149 0.0440813 -0.136181 0.0192708 0.0151467 0.00937775 0.0270402 0.0228431 -0.0275894 -0.00797585 0.0244239 -0.0580464 -0.00134045 -0.016337 -0.0158372 0.0427036 -0.0429433 0.0046093 -0.0545817 -0.043571 0.0135123 -0.0644065 0.00292743 0.0110878 0.0514194 0.0194387 -0.0954456 -0.004776 -0.0211065 -0.0353675 -0.03239
internal_weight=7743 5883 1860 1826 4057 1576 600 1260 2481 1370 467 1359 1540 1272 524 534 98 941 826 350 726 206 293 835 504 490 852 778 222 57 176 119 706 250 730 647 535 238 149 465 159 331 82 446 648 688 112 477 785 194 146 228 73 407 96 83 213 156 297 552 354 334
internal_count=7743 5883 1860 1826 4057 1576 600 1260 2481 1370 467 1359 1540 1272 524 534 98 941 826 350 726 206 293 835 504 490 852 778 222 57 176 119 706 250 730 647 535 238 149 465 159 331 82 446 648 688 112 477 785 194 146 228 73 407 96 83 213 156 297 552 354 334
is_linear=0
shrinkage=0.05


Tree=14
num_leaves=63
num_cat=0
split_feature=44 44 13 44 21 19 17 2 2 34 43 2 20 16 14 2 12 9 44 16 44 15 17 27 1 31 21 21 14 17 31 15 29 18 35 15 39 12 2 44 43 1 19 25 34 31 19 1 43 27 16 20 16 21 16 12 25 21 16 15 37 41
split_gain=2317.8 1097.39 678.419 388.666 364.087 203.082 170.805 127.281 110.301 107.838 90.4857 79.6538 57.9067 56.1085 55.1313 56.3508 55.0701 51.1322 73.4483 46.1308 44.3194 43.3512 41.956 41.3797 41.3064 40.1038 37.4633 57.6686 37.4543 41.0564 58.6147 36.2636 35.5325 34.4289 37.211 33.6063 33.2928 33.1683 31.8221 30.947 30.8739 30.8035 28.6433 28.5529 27.0111 26.4027 26.2505 32.2456 26.1005 25.561 25.0018 44.0074 24.9752 24.2945 23.6028 23.4446 22.6919 22.4781 22.1904 21.8674 21.2375 27.7884
threshold=7.9549577236175546 5.5598855018615732 15.106559986044116 9.8452219963073748 532.00000000000011 26.500000000000004 0.030158064637477285 26.500000000000004 28.500000000000004 -0.00097068399190902699 6.6867241859436044 48.500000000000007 1.0000000180025095e-35 176.50000000000003 9.107088348766597 43.500000000000007 0.067231638418079109 1.0000000180025095e-35 10.227481842041017 324.50000000000006 6.4490115642547616 9.3420263041564287 0.030374973580027508 0.045675836503505714 2.5000000000000004 0.099756427109241499 239.50000000000003 1.0000000180025095e-35 10.967171713203799 0.02660555336050522 0.0024863183498382573 9.4589567185031616 0.11343321576714517 0.0010601667287011174 -0.062244258821010583 8.8282742901984381 -0.10604701936244963 0.10084745762711866 29.500000000000004 7.4758131504058847 8.692392826080324 2.5000000000000004 20.500000000000004 -0.14143647998571393 0.044101420789957053 0.099756427109241499 25.500000000000004 1.0000000180025095e-35 9.5131106376647967 -0.22189574688673017 2725.5000000000005 2.5000000000000004 1545.5000000000002 501.50000000000006 945.50000000000011 0.079156223893066008 0.07773791998624803 20.500000000000004 1796.5000000000002 9.992756751116783 -0.065056256949901567 0.040257371962070472
decision_type=2 2 2 2 2 2 2 2 2 2 2 2 2 2 2 2 2 2 2 2 2 2 2 2 2 2 2 2 2 2 2 2 2 2 2 2 2 2 2 2 2 2 2 2 2 2 2 2 2 2 2 2 2 2 2 2 2 2 2 2 2 2
left_child=1 11 5 8 6 9 10 43 48 14 -3 -1 -7 -9 22 42 17 45 -19 33 49 -18 25 -15 46 -2 27 41 29 50 57 37 38 39 -35 -20 -26 -22 -11 -12 -40 59 53 -6 -38 -5 47 -21 -4 -8 51 -14 -44 -16 -17 -41 -32 -31 -24 -10 61 -43
right_child=2 4 3 16 7 12 20 13 26 32 19 -13 28 23 15 54 21 18 35 24 31 -23 58 -25 36 -27 -28 -29 -30 30 56 -33 -34 34 -36 -37 44 -39 40 55 -42 60 52 -45 -46 -47 -48 -49 -50 -51 -52 -53 -54 -55 -56 -57 -58 -59 -60 -61 -62 -63
leaf_value=-0.07808504514147839 0.020099213771407942 -0.022126260049112462 0.047741947595503709 0.10992868285112341 0.028278756530360424 -0.013513396588054352 -0.01979936330765486 -0.1367957306666566 -0.0072833864735161041 -0.0087103760334989663 0.099640437571898763 -0.13834511115416592 0.1169934681467712 -0.082539087365176997 0.063455940420196075 0.015370972089323344 -0.0072094359350475395 0.060437548543725697 0.15071069862021777 -0.020725282854282687 -0.019039042438475918 0.070315085850656031 -0.014615106432820144 -0.042619534927959508 -0.032376505757736811 -0.028814788914189256 -0.013354554658225324 0.060616143313335619 0.087137785754524744 -0.0054089880456948394 -0.00070674565549080188 0.019267653033602984 0.019078496588756228 0.05121043213746615 -0.0089372168394685203 0.10764481387609109 0.011450927452744107 -0.038765551233321288 -0.017357715255477364 0.063856838779015976 -0.051966999799108883 0.021990950636565684 0.027582542868589778 -0.035614231447963156 0.049972029445471911 0.055742286584340044 -0.03186588542075041 0.00039521495683389322 0.081470719544273429 -0.060978441980509147 0.015651188652012864 0.046987613944379107 -0.016876164642540183 0.019262955835817951 -0.031259033944586227 -0.010002310148307256 -0.071547433061059568 0.045220623392206019 -0.069346760441699337 0.048659205366857354 0.021238348896644929 0.099040423655374493
leaf_weight=75 151 606 438 29 36 56 50 35 138 385 23 204 25 205 96 51 22 70 61 237 512 100 46 95 34 58 72 94 39 28 26 44 72 36 90 176 199 365 162 22 107 25 216 34 59 100 97 761 66 153 51 220 37 46 58 21 20 101 31 20 235 22
leaf_count=75 151 606 438 29 36 56 50 35 138 385 23 204 25 205 96 51 22 70 61 237 512 100 46 95 34 58 72 94 39 28 26 44 72 36 90 176 199 365 162 22 107 25 216 34 59 100 97 761 66 153 51 220 37 46 58 21 20 101 31 20 235 22
internal_value=2.0899e-11 -0.0265106 0.0282285 0.0519884 -0.0193263 0.0091931 -0.0138495 -0.0640742 0.0348758 -0.000348555 -0.00570187 -0.122146 0.0347499 -0.0768872 0.0124353 0.0223853 0.0860296 0.0943386 0.105438 0.000601594 -0.029688 0.0563353 -0.00509902 -0.0698979 -0.00257811 0.00652499 0.0205019 0.0250668 0.0400494 0.0361504 0.0169515 -0.0250268 -0.0142593 0.0235717 0.00824783 0.118729 0.0141311 -0.027249 -0.0179295 0.0528262 -0.0311242 0.0174722 0.0311678 -0.00275498 0.02026 0.0679237 -0.0070339 -0.00462037 0.0521588 -0.0508358 0.0475011 0.0541311 0.0210807 0.0491399 -0.00944132 0.0277861 -0.031507 0.0342313 -0.0366499 -0.000202046 0.0273747 0.0580567
internal_weight=7743 3993 3750 1668 3714 2082 3309 405 1110 1516 2185 279 566 335 790 504 558 436 307 1579 1124 122 286 300 1387 209 606 534 510 471 175 921 726 192 126 237 292 877 654 66 269 440 395 70 258 129 1095 998 504 203 296 245 253 142 109 43 46 129 77 158 282 47
internal_count=7743 3993 3750 1668 3714 2082 3309 405 1110 1516 2185 279 566 335 790 504 558 436 307 1579 1124 122 286 300 1387 209 606 534 510 471 175 921 726 192 126 237 292 877 654 66 269 440 395 70 258 129 1095 998 504 203 296 245 253 142 109 43 46 129 77 158 282 47
is_linear=0
shrinkage=0.05


Tree=15
num_leaves=63
num_cat=0
split_feature=23 23 47 4 13 13 10 16 47 47 43 19 19 15 4 16 4 16 4 19 15 47 17 0 20 45 4 16 0 24 4 14 0 4 18 38 17 4 16 41 19 39 4 17 14 4 17 43 28 47 0 43 45 47 30 32 26 0 24 45 4 4
split_gain=2161.79 959.343 679.233 303.268 275.807 257.64 169.513 137.182 133.95 117.904 117.461 105.397 73.4526 73.2409 69.8804 69.146 87.8191 67.788 59.4199 59.3269 58.3805 58.3762 54.8497 51.147 50.9806 49.6845 45.0513 44.0624 43.8496 39.5125 37.6607 37.4162 36.5602 35.2923 33.6966 32.688 31.5639 29.5043 28.6577 28.5854 27.9449 27.8957 27.0825 41.0805 25.1306 27.0563 25.7371 24.9121 24.815 23.548 23.1851 22.919 24.5101 31.0089 21.7481 21.3917 21.2808 20.9228 20.7939 22.0211 21.1232 26.7431
threshold=0.22601604461669925 2.8945410251617436 8.8683896064758319 213.50000000000003 14.920793540403929 15.076430940619856 1.0000000180025095e-35 882.50000000000011 11.183655738830568 6.9185731410980233 5.1914448738098153 25.500000000000004 26.500000000000004 6.8601392875512452 187.50000000000003 171.50000000000003 414.00000000000006 93.500000000000014 85.500000000000014 27.500000000000004 8.8482937578854006 7.3346953392028817 0.011894986579935688 90842.000000000015 2.5000000000000004 1.6005328297615053 678.50000000000011 1624.0000000000002 182.50000000000003 0.57781714200973522 231.50000000000003 8.7666273935654129 968.50000000000011 182.50000000000003 0.00054503667720720908 0.0087734907865524309 0.016930102456207751 139.50000000000003 889.50000000000011 -0.0018810480833053587 22.500000000000004 0.056838512420654304 2.5000000000000004 0.029441053681280416 10.986444298357311 113.50000000000001 0.027325825565456461 9.2613544464111346 0.18583457916975024 8.2004842758178729 53.500000000000007 5.6818470954895028 1.4858050346374514 6.9912948608398446 0.20754635334014895 -0.033483024686574929 -0.015062518417835234 6022.5000000000009 0.30350182950496679 1.1157518029212954 229.50000000000003 78.500000000000014
decision_type=2 2 2 2 2 2 2 2 2 2 2 2 2 2 2 2 2 2 2 2 2 2 2 2 2 2 2 2 2 2 2 2 2 2 2 2 2 2 2 2 2 2 2 2 2 2 2 2 2 2 2 2 2 2 2 2 2 2 2 2 2 2
left_child=2 3 9 4 11 12 17 15 33 31 -3 22 14 25 28 -5 -17 -6 41 23 26 50 39 58 -12 49 30 -16 -4 48 32 -1 -9 47 -23 -32 -33 -13 -26 -2 -35 55 -36 -44 45 -14 -47 -7 56 -11 -19 -24 53 -53 -21 -8 -27 -45 60 -60 61 -15
right_child=1 10 5 7 6 8 18 20 -10 13 24 37 44 19 27 16 -18 21 -20 54 -22 34 51 -25 38 29 -28 -29 -30 -31 35 36 -34 40 42 -37 -38 -39 -40 -41 -42 -43 43 57 -46 46 -48 -49 -50 -51 -52 52 -54 -55 -56 -57 -58 -59 59 -61 -62 -63
leaf_value=-0.037868109171656707 -0.010484124231955102 -0.13038916170302003 -0.0086938847641808443 -0.12586977528624757 0.09229828067833469 0.048942389477696732 0.088673999507792617 -0.022579780803062024 0.10290176790434991 0.0046588952374919364 -0.11397536747230619 -0.054559576166603646 0.064251772248082692 0.0058466261248412039 -0.0058546229876133855 -0.034094251265993254 -0.088592625574815564 -0.044755242224782707 -0.0096847375059345119 0.065883484997017225 -0.011928611412345351 -0.044262219983197397 -0.063538856274233418 0.077646480897879788 -0.086059104269597592 -0.0083905466474019554 -0.078008821084530972 -0.095685387505218392 0.033067720130837253 0.037668122836586201 -0.0062721409990141794 0.048017224647104742 -0.07414646594879333 -0.00076403062848839909 0.074659098092127937 -0.040651453916977782 -0.011384856762399651 -0.0035097259213216605 -0.032833727277025125 0.053751333227359456 0.049550277719881096 0.11915738158377594 0.03329499580272257 -0.02212372751479658 0.089960421646634744 0.04554507770200808 0.0071960863474679424 0.070925613059897738 0.033526846498716623 0.029892007803027809 -0.008410022579335227 -0.020717318057022233 -0.022284350491583695 0.0055812123622305601 0.014847282706587403 0.043109872233808827 -0.037054603627304832 0.033590498564510865 0.0077924985832699654 0.037333427255646749 -0.0042114744311449129 0.025808374650336599
leaf_weight=138 29 202 83 43 21 202 47 56 213 333 51 245 90 348 43 168 132 55 24 92 313 21 26 34 41 117 66 20 259 33 144 25 89 40 22 133 212 32 66 43 89 29 146 72 30 114 71 356 20 128 217 216 645 233 27 57 145 22 96 184 171 324
leaf_count=138 29 202 83 43 21 202 47 56 213 333 51 245 90 348 43 168 132 55 24 92 313 21 26 34 41 117 66 20 259 33 144 25 89 40 22 133 212 32 66 43 89 29 146 72 30 114 71 356 20 128 217 216 645 233 27 57 145 22 96 184 171 324
internal_value=2.75887e-11 -0.0275739 0.0253131 -0.0192296 -0.0083797 0.050494 0.0166712 -0.0401137 0.0682593 0.0086088 -0.10513 -0.0208796 0.0279747 0.0133199 0.0140185 -0.0665728 -0.0580735 0.00411788 0.0627266 0.0206865 -0.0287835 0.000781319 -0.0144234 0.0172289 -0.0728367 0.00120691 -0.0395941 -0.0343723 0.0229326 -0.0140985 -0.0335861 -0.0171706 -0.0542311 0.0575186 0.016679 -0.0227792 -0.00511881 -0.0486621 -0.0532285 0.0278787 0.0339489 0.0757933 0.0215636 0.0166965 0.0465067 0.0417663 0.0308274 0.0629675 -0.0201563 0.0116651 -0.0157592 -0.0171428 -0.0160402 -0.0070702 0.0543038 0.0637014 -0.0242542 -0.00908423 0.0153997 0.0272051 0.0114785 0.015471
internal_weight=7743 3706 4037 3346 2202 1610 733 1144 900 2427 360 1469 710 2052 405 343 300 576 157 1276 801 555 1192 1157 158 776 488 63 342 315 422 375 145 687 283 277 237 277 107 72 129 133 262 240 305 275 185 558 282 461 272 1120 1094 449 119 104 262 94 1123 280 843 672
internal_count=7743 3706 4037 3346 2202 1610 733 1144 900 2427 360 1469 710 2052 405 343 300 576 157 1276 801 555 1192 1157 158 776 488 63 342 315 422 375 145 687 283 277 237 277 107 72 129 133 262 240 305 275 185 558 282 461 272 1120 1094 449 119 104 262 94 1123 280 843 672
is_linear=0
shrinkage=0.05


Tree=16
num_leaves=63
num_cat=0
split_feature=47 44 47 4 14 21 13 12 47 19 47 18 17 19 21 44 13 9 4 13 19 0 12 47 24 21 20 4 0 21 19 26 4 20 0 3 4 6 43 13 12 5 38 17 17 4 21 9 46 44 21 30 21 25 21 13 19 40 0 3 44 0
split_gain=1939.39 741.742 685.107 240.807 232.773 219.456 202.191 106.563 102.374 81.6104 71.7785 66.1098 59.0691 61.8708 58.2431 58.0009 56.122 54.6322 53.8416 52.5347 49.3332 53.633 47.25 41.4196 39.3485 36.1286 35.1107 34.1503 33.8906 40.8496 40.6467 32.7614 32.1189 29.5789 32.8103 28.7374 27.9733 27.6048 30.7037 27.4001 27.9846 27.2291 26.79 28.6778 26.2182 26.1392 26.1087 24.3663 24.6323 23.957 23.6501 23.3936 23.1144 22.9607 22.4623 22.6646 22.4579 28.5796 21.9884 21.5744 21.1146 21.0934
threshold=7.2825450897216806 5.5598855018615732 9.5100998878479022 255.50000000000003 11.373381605865594 532.00000000000011 13.259246964525266 0.074537037037037054 10.64475202560425 23.500000000000004 5.7765305042266855 0.0010601667287011174 0.032775462896456484 21.500000000000004 1.5000000000000002 8.3739118576049822 15.895327848423561 1.0000000180025095e-35 198.50000000000003 14.606532088232269 26.500000000000004 31659.500000000004 0.024695121951219517 6.5976769924163827 0.087178535759449019 42.500000000000007 9.5000000000000018 187.50000000000003 1606.5000000000002 14.500000000000002 25.500000000000004 0.015736654400825504 65.500000000000014 18.958525345622125 134.50000000000003 1.0000000180025095e-35 2.5000000000000004 0.37940952255126048 8.4213242530822772 12.896321481628762 0.21702898550724639 -0.5 0.025704272091388706 0.029279194282783885 0.03945447960503097 42.500000000000007 760.00000000000011 1.0000000180025095e-35 12.583859920501711 9.4259471893310565 20.500000000000004 -0.0011196583509445188 267.50000000000006 -0.27554325759410853 7.5000000000000009 12.922102145906331 22.500000000000004 -0.082569740712642656 591.50000000000011 1.0000000180025095e-35 7.8585789203643808 257.50000000000006
decision_type=2 2 2 2 2 2 2 2 2 2 2 2 2 2 2 2 2 2 2 2 2 2 2 2 2 2 2 2 2 2 2 2 2 2 2 2 2 2 2 2 2 2 2 2 2 2 2 2 2 2 2 2 2 2 2 2 2 2 2 2 2 2
left_child=1 14 3 6 9 10 12 15 18 47 54 31 13 -2 -1 35 20 -10 -6 22 21 33 26 -7 46 -18 32 -11 29 30 41 -5 -12 34 -9 36 -8 38 59 40 60 -14 43 -24 -30 -19 -13 -4 -49 -39 -38 -21 -52 -26 55 -3 57 -53 -16 -17 -15 -25
right_child=2 5 4 11 8 23 7 16 17 27 19 24 28 39 58 37 25 45 -20 51 -22 -23 42 61 53 -27 -28 -29 44 -31 -32 -33 -34 -35 -36 -37 50 49 -40 -41 -42 -43 -44 -45 -46 -47 -48 48 -50 -51 52 56 -54 -55 -56 -57 -58 -59 -60 -61 -62 -63
leaf_value=-0.064331609041599389 -0.012358607774454326 -0.050215273876341865 -0.033065115301805136 -0.091654503432124168 0.060461075157534495 -0.077947310521683133 0.086159592079506686 -0.035701115611122873 0.059663091646507384 0.058184436417742826 -0.0026942060480775712 -0.022327233892326701 -0.029274727830014537 0.001855972323914791 -0.14141323778821133 0.062075530909574954 0.072155860056779514 0.14348217894633611 0.0090101527926212156 0.0051718309656674814 0.043358559616553112 0.068504093543936814 -0.0084787715532448817 -0.085154058997120183 0.053040535552427173 0.0089230733011169613 -0.015427712420369506 0.018482085346293291 -0.079360725326197493 0.02366498043774155 -0.054589918810164645 -0.037990989817661192 0.060100412287283689 -0.014458200473444746 0.010986388307883239 0.0077552817147821017 0.019490581073221706 0.026369888411335102 0.048188849336534778 0.04267083544400993 -0.030598071032497839 0.007701949087029274 -0.040616864353619719 -0.032107333167215341 -0.020766093094079272 0.096935861231258483 -0.075904978279556556 0.038571712206594833 -0.010774155148255611 0.082442945286276798 0.078177998577937113 0.056552822096273304 0.015812567660274605 -0.0039266766633327104 -0.076220816118293455 -0.021502208732827394 -0.024669077437585937 -0.0074018714453458131 -0.10927136308737916 0.13114985596388579 0.023010182779820545 -0.029617509238976155
leaf_weight=55 322 140 54 43 368 196 22 41 98 126 56 121 89 206 87 26 58 36 59 332 84 30 228 21 20 37 328 95 35 69 63 84 32 232 458 211 210 205 295 77 38 113 296 294 42 186 28 41 66 21 39 20 24 153 40 135 195 138 137 20 276 92
leaf_count=55 322 140 54 43 368 196 22 41 98 126 56 121 89 206 87 26 58 36 59 332 84 30 228 21 20 37 328 95 35 69 63 84 32 232 458 211 210 205 295 77 38 113 296 294 42 186 28 41 66 21 39 20 24 153 40 135 195 138 137 20 276 92
internal_value=1.63302e-11 -0.0330443 0.0189496 0.00876988 0.0531404 -0.0245535 0.0133876 0.0233827 0.0693758 0.0213923 -0.0190908 -0.0256109 -0.00174031 0.00530642 -0.110435 0.0341502 0.0110917 0.0907575 0.0533519 -0.0154597 0.00699522 0.00298139 -0.0216234 -0.0640476 -0.0135618 0.0475284 -0.00790373 0.0411178 -0.0174969 -0.010603 -0.0195256 -0.0561605 0.0201402 0.000292363 0.00715034 0.0218445 0.031922 0.0451319 0.0541134 0.0148343 0.0107123 -0.00858976 -0.0286006 -0.0217868 -0.0474 0.104484 -0.0323955 -0.00568429 0.00813407 0.0315802 0.0275512 -0.00435595 0.0544197 0.00265913 -0.041212 -0.0361198 -0.0133169 0.000693659 -0.121755 0.0921078 0.0139692 -0.0399385
internal_weight=7743 2822 4921 3792 1129 2543 3343 2013 747 382 2234 449 1330 919 279 1073 940 320 427 1919 845 761 1234 309 322 95 416 221 411 334 265 127 88 731 499 506 295 567 341 597 520 202 818 522 77 222 149 161 107 226 273 685 63 173 315 275 353 158 224 46 482 113
internal_count=7743 2822 4921 3792 1129 2543 3343 2013 747 382 2234 449 1330 919 279 1073 940 320 427 1919 845 761 1234 309 322 95 416 221 411 334 265 127 88 731 499 506 295 567 341 597 520 202 818 522 77 222 149 161 107 226 273 685 63 173 315 275 353 158 224 46 482 113
is_linear=0
shrinkage=0.05


Tree=17
num_leaves=63
num_cat=0
split_feature=47 47 47 14 4 47 15 16 45 12 12 31 15 4 2 17 2 9 20 16 4 16 17 2 4 12 0 46 2 2 44 47 47 16 24 6 25 2 34 32 9 4 31 13 47 13 30 45 25 18 12 4 45 45 25 4 44 29 6 0 44 14
split_gain=1756.43 754.873 571.322 312.431 165.572 146.228 137.121 113.091 105.045 98.4433 88.1025 75.6895 53.4848 88.9006 61.3863 50.958 49.8227 48.4543 46.691 45.525 58.5109 43.1766 40.5211 40.2009 38.5922 38.0477 37.0787 36.6234 36.4229 35.9265 34.2029 32.8156 31.2761 29.6554 31.0353 28.1281 33.3212 29.8572 27.7661 26.1174 26.0545 87.9471 32.4365 25.846 25.8358 25.008 24.6496 24.2069 23.1808 22.7525 21.779 36.9436 29.0231 21.4635 20.8717 20.6816 20.5027 19.989 19.6732 18.7504 18.6236 18.3115
