tree
version=v4
num_class=1
num_tree_per_iteration=1
label_index=0
max_feature_idx=47
objective=regression
feature_names=Column_0 Column_1 Column_2 Column_3 Column_4 Column_5 Column_6 Column_7 Column_8 Column_9 Column_10 Column_11 Column_12 Column_13 Column_14 Column_15 Column_16 Column_17 Column_18 Column_19 Column_20 Column_21 Column_22 Column_23 Column_24 Column_25 Column_26 Column_27 Column_28 Column_29 Column_30 Column_31 Column_32 Column_33 Column_34 Column_35 Column_36 Column_37 Column_38 Column_39 Column_40 Column_41 Column_42 Column_43 Column_44 Column_45 Column_46 Column_47
feature_infos=[3:520277] [0:3] [2:80] [0:1] [0:1815] [-1:1] [-1:1] [-0.97492791218182362:0.97492791218182362] [-0.90096886790241903:1] [0:1] [0:5] [0:12] [0:1] [0:19.298387903336014] [0:16.156949373701934] [0:13.789278486014178] [5:85687] [0:0.23999999999999999] [0:0.10000000000000001] [1:29] [0:69] [0:5219] [0:1] [-14.095705032348633:5.9990730285644531] [-0.7636491060256958:0.65352052450180054] [-0.59651082754135132:0.52321195602416992] [-0.48347508907318115:0.74857574701309204] [-0.49875789880752563:0.47128558158874512] [-0.50594830513000488:0.52315360307693481] [-0.36708196997642517:0.37085872888565063] [-0.48099970817565918:0.42286506295204163] [-0.44780576229095459:0.40534666180610657] [-0.44155892729759216:0.41434895992279053] [-0.33734768629074097:0.34950852394104004] [-0.35102874040603638:0.39132261276245117] [-0.33033448457717896:0.4380224347114563] [-0.3592904806137085:0.36133831739425659] [-0.31436461210250854:0.30920568108558655] [-0.326703280210495:0.25963690876960754] [-0.34283179044723511:0.29259571433067322] [-0.30821514129638672:0.32527783513069153] [-0.34377121925354004:0.26177579164505005] [-0.32131406664848328:0.28004235029220581] [0.69314718246459961:12.444441795349121] [0.83443892002105713:12.168923377990723] [0.22964930534362793:3.106661319732666] [1.6094379425048828:14.779463768005371] [0.77424019575119019:12.861437797546387]
tree_sizes=5262 5550 5550 5564 5521 5551 5575 5580 5542 5575 5582 5581 5559 5599 5593 5607 5595 5617 5592 5595 5599 5625 5629 5627 5613 5643 5628 5616 5624 5616 5619 5632 5645 5600 5636 5626 5627 5623 5596 5630 5635 5634 5613 5639 5644 5634 5653 5632 5663 5657 5645 5661 5640 5650 5679 5614 5633 5657 5648 5637 5636 5647 5656 5658 5652 5644 5655 5687 5664 5655 5658 5658 5707 5650 5652 5637 5670 5638 5675 5661 5627 5680 5663 5661 5654 5679 5641 5633 5681 5627 5630 5662 5659 5670 5634 5652 5666 5695 5662 5635 5681 5664 5681 5670 5658 5625 5667 5670 5682 5654 5648 5623 5721 5698 5648 5624 5646 5684 5646 5611 5638 5644 5648 5636 5686 5658 5640 5656 5665 5630 5684 5670 5669 5682 5633 5623 5598 5661 5658 5710 5639 5640 5638 5693 5655 5663 5601 5625 5643 5672 5676 5665 5625 5617 5609 5612 5659 5635 5624 5632 5651 5664 5663 5661 5640 5651 5652 5621 5605 5627 5612 5644 5634 5664 5634 5668 5655 5669 5674 5622 5670 5615 5647 5631 5610 5640 5652 5662 5641 5614 5630 5614 5640 5657 5652 5655 5616 5618 5653 5681 5647 5611 5664 5642 5647 5646 5649 5647 5654 5629 5630 5661 5625 5660 5678 5643 5659 5635 5642 5675 5663 5654 5640 5686 5636 5664 5643 5637 5657 5659 5638 5654 5647 5615 5648 5676 5650 5652 5635 5626 5652 5653 5662 5679 5647 5624 5606 5683 5673 5660 5642 5689 5670 5668 5645 5682 5694 5693 5634 5666 5660 5714 5639 5632 5691 5661 5644 5645 5665 5649 5688 5635 5645 5673 5686 5679 5647 5640 5627 5701 5687 5671 5704 5706 5674 5652 5684 5679 5687 5691 5725 5669 5660 5675 5637 5701 5687 5654 5696 5651 5678 5685 5662 5684 5650 5708 5698 5676 5695 5702 5721 5664 5693 5655 5671 5689 5671 5667 5646 5675 5660 5670 5669 5673 5660 5681 5683 5729 5674 5709 5662 5660 5710 5695 5730 5678 5668 5712 5716 5719 5734 5690 5721 5666 5734 5696 5684 5709 5687 5709 5668 5674 5706 5721 5724 5694 5739 5660 5702 5695 5689 5706 5707 5702 5708 5712 5720 5730 5710 5715 5723 5737 5687 5721 5730 5676 5680 5674 5722 5740 5724 5708 5688 5690 5729 5694 5713 5702 5717 5739 5698 5713 5742 5740 5728 5738 5705 5735 5716 5691 5655 5722 5713 5771 5667 5701 5725 5747 5719 5756 5692 5693 5724 5698 5733 5730 5709 5738 5726 5761 5712 5709 5748 5720 5726 5711 5723 5726 5666 5735 5746 5714 5704 5719 5726 5719 5702 5743 5745 5738 5745 5757 5689 5742 5731 5717 5744 5756 5771 5750 5711 5747 5743 5771 5741 5736 5739 5744 5762 5762 5732 5737 5774 5725 5711 5722 5748 5757 5726 5771 5736 5781 5754 5752 5712 5740 5734 5747 5755 5720 5747 5768 5726 5782 5737 5714 5780 5775 5747 5753 5761 5721 5747 5757 5749 5729 5760 5753 5758 5731

Tree=0
num_leaves=63
num_cat=0
split_feature=47 23 44 44 15 44 21 23 21 21 17 15 16 4 47 47 22 4 9 23 8 4 47 15 23 15 16 47 14 4 19 4 23 21 23 21 4 0 15 4 23 4 4 0 2 19 2 47 21 17 27 47 17 19 31 23 0 38 0 4 21 5
split_gain=12573.5 4430.4 3064.9 1462.72 585.427 473.314 450.264 361.445 320.82 255.73 247.259 203.529 167.212 213.168 161.247 149.804 146.666 143.722 142.854 141.538 133.153 107.209 103.053 100.364 84.0921 78.3805 77.6685 76.8534 69.4141 75.889 80.9871 62.7991 58.164 53.7626 53.5922 53.5094 53.2209 51.1447 50.6587 53.12 50.4927 50.3019 49.9959 49.7083 47.5083 47.1019 46.7748 46.4376 46.2369 51.1808 46.4703 44.9101 41.1329 40.875 38.6745 38.5022 38.2195 38.0408 40.0014 34.2646 33.4746 32.4868
threshold=7.5715830326080331 -8.3267164230346662 9.5934357643127459 6.3791193962097177 6.7244330414940263 10.772963523864748 82.500000000000014 -0.38231897354125971 1.0000000180025095e-35 1117.5000000000002 0.029447709383012239 8.7776324532243422 171.50000000000003 414.00000000000006 5.2193353176116952 8.4190530776977557 1.0000000180025095e-35 463.00000000000006 1.0000000180025095e-35 0.2254295349121094 -0.22252093395631442 57.500000000000007 7.1187846660614023 8.8262193922525274 3.4154310226440434 8.6001545045882448 218.50000000000003 4.6255886554718026 12.453699856774032 1.0000000180025095e-35 24.500000000000004 42.500000000000007 0.4251470565795899 1.0000000180025095e-35 -4.1861371994018546 19.500000000000004 394.50000000000006 2244.0000000000005 8.8662290290699683 215.50000000000003 -1.2457246780395506 213.50000000000003 487.00000000000006 6022.5000000000009 37.500000000000007 20.500000000000004 32.500000000000007 8.5126476287841815 8.5000000000000018 0.056971736012861991 -0.054309681057929986 10.885709762573244 0.010445641161339675 25.500000000000004 -0.02172334864735603 -0.712052822113037 28.500000000000004 -0.03169520013034343 325.50000000000006 9.5000000000000018 95.500000000000014 -0.60355339059327362
decision_type=2 2 2 2 2 2 2 2 2 2 2 2 2 2 2 2 2 2 2 2 2 2 2 2 2 2 2 2 2 2 2 2 2 2 2 2 2 2 2 2 2 2 2 2 2 2 2 2 2 2 2 2 2 2 2 2 2 2 2 2 2 2
left_child=1 8 4 6 19 23 11 16 -1 10 22 14 -8 -14 -3 33 36 25 59 41 42 61 37 24 -4 32 -24 -10 29 -17 48 -20 -12 43 -28 -34 46 38 39 56 -39 53 -11 -9 -27 -36 -6 -23 49 -31 -50 -25 -41 -2 -45 -16 -5 -18 -59 -7 -30 -21
right_child=2 3 5 9 7 18 12 15 27 20 17 -13 13 -15 55 28 57 -19 31 21 -22 47 26 51 -26 44 34 -29 60 30 -32 -33 35 -35 45 -37 -38 40 -40 52 -42 -43 -44 54 -46 -47 -48 -49 50 -51 -52 -53 -54 -55 -56 -57 -58 58 -60 -61 -62 -63
leaf_value=7.1891740743967683 7.2697560433648487 7.1386227846649621 7.2618157102095875 7.2271820413668122 7.3036394146612889 7.3958780265812631 7.0277852881752247 7.2922945017968219 6.9934110952052393 7.1746999837274048 7.2106775566033088 7.2310116201285757 7.1862818310570473 7.0930448613955788 7.1903527003462226 7.3884893382787551 7.3742431187529309 7.1083179699643777 7.5471563360693841 7.2800441852128728 7.248502867050588 7.2897021862755524 7.3671162363327261 7.4036250116811075 7.3745162329921792 7.3027131090446353 7.1960855258991607 7.0955274670126824 7.4112583987540326 7.3251795510314111 7.363793021845729 7.4829598317177011 7.2326354418266634 7.3395735700119333 7.2494033578347059 7.3091091987046388 7.1845914833222491 7.2415276299550175 7.2705802489456177 7.1559042098835937 7.3081402084041818 7.2046110396425851 7.1032247379722984 7.313146968724439 7.2378852298898675 7.2811196068617043 7.2498290632069553 7.3261755459330882 7.2834622136221165 7.2573844714643378 7.3594112263607956 7.4718264706962865 7.2263694617634799 7.2012514481528642 7.3733977880739534 7.2409849580881334 7.2532659245218607 7.2640014811160949 7.3218459232362498 7.4585987310941704 7.3376716716702077 7.2427427980429195
leaf_weight=25 134 187 20 187 59 51 42 212 234 63 461 244 113 134 256 102 26 26 50 154 47 166 21 337 96 50 24 20 68 273 285 160 269 203 162 25 22 50 161 23 66 59 40 84 65 422 128 184 23 31 162 26 208 26 39 44 564 38 140 38 20 94
leaf_count=25 134 187 20 187 59 51 42 212 234 63 461 244 113 134 256 102 26 26 50 154 47 166 21 337 96 50 24 20 68 273 285 160 269 203 162 25 22 50 161 23 66 59 40 84 65 422 128 184 23 31 162 26 208 26 39 44 564 38 140 38 20 94
internal_value=7.26886 7.21084 7.33883 7.22443 7.3139 7.42638 7.17285 7.32902 7.01827 7.24236 7.24579 7.19374 7.12002 7.1357 7.17506 7.34041 7.28759 7.22416 7.47575 7.27846 7.17876 7.29106 7.25605 7.39557 7.35509 7.22762 7.27258 7.00145 7.3522 7.34795 7.34261 7.49824 7.22176 7.31927 7.26931 7.23914 7.25815 7.24779 7.24458 7.24032 7.27943 7.24407 7.14694 7.30697 7.26607 7.27232 7.26681 7.30888 7.33026 7.31827 7.34997 7.40851 7.21935 7.25862 7.33225 7.19778 7.24677 7.31775 7.3095 7.42266 7.39453 7.26591
internal_weight=7743 4233 3510 3954 2732 778 1020 1915 279 2934 2784 731 289 247 487 1502 413 896 299 817 150 598 1888 479 116 870 629 254 964 876 774 210 755 538 608 294 209 1259 1143 982 116 219 103 335 115 584 187 350 489 304 185 363 231 160 123 300 751 204 178 89 88 248
internal_count=7743 4233 3510 3954 2732 778 1020 1915 279 2934 2784 731 289 247 487 1502 413 896 299 817 150 598 1888 479 116 870 629 254 964 876 774 210 755 538 608 294 209 1259 1143 982 116 219 103 335 115 584 187 350 489 304 185 363 231 160 123 300 751 204 178 89 88 248
is_linear=0
shrinkage=1


Tree=1
num_leaves=63
num_cat=0
split_feature=47 47 44 44 44 21 47 47 15 13 21 13 13 16 4 4 47 23 23 4 23 13 15 17 19 21 19 23 4 13 4 17 17 17 4 4 47 4 36 15 19 4 23 34 23 38 5 25 44 45 5 14 35 47 19 13 4 23 26 34 23 45
split_gain=11347.6 4006.58 2766.07 1417.46 531.225 448.447 428.775 232.207 224.864 219.464 210.381 186.2 137.633 135.797 148.23 135.232 115.717 112.767 98.2789 97.2726 96.1286 104.002 92.7947 86.2953 81.8553 79.9781 76.0726 73.9827 72.0594 69.0693 66.296 63.5317 59.4266 56.4154 74.1339 55.1033 54.975 47.0244 46.7694 46.5316 46.1308 45.6275 45.5648 44.353 42.8586 40.828 39.9766 43.8519 37.6715 37.0541 35.4021 53.2297 34.5858 34.4985 34.1851 33.3505 32.0412 32.0162 30.685 30.2255 29.9641 29.1586
threshold=7.5715830326080331 3.5661256313323979 9.5934357643127459 6.3791193962097177 8.5469722747802752 82.500000000000014 10.715637207031252 6.4611618518829355 7.4003150472669139 14.813605153520735 886.00000000000011 13.256128227158982 14.606532088232269 171.50000000000003 487.00000000000006 142.50000000000003 5.592484951019288 0.36779403686523443 -0.38231897354125971 519.50000000000011 -0.33626461029052729 15.895327848423561 8.8262193922525274 0.025076473767469489 26.500000000000004 239.50000000000003 23.500000000000004 3.4575901031494145 215.50000000000003 15.838510043779486 1.5000000000000002 0.029447709383012239 0.03945447960503097 0.054963538028380277 59.500000000000007 217.50000000000003 8.4190530776977557 2.5000000000000004 -0.0080905482172965986 8.8063487032103716 23.500000000000004 1.0000000180025095e-35 -8.3267164230346662 -0.03496002405881881 -5.5720815658569327 -0.028742894530296322 -0.78656609248549303 0.1238585188984871 6.7730259895324716 1.3358931541442873 -0.60355339059327362 8.6155891025917999 0.051562536507844932 5.1609785556793222 25.500000000000004 14.631576670659131 9.5000000000000018 -2.4427304267883296 -0.10919623821973799 0.011149600148200991 2.9563980102539067 1.7183765769004824
decision_type=2 2 2 2 2 2 2 2 2 2 2 2 2 2 2 2 2 2 2 2 2 2 2 2 2 2 2 2 2 2 2 2 2 2 2 2 2 2 2 2 2 2 2 2 2 2 2 2 2 2 2 2 2 2 2 2 2 2 2 2 2 2
left_child=1 15 4 5 8 9 22 10 17 16 31 24 19 -7 28 -1 42 46 25 23 26 38 27 35 61 32 -14 -4 -15 33 -19 -5 -10 37 -35 48 54 -13 59 -8 45 -38 -3 -28 -18 -39 47 -2 -9 -33 51 -32 -24 -16 -20 -51 -41 -12 -48 -22 -26 -6
right_child=2 3 6 7 11 13 39 12 18 -11 57 29 20 14 53 -17 44 30 36 -21 21 -23 52 -25 60 -27 43 -29 -30 -31 50 49 -34 34 -36 -37 41 40 -40 56 -42 -43 -44 -45 -46 -47 58 -49 -50 55 -52 -53 -54 -55 -56 -57 -58 -59 -60 -61 -62 -63
leaf_value=-0.26181066108069251 -0.018755140858910866 -0.18902466088533401 -0.0077528121694922444 -0.028022211171817968 0.024763307063521929 -0.2291643657335421 0.12084503289312126 -0.043735358965667812 0.04221461931618848 -0.035840186492534711 -0.15559049934487454 0.11389618894633124 -0.0051193278210669539 -0.17911029124543781 -0.20634400678235432 -0.14134355880893196 -0.13591138436680747 -0.036923268367536365 0.035508336594195652 -0.11525246410785864 0.083579843299406958 0.11975025258337457 0.12742353937494647 -0.034949666990384001 0.011358170114133669 -0.035137116212140898 -0.11856383268128744 0.098352006168874073 -0.078108044357987141 0.11882513904021781 0.023867392036711021 -0.035509919237933667 -0.018218865895680354 -0.044631178795614027 0.073162403045331725 -0.038780792792114605 0.13472585374346147 -0.00079873254379400844 0.0027900101823076884 0.17216850683475152 0.086428890741891792 0.064125050692843452 -0.1102292766324706 -0.036740392285274037 -0.061120284393156345 0.06511099571514814 -0.079429334609636248 0.056720815833520011 0.0052242729670116915 -0.080090796461776859 0.0065653932971517313 0.079742781530346793 0.18960955689350767 -0.15116398946661924 0.086246833829460925 -0.01564896958677665 0.20953293810791684 -0.087921300684583606 -0.026893366914656425 0.015906918353655122 0.073920720939834914 -0.021179417501754907
leaf_weight=224 67 20 20 453 117 41 20 44 201 267 44 85 345 21 43 26 21 48 323 30 33 24 327 762 23 58 22 92 111 103 169 114 51 22 34 118 26 26 270 78 341 191 222 67 218 244 35 27 367 158 149 57 24 83 37 23 217 29 135 33 114 49
leaf_count=224 67 20 20 453 117 41 20 44 201 267 44 85 345 21 43 26 21 48 323 30 33 24 327 762 23 58 22 92 111 103 169 114 51 22 34 118 26 26 270 78 341 191 222 67 218 244 35 27 367 158 149 57 24 83 37 23 217 29 135 33 114 49
internal_value=2.1146e-11 -0.0551185 0.0664719 -0.0429314 0.0427856 -0.0928802 0.149648 -0.0251193 0.0238743 -0.0721913 -0.0476884 0.0684906 -0.0163585 -0.144637 -0.131204 -0.249282 -0.0923696 0.00240042 0.0405063 -0.0262471 9.34424e-05 0.0191955 0.119031 -0.0241788 0.0348109 0.0178001 -0.0157516 0.0794047 -0.0941766 0.0804262 0.0184039 -0.0397814 0.029984 0.0751667 0.0268864 -0.00866386 0.0527055 0.0790514 0.012013 0.19465 0.0742039 0.0725841 -0.116741 -0.0569664 -0.0676919 0.0587641 -0.0232415 0.00292412 -1.71475e-05 -0.0578387 0.0254858 0.0379599 0.131676 -0.169995 0.0407231 -0.0719021 0.199654 -0.128708 -0.0377096 0.0497434 0.0634175 0.0112019
internal_weight=7743 4233 3510 3983 2732 1047 778 2936 1574 748 821 1158 2115 299 258 250 481 687 887 1321 794 360 463 1291 303 310 434 112 132 855 423 748 252 752 56 529 577 696 336 315 611 217 242 89 239 270 264 94 411 295 375 226 351 126 360 181 295 73 170 66 137 166
internal_count=7743 4233 3510 3983 2732 1047 778 2936 1574 748 821 1158 2115 299 258 250 481 687 887 1321 794 360 463 1291 303 310 434 112 132 855 423 748 252 752 56 529 577 696 336 315 611 217 242 89 239 270 264 94 411 295 375 226 351 126 360 181 295 73 170 66 137 166
is_linear=0
shrinkage=0.05


Tree=2
num_leaves=63
num_cat=0
split_feature=47 47 44 44 15 44 21 23 21 13 13 4 22 47 23 4 0 4 17 47 13 4 8 4 4 0 4 23 13 4 21 0 21 0 2 4 17 34 43 24 23 4 23 0 13 2 13 47 36 38 23 15 12 32 17 34 26 5 24 17 29 0
split_gain=10244.9 3483.1 2717.85 1143.05 492.23 463.276 403.087 341.052 215.583 199.658 181.813 170.12 131.85 131.489 122.773 122.047 112.508 134.373 104.507 102.613 100.427 83.1152 73.3501 70.5525 63.8059 61.4606 59.6834 57.2148 57.0522 67.3657 63.203 54.1578 53.0728 56.0169 50.9924 49.3701 46.7652 45.8284 43.5227 42.6474 41.1222 40.4014 39.5872 39.5064 43.3697 38.1872 57.7541 38.1211 37.9808 35.1471 34.463 34.3874 34.2261 34.1939 36.051 31.3743 30.9745 30.9105 29.0583 27.9051 27.7115 28.8091
threshold=7.4199252128601083 3.5661256313323979 9.4585886001586932 6.3791193962097177 6.7244330414940263 10.772963523864748 82.500000000000014 -0.38231897354125971 418.00000000000006 14.813605153520735 14.606532088232269 487.00000000000006 1.0000000180025095e-35 8.3619985580444354 0.2254295349121094 142.50000000000003 177.50000000000003 414.00000000000006 0.030158064637477285 5.592484951019288 13.792031506753828 57.500000000000007 -0.22252093395631442 215.50000000000003 401.50000000000006 19.500000000000004 414.00000000000006 3.3962841033935551 15.658099355415329 2.5000000000000004 2.5000000000000004 325.50000000000006 18.500000000000004 2187.5000000000005 31.500000000000004 221.50000000000003 0.027969923442475331 0.06257271766662599 7.0623540878295907 0.098850667476654067 -8.3267164230346662 10.500000000000002 -5.3466525077819815 8626.5000000000018 15.895327848423561 13.500000000000002 15.596755771984524 5.9492290019989023 -0.0059869140386581412 0.005251944065093995 -1.1355428695678709 7.7813472345401786 0.062996031746031758 0.088027331978082671 0.023150910486375985 0.013866554945707323 0.014584492892026903 -0.78656609248549303 0.24401709437370303 0.025368172971203314 0.13370815664529803 383.50000000000006
decision_type=2 2 2 2 2 2 2 2 2 2 2 2 2 2 2 2 2 2 2 2 2 2 2 2 2 2 2 2 2 2 2 2 2 2 2 2 2 2 2 2 2 2 2 2 2 2 2 2 2 2 2 2 2 2 2 2 2 2 2 2 2 2
left_child=1 15 4 6 14 20 9 12 10 19 18 22 24 32 35 -1 -8 23 38 40 27 57 50 -18 34 -12 47 -4 29 -15 41 -7 33 48 39 36 -2 -37 -5 51 -3 -31 -21 44 -27 -22 -47 -20 -9 52 -10 -6 -35 54 -23 -49 -46 -16 -38 -44 61 -14
right_child=2 3 5 8 7 31 16 13 11 -11 25 -13 60 28 21 -17 17 -19 26 42 45 53 -24 -25 -26 43 -28 -29 -30 30 -32 -33 -34 49 -36 37 58 -39 -40 -41 -42 -43 59 -45 56 46 -48 55 -50 -51 -52 -53 -54 -55 -56 -57 -58 -59 -60 -61 -62 -63
leaf_value=-0.24872012329953061 0.011143777993557731 -0.17957343116402627 -0.013384808097034693 -0.028041957889366899 0.017257485077494666 0.13703007689960625 -0.21124146289446136 0.03850552875047928 -0.084664638842246981 -0.034048177390655833 -0.06203275668833938 -0.14686047572054362 0.0039601374214345763 0.10536050839793115 0.011326315064168377 -0.13427638010336804 -0.17015477808724558 -0.15942717583051749 -0.075998380980113661 -0.12543096368511517 0.16237328609694607 0.059995251091126106 -0.005292129677075607 -0.069430098852308678 -0.09460770787582512 -0.0064014945343201348 -0.13169901188462974 0.082819873310954251 0.10452478456570478 -0.019663058187473905 0.075401874217396428 0.19600901637565007 0.071661842982343432 0.094406449790112687 -0.017617881371386996 -0.10020403702344215 -0.051336910951261722 -0.012568243213284475 -0.0041724855683066631 -0.023905653337992373 -0.10471781399604436 0.050583748009826415 -0.024146815800728898 0.037070953415593869 0.088895908033563981 0.094536241681098643 0.1311209255570098 -0.030291750790820006 0.00071862922855337765 0.032144598629365875 -0.021766184855784691 0.10670802552591672 0.022910343618555505 -0.018760882774046785 0.025455843703377813 -0.053848144066277262 0.0030188217138250669 -0.021311248995230667 0.016492996616289019 -0.067491652454794729 0.086173161976039414 0.046890358530260905
leaf_weight=224 107 20 20 625 21 46 44 133 98 267 42 57 55 105 171 26 21 133 82 24 46 118 65 101 21 678 20 68 122 22 413 253 119 70 176 35 75 26 275 21 222 294 48 66 21 198 237 357 133 81 28 22 22 29 210 234 21 126 20 164 30 135
leaf_count=224 107 20 20 625 21 46 44 133 98 267 42 57 55 105 171 26 21 133 82 24 46 118 65 101 21 678 20 68 122 22 413 253 119 70 176 35 75 26 275 21 222 294 48 66 21 198 237 357 133 81 28 22 22 29 210 234 21 126 20 164 30 135
internal_value=7.45002e-11 -0.0561698 0.0588891 -0.0440065 0.0357418 0.136545 -0.0883638 0.0496789 -0.0266558 -0.0686815 -0.0221077 -0.0710549 0.0130014 0.0613313 0.00542066 -0.236818 -0.137405 -0.124665 -0.0319863 -0.0880269 0.110065 0.0170225 -0.0484323 -0.086768 -0.0110327 -0.00310229 -0.0465808 0.0609552 0.0725888 0.0679171 0.062524 0.186935 0.0420444 0.034016 -0.00371993 -0.0234294 -0.0115249 -0.0628511 -0.0207485 0.0344995 -0.110904 0.0456931 -0.0645679 4.66653e-05 -0.00334723 0.11905 0.114469 -0.0440512 0.0196121 0.056163 -0.0706872 0.0630229 0.0773096 0.0332804 0.0378816 -0.0396186 0.0459574 -0.00251992 -0.0370569 -0.0576777 0.0415145 0.0344632
internal_weight=7743 3963 3780 3713 2912 868 1044 1995 2669 745 2421 248 481 1514 917 250 299 255 1593 478 569 654 191 122 261 828 693 88 956 834 729 299 558 439 240 263 202 61 900 64 242 316 236 786 720 481 435 673 266 173 126 43 92 357 328 591 42 297 95 212 220 190
internal_count=7743 3963 3780 3713 2912 868 1044 1995 2669 745 2421 248 481 1514 917 250 299 255 1593 478 569 654 191 122 261 828 693 88 956 834 729 299 558 439 240 263 202 61 900 64 242 316 236 786 720 481 435 673 266 173 126 43 92 357 328 591 42 297 95 212 220 190
is_linear=0
shrinkage=0.05


Tree=3
num_leaves=63
num_cat=0
split_feature=47 23 47 47 47 21 21 13 23 23 13 13 13 21 21 17 4 2 4 0 9 19 17 45 47 17 0 12 47 13 17 13 9 19 4 28 14 23 5 20 27 40 13 6 23 13 27 13 4 9 13 4 4 13 4 14 45 7 21 19 40 38
split_gain=9249.23 3390.7 1917.18 1169.54 494.729 317.537 312.205 282.676 264.106 228.685 197.772 179.597 164.716 161.545 125.837 119.601 104.025 103.414 100.042 128.182 98.7739 96.2472 91.6027 88.7035 85.5507 83.5519 82.0422 80.4998 70.3725 64.2397 61.4222 59.2536 57.7032 54.7441 53.8546 50.0184 46.2854 44.4431 44.3195 43.15 41.5046 40.6514 39.0308 38.2973 37.7806 37.3866 36.0028 38.3978 74.8884 54.1665 51.884 46.8512 35.6004 34.5111 32.8179 31.7235 31.1414 30.9083 30.6281 33.7616 29.7157 38.1846
threshold=7.7215802669525155 -7.4049348831176749 9.464820861816408 5.9492290019989023 11.070588588714601 1.0000000180025095e-35 33.500000000000007 12.600584589708665 -1.5452527999877927 -0.38231897354125971 14.860186042985797 14.995960603802098 14.606532088232269 689.00000000000011 188.50000000000003 0.029441053681280416 100.50000000000001 13.500000000000002 394.50000000000006 108.50000000000001 1.0000000180025095e-35 25.500000000000004 0.025209392124131213 1.6015720963478091 4.7925384044647226 0.036864900779785041 2297.0000000000005 0.18898809523809526 8.3619985580444354 14.879747894334844 0.025209392124131213 15.596755771984524 1.0000000180025095e-35 21.500000000000004 716.00000000000011 -0.0040230825543403617 12.662941244189222 3.7258663177490239 -0.78656609248549303 14.511248073959939 -0.078403484076261507 0.036578319966793067 15.264397861930831 0.78656609248549303 -1.5042738914489744 13.761343973485857 -0.15690714120864865 14.953726582890591 37.500000000000007 1.0000000180025095e-35 15.13893238668299 2.5000000000000004 42.500000000000007 10.546498641492844 3.5000000000000004 10.905992663591501 1.6079480051994326 -1.0000000180025095e-35 12.500000000000002 25.500000000000004 0.00031019002199172979 0.0077747106552124032
decision_type=2 2 2 2 2 2 2 2 2 2 2 2 2 2 2 2 2 2 2 2 2 2 2 2 2 2 2 2 2 2 2 2 2 2 2 2 2 2 2 2 2 2 2 2 2 2 2 2 2 2 2 2 2 2 2 2 2 2 2 2 2 2
left_child=1 5 7 6 11 -1 10 30 13 14 24 23 22 15 25 29 -7 32 19 -8 54 28 33 -4 -3 40 36 45 43 -5 37 -19 -13 57 -17 -28 60 -2 -25 -32 -9 44 -42 -11 -16 -15 -30 48 -48 51 -51 -49 -22 -41 -6 -23 -52 -10 59 -24 61 -14
right_child=2 3 4 8 20 16 18 9 12 21 -12 17 26 27 41 34 -18 31 -20 -21 52 55 58 38 -26 -27 35 -29 46 -31 39 -33 -34 -35 -36 -37 -38 -39 -40 53 42 -43 -44 -45 -46 -47 47 49 -50 50 56 -53 -54 -55 -56 -57 -58 -59 -60 -61 -62 -63
leaf_value=-0.06025291917224726 0.015165877252940305 -0.12484394287759509 0.082636665535818166 -0.029051621766367365 0.10175419613009407 -0.1311943620995239 -0.21117055654525757 -0.0088576209758009228 -0.0025304245488608585 0.039823796458902862 -0.031284885491946461 0.1336924586830468 0.035189957474134503 -0.051225961651653051 -0.057757486427823704 -0.046441037294489923 -0.23454140419921568 0.088809252639510561 -0.15326052629857459 -0.073843654737997366 0.24328947861989342 0.071046504901592131 -0.028576380708029054 0.055542826862074436 -0.072686517995276256 -0.024687624756867688 0.093763214811076259 -0.024545388501137494 0.014104101113043728 0.0040527616874579198 -0.03548273231904462 0.12462736411496651 0.23734926128387454 0.0092539910926905927 -0.12649966779334301 0.025058739913114605 0.060372952712864129 0.074709579708158155 -0.027040468178915256 -0.02670659494744438 0.036786948217928009 -0.10164597264745019 0.086493821773264146 -0.0041263539075725155 0.027418585607539056 -0.12130004966874486 -0.044198348186910152 0.089471255354065859 0.056349849243089556 0.15575830345352493 0.094814018445446138 0.039124972545794508 0.1880610209393811 0.0231142726127464 0.1663364859851631 0.10513409565389156 0.029905136415491935 -0.043731687062334428 0.0046448783704736195 -0.063779265136997165 -0.012332273404032118 -0.0062034049005402873
leaf_weight=33 242 108 164 407 42 27 20 35 85 310 268 29 104 24 30 465 248 209 159 113 36 215 656 32 289 60 43 40 40 229 106 258 25 344 22 69 34 36 33 53 147 22 54 59 23 92 20 72 250 30 94 129 154 101 37 100 23 98 61 76 239 120
leaf_count=33 242 108 164 407 42 27 20 35 85 310 268 29 104 24 30 465 248 209 159 113 36 215 656 32 289 60 43 40 40 229 106 258 25 344 22 69 34 36 33 53 147 22 54 59 23 92 20 72 250 30 94 129 154 101 37 100 23 98 61 76 239 120
internal_value=9.7445e-13 -0.0467243 0.0639137 -0.0348862 0.120816 -0.206808 -0.0833961 0.0381548 -0.0204148 0.0480846 -0.064472 0.099951 -0.00873298 -0.0380335 0.013339 -0.0314105 -0.224395 0.116172 -0.126494 -0.0944943 0.178989 0.0576901 -0.0186571 0.0630456 -0.0868754 0.0279969 0.0127775 -0.0857105 0.0502743 -0.017132 0.00653831 0.108597 0.181682 -0.00249985 -0.0500576 0.0514364 0.00406562 0.0228766 0.0136159 -0.0109311 0.0413912 -0.0445108 0.050141 0.0327965 -0.0207943 -0.106802 0.0600757 0.0630512 0.0489018 0.0740291 0.0970958 0.0571595 0.198525 0.00596813 0.132002 0.081868 0.0820542 -0.0245945 -0.0293947 -0.0322313 -6.92578e-05 0.0130149
internal_weight=7743 4473 3270 4165 1019 308 957 2251 3208 1713 665 750 1929 1279 371 1123 275 521 292 133 269 1342 1320 229 397 296 609 156 1027 636 538 467 54 527 487 112 497 278 65 260 236 75 201 369 53 116 658 618 270 348 147 201 190 154 79 315 117 183 793 732 463 224
internal_count=7743 4473 3270 4165 1019 308 957 2251 3208 1713 665 750 1929 1279 371 1123 275 521 292 133 269 1342 1320 229 397 296 609 156 1027 636 538 467 54 527 487 112 497 278 65 260 236 75 201 369 53 116 658 618 270 348 147 201 190 154 79 315 117 183 793 732 463 224
is_linear=0
shrinkage=0.05


Tree=4
num_leaves=63
num_cat=0
split_feature=47 47 44 44 44 21 47 21 23 13 13 13 4 15 15 16 4 4 17 47 13 15 0 45 44 23 4 19 45 0 4 5 0 0 19 45 47 44 34 4 17 0 47 23 23 21 0 45 0 13 28 40 47 4 35 19 17 13 39 17 26 40
split_gain=8371.15 2849.8 2220.96 935.992 462.65 330.539 319.489 180.905 179.184 165.052 150.033 149.586 144.43 123.411 109.9 105.15 110.649 97.037 86.8116 82.9439 73.8202 69.5608 61.5628 60.846 58.5012 57.2554 54.6223 54.1103 54.0205 53.9937 51.4524 50.3966 44.8855 43.9729 42.3836 45.5015 42.2722 41.7727 39.5332 39.3097 38.5899 36.9681 34.3921 33.8154 33.7967 33.5322 42.3009 52.5245 32.4312 37.0153 31.161 30.5998 30.5809 29.331 29.0073 28.7075 28.6397 28.4402 27.7999 30.7145 27.3967 25.7975
threshold=7.4199252128601083 3.5661256313323979 9.5934357643127459 6.3791193962097177 8.5469722747802752 82.500000000000014 10.715637207031252 418.00000000000006 0.2254295349121094 14.813605153520735 11.54235317273465 14.606532088232269 519.50000000000011 6.6359456945730724 7.625838677264781 171.50000000000003 487.00000000000006 142.50000000000003 0.025076473767469489 5.592484951019288 15.686319117687956 8.8262193922525274 24671.500000000004 1.4938108921051028 6.7730259895324716 3.4575901031494145 215.50000000000003 25.500000000000004 1.3358931541442873 19.500000000000004 362.50000000000006 -0.78656609248549303 325.50000000000006 143.50000000000003 22.500000000000004 1.7183765769004824 8.43920946121216 7.7679235935211191 -0.01622366905212402 2.5000000000000004 0.026470688931259347 52663.500000000007 6.8526322841644296 -8.3267164230346662 -5.3466525077819815 54.500000000000007 8626.5000000000018 1.3192312121391299 8626.5000000000018 15.895327848423561 -0.023334830999374386 0.024215713143348697 5.1609785556793222 215.50000000000003 0.051562536507844932 20.500000000000004 0.011673076921712681 15.581931787474788 0.062843754887580885 0.03450065003054989 0.014584492892026903 0.008997429162263872
decision_type=2 2 2 2 2 2 2 2 2 2 2 2 2 2 2 2 2 2 2 2 2 2 2 2 2 2 2 2 2 2 2 2 2 2 2 2 2 2 2 2 2 2 2 2 2 2 2 2 2 2 2 2 2 2 2 2 2 2 2 2 2 2
left_child=1 17 4 5 8 9 21 11 14 19 -6 18 23 33 31 -7 26 -1 24 43 34 25 37 42 -5 -4 -17 36 -20 -13 55 -2 -8 -10 35 -12 41 -16 -38 -36 -41 57 -9 -3 -21 46 47 -42 49 -31 -29 -33 -18 -25 -23 -30 -35 -15 59 -39 -51 -40
right_child=2 3 6 7 10 15 32 12 13 -11 20 29 -14 27 22 16 52 -19 28 44 -22 54 -24 53 -26 -27 -28 50 30 48 -32 51 -34 56 39 -37 38 58 61 40 45 -43 -44 -45 -46 -47 -48 -49 -50 60 -52 -53 -54 -55 -56 -57 -58 -59 -60 -61 -62 -63
leaf_value=-0.22478909946179818 0.0039322568062823597 -0.16251548394560814 -0.0088940522447228439 -0.037829788549707331 -0.0045194793829895471 -0.19870056858876858 0.12113103308611446 -0.051239509862370608 -0.022212742333344762 -0.030598653176422703 0.050762325968142098 -0.05790090972468967 -0.13622078074650332 0.02202386999648814 -0.0054831601077220057 -0.15445591282276883 -0.18023766708928488 -0.12274260847614363 -0.028007576823596354 -0.11482169777154923 0.096971768864863361 0.10914233989261707 0.10164127431809902 -0.032574046018623536 -0.0028293230138867723 0.084448224929687773 -0.066519041079422303 0.046561758543054263 -0.023373570539253322 -0.005611268294301911 -0.12765803173893975 -0.022689493527551268 0.17506847612283849 0.073274478908966892 0.096595086815900039 -0.0045483154933089803 0.087674249968912502 0.047196779395876964 0.030200402106562954 0.072460131023001792 0.049881087618178867 0.081543735938612374 0.0090302311283137118 -0.094635209508726864 -0.052219476947947499 0.07571505130961155 0.072108735128858834 -0.0073394376784563066 0.033830918960809482 0.083142580091953286 0.11328188290908224 -0.062190210981628836 -0.12828508847090134 -0.091680085945587908 0.16609285982946556 -0.054874707993284012 0.014366345087252839 0.083386622825637469 -0.0091522676958924239 -0.0067343871645403636 0.002377343685865136 0.09005848250605844
leaf_weight=224 114 20 20 170 88 41 45 41 84 267 194 42 55 338 186 21 43 26 603 24 142 327 20 31 401 92 111 30 95 678 21 132 270 22 84 46 73 132 99 313 89 32 56 222 212 78 64 73 66 21 42 78 83 65 24 303 332 20 42 33 21 22
leaf_count=224 114 20 20 170 88 41 45 41 84 267 194 42 55 338 186 21 43 26 603 24 142 327 20 31 401 92 111 30 95 678 21 132 270 22 84 46 73 132 99 313 89 32 56 222 212 78 64 73 66 21 42 78 83 65 24 303 332 20 42 33 21 22
internal_value=2.02235e-10 -0.0507741 0.0532322 -0.039772 0.0337212 -0.0799111 0.128517 -0.0240713 0.0180239 -0.0620878 0.0582659 -0.019905 -0.064743 0.030862 -0.00103293 -0.12432 -0.1125 -0.214176 -0.0288654 -0.0796769 0.0633675 0.102089 0.0160685 -0.0443737 -0.0132498 0.06778 -0.080509 0.0445842 -0.0375899 -0.00266609 -0.0513803 -0.022832 0.167363 0.01031 0.0582965 0.0401611 0.039542 0.0117137 0.0586152 0.0645055 0.0601368 0.0300544 -0.0164446 -0.100245 -0.0585858 0.0474486 0.0376929 0.0240965 0.000285393 -0.00278961 0.0854818 -0.0373612 -0.146015 -0.0725938 0.113036 -0.0473556 0.0180273 0.025452 0.0271659 0.0364105 0.04276 0.0410837
internal_weight=7743 3963 3780 3713 3002 1044 778 2669 1831 745 1171 2421 248 1094 737 299 258 250 1593 478 1083 463 413 193 571 112 132 656 1022 828 419 324 315 438 941 240 584 393 194 701 617 390 97 242 236 304 226 162 786 720 72 210 126 96 351 398 354 358 207 165 42 121
internal_count=7743 3963 3780 3713 3002 1044 778 2669 1831 745 1171 2421 248 1094 737 299 258 250 1593 478 1083 463 413 193 571 112 132 656 1022 828 419 324 315 438 941 240 584 393 194 701 617 390 97 242 236 304 226 162 786 720 72 210 126 96 351 398 354 358 207 165 42 121
is_linear=0
shrinkage=0.05


Tree=5
num_leaves=63
num_cat=0
split_feature=47 47 44 47 15 44 23 23 16 15 4 23 15 4 9 23 47 4 13 13 13 16 4 44 19 16 4 16 47 47 4 9 36 23 45 44 13 13 4 17 45 0 5 33 15 0 4 45 37 33 39 0 14 28 13 33 4 19 7 24 2 13
split_gain=7554.97 2571.95 2007.49 851.688 371.534 344.047 251.496 176.009 162.34 174.883 131.084 154.826 110.465 130.128 110.098 95.5638 94.1036 87.5759 85.0763 76.5816 74.1602 66.9981 63.3844 62.5069 62.5019 59.8557 53.2934 51.0222 46.2542 46.1532 45.0482 60.7894 43.4372 43.4314 42.8588 41.5524 42.9122 40.8305 41.6312 40.6249 39.6057 37.6611 36.3741 36.3223 35.3251 35.2262 34.83 42.6746 34.1218 33.295 32.5782 52.1717 39.2507 41.3175 35.586 30.743 30.311 30.1825 30.0382 29.7312 29.5392 44.9901
threshold=7.4199252128601083 3.5661256313323979 9.4585886001586932 5.9492290019989023 6.7244330414940263 10.772963523864748 -0.38231897354125971 -0.38231897354125971 985.50000000000011 8.7776324532243422 377.50000000000006 -5.9484853744506827 8.8662290290699683 501.50000000000006 1.0000000180025095e-35 -1.8641924858093259 8.342595577239992 142.50000000000003 14.606532088232269 14.920793540403929 13.792031506753828 882.50000000000011 601.50000000000011 6.3791193962097177 23.500000000000004 367.50000000000006 42.500000000000007 69.500000000000014 4.7925384044647226 8.8650922775268572 2.5000000000000004 1.0000000180025095e-35 -0.0096364319324493391 3.3962841033935551 1.1537113189697268 7.1679582595825204 15.819647564285743 16.017761149837138 307.50000000000006 0.02402541561508912 2.0287456512451176 1150.5000000000002 -0.91597561503675329 0.12858445942401889 3.7494348669884658 1857.5000000000002 190.50000000000003 1.2014532089233401 0.035117108374834068 -0.027127400040626522 0.011844612658023836 1927.5000000000002 10.986444298357311 -0.012724295258522032 14.327919805907715 -0.020265914499759671 10.500000000000002 21.500000000000004 -1.0000000180025095e-35 -0.13823287189006803 13.500000000000002 15.596755771984524
decision_type=2 2 2 2 2 2 2 2 2 2 2 2 2 2 2 2 2 2 2 2 2 2 2 2 2 2 2 2 2 2 2 2 2 2 2 2 2 2 2 2 2 2 2 2 2 2 2 2 2 2 2 2 2 2 2 2 2 2 2 2 2 2
left_child=1 17 4 8 15 20 19 12 10 22 11 -3 13 23 -7 44 35 -1 39 -6 33 -15 28 -5 -21 29 -16 -25 -10 -17 59 56 41 -4 -27 -8 45 -14 -39 57 50 -20 -36 46 -2 -37 -29 -48 -26 -47 51 52 -33 -54 -53 -49 -32 58 -9 -18 -22 -62
right_child=2 3 5 7 6 14 16 18 9 -11 -12 -13 37 21 26 25 30 -19 32 24 60 -23 -24 27 48 34 -28 43 -30 -31 31 40 -34 -35 42 36 -38 38 -40 -41 -42 -43 -44 -45 -46 49 47 55 -50 -51 -52 54 53 -55 -56 -57 -58 -59 -60 -61 61 -63
leaf_value=-0.21354965660055833 0.0024088764640813071 -0.17279624648210479 -0.012479729987680913 -0.061846375939853829 -0.016320301774099016 0.11412980722242527 -0.017373627374934801 0.0053715718973238596 -0.11468098495494237 -0.029597636212887204 -0.14344962370727674 -0.068056051334616521 -0.00040700122130355571 -0.15290409656795298 0.22554550337791446 0.018301167454459331 0.14463268471035093 -0.11660547829591311 0.017433507922219066 0.034291971423070541 0.14031565030226889 -0.061615470034832309 -0.15561072076189109 0.047332968076225369 -0.078624258041381845 0.020199605192378862 0.16640685440972447 -0.026426358731635419 -0.066905557772640248 0.072351883724331864 -0.021683903207833116 0.049633846371459761 0.0025882066153119217 0.071339522039189071 0.010760296594817191 0.025503482803272876 0.099889605931405515 -0.0037609990499913692 -0.10577959835529327 -0.025754361764259943 -0.0038645119406282903 0.094359895586967474 -0.019217282604053618 0.00074757655531587739 -0.066283104867964501 0.013487397597693816 -0.030847027438182024 -0.042850423254182236 0.012630044096814737 0.064519109060538232 0.055792312324047091 0.094176458932605456 0.05444276356561617 0.11103206143165245 0.17286990389227869 -0.083941385685941394 0.040687431085799988 0.0087986427440475187 -0.041655024166102526 0.079337933043106684 0.080590624781678236 0.11288049075799654
leaf_weight=224 27 41 20 213 165 89 34 59 66 258 127 253 253 37 50 134 22 26 41 275 46 44 29 20 20 219 160 401 218 56 22 139 288 68 170 296 28 20 20 584 20 26 250 71 61 41 186 85 21 145 309 51 55 78 20 98 170 195 80 84 198 237
leaf_count=224 27 41 20 213 165 89 34 59 66 258 127 253 253 37 50 134 22 26 41 275 46 44 29 20 20 219 160 401 218 56 22 139 288 68 170 296 28 20 20 584 20 26 250 71 61 41 186 85 21 145 309 51 55 78 20 98 170 195 80 84 198 237
internal_value=-1.71094e-11 -0.0482354 0.0505706 -0.0377834 0.0306769 0.117311 0.0427853 -0.0233244 -0.0774437 -0.0600758 -0.101 -0.0826627 -0.0352479 -0.0422036 0.160736 0.00433422 0.0527916 -0.203467 -0.00976179 0.0112894 0.0944914 -0.103315 -0.0851983 -0.0375946 0.0257058 0.00959313 0.180487 -0.031595 -0.0780083 0.0342319 0.0621268 0.0583527 0.011024 0.0522897 0.00226705 0.0361461 0.0397141 -0.00782861 -0.0547703 -0.0177999 0.0654418 0.0472855 -0.0070835 -0.033472 -0.0452072 0.0362184 -0.0366273 -0.047713 -0.0318842 0.0532702 0.0675678 0.078176 0.0682131 0.0876305 0.116344 -0.0648554 0.0335407 -0.00389145 -0.0216941 0.0928897 0.102212 0.098183
internal_weight=7743 3963 3780 3713 2912 868 1995 2721 992 571 421 294 1448 1155 299 917 1514 250 1273 481 569 81 313 1074 316 829 210 861 284 190 970 864 355 88 639 544 510 293 40 918 672 67 420 841 88 482 770 369 41 186 652 343 272 133 71 183 192 334 139 106 481 435
internal_count=7743 3963 3780 3713 2912 868 1995 2721 992 571 421 294 1448 1155 299 917 1514 250 1273 481 569 81 313 1074 316 829 210 861 284 190 970 864 355 88 639 544 510 293 40 918 672 67 420 841 88 482 770 369 41 186 652 343 272 133 71 183 192 334 139 106 481 435
is_linear=0
shrinkage=0.05


Tree=6
num_leaves=63
num_cat=0
split_feature=47 47 44 44 15 44 21 21 23 21 17 15 9 22 23 47 16 23 15 23 45 15 47 0 47 21 23 23 47 23 0 44 6 44 2 17 12 5 45 40 47 15 15 47 17 18 45 32 20 17 18 45 6 0 28 40 44 30 28 15 33 3
split_gain=6818.36 2323.78 1811.76 668.523 335.309 310.503 260.533 248.207 226.975 149.514 124.841 101.844 99.3637 93.3784 86.2464 84.9285 80.2569 78.3573 66.9418 81.7255 65.0761 62.5579 57.8409 56.6133 51.2712 50.9739 48.0973 46.5111 46.4754 43.7237 40.5398 39.8386 39.7819 43.7835 39.2781 38.715 38.0732 37.4157 47.8345 32.8799 32.6045 31.8809 31.7983 31.559 31.4146 56.5129 30.9679 30.7639 29.6295 29.451 29.2345 28.598 28.1164 26.5744 25.0907 32.6262 25.1559 24.6154 24.2294 24.1541 24.1474 23.4534
threshold=7.4199252128601083 4.1940519809722909 9.4585886001586932 6.3791193962097177 6.7244330414940263 10.772963523864748 174.50000000000003 1.0000000180025095e-35 -0.38231897354125971 418.00000000000006 0.030591246003305688 8.7776324532243422 1.0000000180025095e-35 1.0000000180025095e-35 -1.8641924858093259 8.342595577239992 171.50000000000003 1.0081672668457033 8.8262193922525274 2.9172315597534184 1.4938108921051028 8.8662290290699683 8.1727166175842303 1927.5000000000002 5.2193353176116952 2.5000000000000004 3.0260686874389653 1.5773630142211916 5.2784621715545663 -3.1919603347778316 231.50000000000003 6.7730259895324716 0.60355339059327384 7.2524569034576425 27.500000000000004 0.015382016502439517 0.1635998661759786 -0.78656609248549303 1.0102723240852358 -0.0040529221296310416 10.885709762573244 3.7494348669884658 6.7244330414940263 6.4611618518829355 0.053985679952725601 0.0024880909819154601 1.0728635787963869 0.11975364387035371 1.0000000180025095e-35 0.024519549044436265 0.0010488104146151162 1.7119672298431399 -0.60355339059327384 70.500000000000014 0.024112381041049961 0.020677983760833744 8.6031913757324237 0.12206619977951051 -0.10780320689082144 6.8808976929142709 0.065387900918722167 1.0000000180025095e-35
decision_type=2 2 2 2 2 2 2 2 2 2 2 2 2 2 2 2 2 2 2 2 2 2 2 2 2 2 2 2 2 2 2 2 2 2 2 2 2 2 2 2 2 2 2 2 2 2 2 2 2 2 2 2 2 2 2 2 2 2 2 2 2 2
left_child=1 7 4 6 14 18 11 21 13 10 23 24 39 34 41 32 -8 20 19 -4 43 -1 37 31 -3 -24 -14 42 -18 -26 -20 -5 33 -10 -6 -35 -25 -16 -39 -7 -32 -2 47 -11 48 -46 -31 -12 -17 -33 -36 -41 -9 -13 55 56 -15 -52 -50 -30 -27 -61
right_child=2 3 5 9 8 12 16 52 15 17 27 53 26 54 22 44 28 -19 30 -21 -22 -23 25 36 29 60 -28 -29 59 46 40 49 -34 35 50 -37 -38 38 -40 51 -42 -43 -44 -45 45 -47 -48 -49 58 -51 57 -53 -54 -55 -56 -57 -58 -59 -60 61 -62 -63
leaf_value=-0.13481218672357501 0.0022884317828963203 -0.08945971200532632 -0.031817964017391204 -0.027485240199401479 0.036776228335339771 0.14801255482615847 -0.17923963728703951 -0.21647031989716392 -0.016214771904051305 -0.089417140101167303 -0.045900194887208812 -0.058639541663229468 0.21426822304725648 0.025712178110977452 0.011677998358237685 0.11058119217554728 -0.13739596435001919 0.014400480093900115 0.033086023231347399 0.076000131481680389 -0.092852482286095619 -0.039297663047909742 0.0046333854107757158 0.026092414843549041 -0.075888804263611165 0.045800463389479434 0.1580865092203021 -0.010587027468690021 -0.059490141282030555 -0.016195219968695464 0.10049876215181597 -0.00086352116729141067 0.010330987332445633 0.10205109190549061 -0.062668789803020417 0.041960221330508973 -0.022092615437048321 0.024453374778157941 -0.030757810797898428 0.049363027613539355 0.1584933468928704 -0.06296894962586401 -0.026830775591677587 -0.020644374859208864 -0.026714042625550567 0.060399523578458826 -0.058035390742588788 -0.10135026256795283 0.016631721642108695 -0.017716577230896296 -0.021154907451709733 0.12082486176597221 -0.18226762494525395 -0.017359213030102565 0.0068269451669717238 0.10007576079148313 0.081139077186584474 0.019418432425671057 0.061655524359813231 -0.088001432003114721 -0.012033268576487899 -0.14287970888614654
leaf_weight=40 27 167 20 381 39 33 38 131 30 22 340 50 50 113 204 30 63 32 21 145 125 30 199 161 143 185 160 163 54 82 357 565 131 29 31 354 55 51 170 28 26 61 249 69 29 52 96 27 31 479 140 28 111 177 59 23 25 51 828 88 20 25
leaf_count=40 27 167 20 381 39 33 38 131 30 22 340 50 50 113 204 30 63 32 21 145 125 30 199 161 143 185 160 163 54 82 357 565 131 29 31 354 55 51 170 28 26 61 249 69 29 52 96 27 31 479 140 28 111 177 59 23 25 51 828 88 20 25
internal_value=2.08668e-10 -0.0458236 0.048042 -0.0346311 0.0291431 0.111445 -0.0698794 -0.176797 0.040646 -0.0216442 -0.0178551 -0.05412 0.152699 0.0107249 0.0041175 0.050152 -0.111924 -0.0586185 0.0897669 0.0629313 -0.0694361 -0.0938774 0.00911347 -0.0100306 -0.0669903 0.0226596 0.171463 -0.0343377 -0.100802 -0.0553006 0.100727 -0.0136463 0.0343388 0.0419539 -0.00950117 0.0465102 0.0138231 -0.00376328 -0.0180168 0.108423 0.104436 -0.0429468 -0.0406224 -0.0372708 0.0590205 0.0292107 -0.0387607 -0.0499796 0.0617366 -0.00859591 -0.017631 0.0850939 -0.200782 -0.0264518 0.0347204 0.0449422 0.0357533 -0.0103212 0.0600307 -0.0869975 0.0401581 -0.100143
internal_weight=7743 3963 3780 3651 2912 868 983 312 1995 2668 2420 715 299 481 917 1514 268 248 569 165 216 70 829 1641 488 404 210 779 230 321 404 1425 544 413 261 383 216 425 221 89 383 88 616 91 970 81 178 367 889 1044 222 56 242 227 220 161 138 191 859 167 205 113
internal_count=7743 3963 3780 3651 2912 868 983 312 1995 2668 2420 715 299 481 917 1514 268 248 569 165 216 70 829 1641 488 404 210 779 230 321 404 1425 544 413 261 383 216 425 221 89 383 88 616 91 970 81 178 367 889 1044 222 56 242 227 220 161 138 191 859 167 205 113
is_linear=0
shrinkage=0.05


Tree=7
num_leaves=63
num_cat=0
split_feature=47 23 44 47 15 47 21 21 23 44 15 21 15 4 15 9 23 4 0 4 8 0 4 17 18 47 21 20 15 47 17 4 33 20 38 28 14 17 5 21 17 17 19 33 33 4 19 40 17 29 14 23 33 38 47 23 18 28 46 0 44 15
split_gain=6154.07 2281.09 1394.02 788.509 266.14 223.107 221.866 209.133 184.267 165.691 158.603 124.505 122.672 101.791 80.845 76.4468 72.3551 70.9158 94.0429 69.0635 65.0097 56.3718 52.4274 52.3371 64.7424 51.3177 56.7258 48.8899 48.4656 48.4004 47.1392 43.8438 41.9862 41.039 40.827 40.1774 39.6947 56.351 41.8809 40.8769 39.3301 39.1708 37.858 37.0448 36.4808 35.6377 39.4902 33.3142 32.3543 30.8636 30.1001 28.2113 28.1765 26.5014 26.4203 26.1628 26.1312 41.2628 25.4212 28.0588 25.0542 36.5984
threshold=7.7215802669525155 -7.4049348831176749 9.6476273536682147 5.9492290019989023 6.7244330414940263 10.715637207031252 1.0000000180025095e-35 33.500000000000007 -1.6919202804565427 8.4650778770446795 7.1252827678962758 689.00000000000011 7.1616207992213861 427.50000000000006 8.8482937578854006 1.0000000180025095e-35 -1.8641924858093259 394.50000000000006 108.50000000000001 100.50000000000001 -0.22252093395631442 6022.5000000000009 577.50000000000011 0.040537698750944033 0.0029246133039270632 8.1727166175842303 2.5000000000000004 2.5000000000000004 8.8262193922525274 5.4283213615417489 0.025209392124131213 42.500000000000007 0.12453164532780649 18.958525345622125 -0.0016914159059524534 -0.0040230825543403617 12.486188975545526 0.054963538028380277 -0.78656609248549303 95.500000000000014 0.053072549368360741 0.013486028387184415 21.500000000000004 -0.0096842423081397993 -0.024253495037555691 2.5000000000000004 24.500000000000004 -0.0047670826315879813 0.0271337410411366 0.017200274392962459 10.634748991076384 -2.8166589736938472 0.036591663956642158 0.040800973773002631 4.1940519809722909 3.0260686874389653 0.0013103211340534506 -0.004713997244834899 12.757607936859133 6022.5000000000009 8.197148799896242 7.9731553740730181
decision_type=2 2 2 2 2 2 2 2 2 2 2 2 2 2 2 2 2 2 2 2 2 2 2 2 2 2 2 2 2 2 2 2 2 2 2 2 2 2 2 2 2 2 2 2 2 2 2 2 2 2 2 2 2 2 2 2 2 2 2 2 2 2
left_child=1 6 4 7 16 28 -1 10 11 13 29 14 30 23 22 47 -2 18 -9 -8 -13 27 32 33 -25 -18 -27 -14 34 54 42 -17 48 41 -4 -23 37 45 -39 -38 43 -6 -10 -29 -43 -11 49 -7 -5 58 -48 -34 -44 -50 -3 -28 -46 -58 -47 -60 61 -35
right_child=2 3 5 8 9 15 19 17 12 36 -12 20 21 -15 -16 31 25 -19 -20 -21 -22 35 -24 24 -26 26 55 40 -30 -31 -32 -33 51 60 -36 -37 39 38 -40 -41 -42 44 52 -45 56 46 50 -49 53 -51 -52 -53 -54 -55 -56 -57 57 -59 59 -61 -62 -63
leaf_value=-0.046911647741922718 -0.046398664580827413 -0.13126887910895876 -0.0059204346314072611 -0.02322147663160903 0.091078789966801799 0.14773899113590069 -0.10817567519843579 -0.17650444090366366 -0.022848761132406317 0.087962303196008396 -0.028510821750596056 -0.094442809814023324 0.055286723934113984 -0.073727197898551824 -0.001168133452625221 0.2039500783319059 -0.0055363161504229019 -0.12604382236095721 -0.058878066063347584 -0.19238358666339228 -0.015252057416364552 0.085865468959751973 -0.091679256620842059 -0.0333706677731243 0.047718178533250472 0.0042529378318227262 0.025937957163075454 -0.0059678326792987615 0.097849416684004528 -0.052983700009506376 -0.025129095629501226 0.14899485175346219 -0.023876184599757835 -0.062263067470242586 0.074260162833062082 0.017969583178967029 0.10805123244212674 0.049399557661625654 -0.033471237694223721 0.028513885484564874 -0.037292220521836526 0.019060934982427055 0.014397437036025402 0.020363739746019502 0.025333468235132973 0.056808331333405272 0.055320451677843031 0.085724517768101083 -0.053267931176092 0.016241966702632213 0.086715221157624534 0.037591703049838547 -0.018968663760728536 -0.024680703577016377 -0.084068229458560906 0.060095093861146247 0.077573764406606169 0.037623117120230309 -0.0061581208862157332 0.067705853790976114 0.045753941452130679 0.018380497012506516
leaf_weight=33 55 36 20 337 36 33 27 20 191 91 335 109 43 24 252 46 235 159 113 248 34 37 37 64 40 203 131 340 336 126 717 172 40 24 77 53 70 31 30 21 63 184 232 220 106 312 183 63 264 76 131 35 87 117 168 98 113 151 36 20 24 34
leaf_count=33 55 36 20 337 36 33 27 20 191 91 335 109 43 24 252 46 235 159 113 248 34 37 37 64 40 203 131 340 336 126 717 172 40 24 77 53 70 31 30 21 63 184 232 220 106 312 183 63 264 76 131 35 87 117 168 98 113 151 36 20 24 34
internal_value=3.39977e-12 -0.0381128 0.0521341 -0.028403 0.0343705 0.112131 -0.169415 -0.0682346 -0.0165206 0.0446525 -0.0527462 -0.0317671 -0.00710209 0.0276882 -0.0259721 0.144219 0.00872241 -0.103508 -0.0765662 -0.184116 -0.0756142 0.00874112 -0.033503 0.0308248 -0.00218265 0.0132676 0.0234966 0.00372204 0.0888615 -0.0773488 -0.0168637 0.160591 -0.0307886 0.0359331 0.0577281 0.0458823 0.0582103 0.0550617 0.00864343 0.0896965 0.000163001 0.0405395 -0.00524349 0.00437671 0.0372554 0.0583968 0.0548474 0.107042 -0.034507 0.04525 0.0684183 0.00480883 0.00529759 -0.0444892 -0.0923978 0.0405554 0.0463034 0.0547232 0.0512408 0.0202219 0.00278924 -0.0149893
internal_weight=7743 4473 3270 4165 2523 747 308 957 3208 1801 665 1225 1983 800 1082 314 722 292 133 275 143 756 830 776 104 667 432 666 433 330 1227 218 793 672 97 90 1001 910 61 91 623 590 510 560 554 849 758 96 718 444 314 75 319 381 204 229 370 264 368 56 82 58
internal_count=7743 4473 3270 4165 2523 747 308 957 3208 1801 665 1225 1983 800 1082 314 722 292 133 275 143 756 830 776 104 667 432 666 433 330 1227 218 793 672 97 90 1001 910 61 91 623 590 510 560 554 849 758 96 718 444 314 75 319 381 204 229 370 264 368 56 82 58
is_linear=0
shrinkage=0.05


Tree=8
num_leaves=63
num_cat=0
split_feature=47 23 44 47 44 47 4 23 13 13 23 4 13 15 4 15 15 47 4 13 9 16 13 0 15 25 19 4 44 16 36 4 0 33 0 13 4 4 0 44 19 6 47 30 32 20 40 47 24 38 0 4 45 15 16 33 45 45 8 19 29 35
split_gain=5567.02 1904.16 1474.16 580.547 311.648 216.892 185.33 127.164 126.153 164.728 124.903 115.133 109.002 81.4824 107.047 79.2089 78.2324 77.5656 74.2156 68.0205 67.9016 57.9881 55.3519 49.2001 47.6927 46.0912 44.2772 40.3682 37.6375 44.5802 37.5343 37.1753 37.1071 34.4286 33.6639 33.2461 34.9797 33.0745 32.4312 31.8633 31.8353 36.7351 32.1672 31.204 31.103 31.05 30.0789 29.9247 37.7255 35.0074 30.8619 28.6698 36.2291 28.0498 27.6052 27.2887 27.0041 25.5802 25.0992 24.6797 28.6081 27.1764
threshold=7.4199252128601083 -7.4049348831176749 9.5934357643127459 5.9492290019989023 8.5469722747802752 10.715637207031252 92.500000000000014 0.2254295349121094 15.264397861930831 15.138301173910572 -0.38231897354125971 463.00000000000006 11.54235317273465 8.8662290290699683 501.50000000000006 7.625838677264781 6.6359456945730724 4.7925384044647226 121.50000000000001 14.606532088232269 1.0000000180025095e-35 882.50000000000011 15.686319117687956 24671.500000000004 8.8262193922525274 0.03031847253441811 25.500000000000004 42.500000000000007 6.3583340644836435 69.500000000000014 -0.0096364319324493391 406.50000000000006 143.50000000000003 0.12858445942401889 143.50000000000003 16.017761149837138 307.50000000000006 535.50000000000011 1150.5000000000002 7.7679235935211191 22.500000000000004 0.25881904510252057 9.464820861816408 0.0086058527231216448 -0.021717421710491177 11.065843621399178 -0.0038341954350471492 8.43920946121216 -0.16732244193553922 0.049724861979484565 52663.500000000007 190.50000000000003 1.3128810524940493 7.4792994783664515 894.50000000000011 -0.020265914499759671 1.7119672298431399 1.9376442432403567 -0.22252093395631442 25.500000000000004 0.017783043906092647 0.047405645251274116
decision_type=2 2 2 2 2 2 2 2 2 2 2 2 2 2 2 2 2 2 2 2 2 2 2 2 2 2 2 2 2 2 2 2 2 2 2 2 2 2 2 2 2 2 2 2 2 2 2 2 2 2 2 2 2 2 2 2 2 2 2 2 2 2
left_child=1 6 4 8 7 24 -1 15 9 11 13 17 -6 14 28 31 32 -3 -8 45 46 -16 40 39 25 -4 47 -22 -5 -30 38 -2 -9 51 -10 -15 -37 -36 -21 -17 41 -14 57 -34 -28 53 -7 50 -49 58 -18 -31 -53 -12 -46 -54 -48 -42 -50 60 -26 -62
right_child=2 3 5 10 12 20 18 16 34 -11 19 -13 22 35 21 23 26 -19 -20 30 27 -23 -24 -25 59 -27 44 -29 29 33 -32 -33 43 -35 37 36 -38 -39 -40 -41 42 -43 -44 -45 54 -47 56 48 49 -51 -52 52 55 -55 -56 -57 -58 -59 -60 -61 61 -63
leaf_value=-0.056065775318121597 -0.015585303142296126 -0.098541318167442993 0.069970291831714854 -0.051547033848065443 -0.0058563444943336602 0.13782171843728672 -0.18338953807482475 -0.020792988479314819 -0.16145434752106669 -0.024440584028154379 -0.0056849630262164955 -0.12433487613286293 0.042690937403265551 0.00061436480230888323 -0.13724876956359761 -0.0058167388519758528 0.019622894164692487 -0.052104932203686866 -0.089484882549099309 0.016477631125315206 0.19375257699385934 -0.052320022627033974 0.081106434137442382 0.089595239832997331 0.05058469737983412 -0.012208134893860136 0.11984231427195483 0.14105265469564868 0.04676278651691973 -0.022520330766390543 0.0026300738681836974 -0.08596026971936227 0.031792115372151049 0.0048083620611578228 -0.068545123653279402 -0.0016968883667141201 -0.095211166981607684 -0.1298672842771508 0.08786314949393273 0.022698030119046461 0.050486291890347923 -0.0035592416617354116 0.073439269305657071 0.0020641036283147213 0.091350897469303832 -0.0210972734704905 0.042927024527280422 0.11114320813101673 0.009916083499587872 0.091360016113945425 0.070873291970929134 -0.027948648812106028 -0.036883773249762788 0.053314051047908088 0.015250245080544398 -0.077870755294958752 0.11035206939206657 0.0098843721938984743 0.051530021367042038 0.13065870645883923 0.088913891493127895 0.14690778245302766
leaf_weight=37 304 118 91 191 88 36 247 84 28 254 239 91 184 252 37 186 358 378 23 41 46 44 142 20 45 21 24 173 20 400 288 20 168 70 45 20 20 43 26 207 508 56 151 186 22 657 27 21 74 28 32 208 74 22 26 90 33 42 71 37 247 22
leaf_count=37 304 118 91 191 88 36 247 84 28 254 239 91 184 252 37 186 358 378 23 41 46 44 142 20 45 21 24 173 20 400 288 20 168 70 45 20 20 43 26 207 508 56 151 186 22 657 27 21 74 28 32 208 74 22 26 90 33 42 71 37 247 22
internal_value=-1.44056e-10 -0.0414057 0.0434103 -0.0313625 0.0275146 0.104746 -0.161009 0.0146311 -0.0648229 -0.0580808 -0.0194982 -0.0726372 0.0476593 -0.0296609 -0.0357259 -0.00142287 0.0254463 -0.0631523 -0.17539 -0.00811408 0.136752 -0.0911146 0.0520078 0.0130956 0.0829704 0.0545618 0.0363718 0.152122 -0.0314652 -0.0270155 0.0104718 -0.0199294 0.00908308 -0.028768 -0.113703 -0.00610733 -0.048454 -0.0985094 0.0441795 0.00920249 0.0476167 0.0318992 0.0529979 0.0161723 0.0733672 -0.0153014 0.10169 0.0318107 0.0478583 0.0401763 0.0238281 -0.0318125 -0.041804 -0.000711866 0.0501297 -0.0593766 0.0800108 0.0473858 0.0302926 0.0920353 0.0874841 0.0936569
internal_weight=7743 3963 3780 3656 3002 778 307 1831 957 841 2699 587 1171 1426 1134 737 1094 496 270 1273 315 81 1083 413 463 112 656 219 1053 862 355 324 438 842 116 292 40 88 67 393 941 240 701 354 72 918 96 584 194 173 390 772 372 261 48 164 60 550 145 351 314 269
internal_count=7743 3963 3780 3656 3002 778 307 1831 957 841 2699 587 1171 1426 1134 737 1094 496 270 1273 315 81 1083 413 463 112 656 219 1053 862 355 324 438 842 116 292 40 88 67 393 941 240 701 354 72 918 96 584 194 173 390 772 372 261 48 164 60 550 145 351 314 269
is_linear=0
shrinkage=0.05


Tree=9
num_leaves=63
num_cat=0
split_feature=47 47 44 44 44 44 23 16 23 13 47 17 14 9 0 23 41 13 47 13 16 14 20 13 32 7 20 44 19 23 33 23 0 18 44 33 23 14 34 5 39 24 18 34 46 19 2 14 0 23 17 35 23 35 17 28 17 18 23 14 0 7
split_gain=5024.24 1723.61 1332.25 491.241 244.577 233.568 165.156 121.768 114.766 95.8069 95.6556 84.0597 81.578 75.3658 68.2002 63.0291 61.8232 51.9291 51.2278 51.2006 47.7971 47.6144 47.4923 47.1912 44.2794 41.9101 40.3883 40.1007 39.0406 36.912 45.7121 36.3657 35.9845 35.5397 35.8984 31.5083 31.0153 39.1235 28.906 41.3353 28.0307 27.3647 41.1253 35.0022 26.9137 26.6003 33.0497 55.544 28.9391 26.1664 27.1993 38.1237 25.6539 24.9588 24.9085 28.7243 24.5436 24.5984 24.371 23.7504 23.6082 23.2715
threshold=7.4199252128601083 4.1940519809722909 9.4585886001586932 6.3791193962097177 8.5469722747802752 10.772963523864748 -8.3267164230346662 69.500000000000014 0.2254295349121094 12.180897210107679 6.3839306831359872 0.02997755892576412 11.541619806758149 1.0000000180025095e-35 143.50000000000003 2.9821701049804692 -0.042228020727634423 13.792031506753828 5.6781299114227304 12.600584589708665 913.50000000000011 9.7645126665530473 19.500000000000004 15.053747065780728 0.066855944693088545 -0.60785761079279388 11.174754512488287 7.1781342029571542 25.500000000000004 -3.0909585952758785 0.12090473249554635 3.0260686874389653 24671.500000000004 0.00064052561939065712 7.2407937049865732 0.0084812343120574969 3.569600105285645 10.135313253914553 -0.01622366905212402 -0.91597561503675329 0.095944583415985121 -0.055850267410278313 0.00089558967034708906 0.045807030051946647 11.702253818511965 25.500000000000004 14.500000000000002 12.486188975545526 747.50000000000011 -2.4207639694213863 0.024417528107277646 0.032083425670862205 -3.1919603347778316 -0.014458747580647467 0.022977907658423283 -0.013691864907741545 0.059385109007784952 0.002526823572432594 3.528162002563477 11.106294488168109 591.50000000000011 -1.0000000180025095e-35
decision_type=2 2 2 2 2 2 2 2 2 2 2 2 2 2 2 2 2 2 2 2 2 2 2 2 2 2 2 2 2 2 2 2 2 2 2 2 2 2 2 2 2 2 2 2 2 2 2 2 2 2 2 2 2 2 2 2 2 2 2 2 2 2
left_child=1 6 4 7 8 17 60 -3 11 -6 24 22 16 -7 26 23 25 35 -18 -16 -14 -8 32 -12 49 -9 -10 -21 38 -25 59 -15 40 -17 61 -4 37 -11 39 -29 41 43 -43 -2 -30 46 -19 58 -47 -5 51 -51 -20 -13 -41 -56 -39 -58 -48 -31 -1 -35
right_child=2 3 5 10 9 13 21 12 14 36 15 53 20 31 19 33 18 45 52 27 -22 -23 -24 29 -26 -27 -28 28 44 30 -32 -33 -34 34 -36 -37 -38 56 -40 54 -42 42 -44 -45 -46 48 47 -49 -50 50 -52 -53 -54 -55 55 -57 57 -59 -60 -61 -62 -63
leaf_value=-0.19416468739509585 0.011357375361646216 -0.15909633179505667 0.058766585456517841 -0.0433008066683713 0.00032573185888926738 0.092828849992934573 -0.12623700884784139 -0.13219446236996546 0.031173694575582413 0.021518978980943425 -0.022500698072720707 -0.044823463725857438 -0.080177785588117945 0.18495123839378358 0.012635877067445962 -0.018498305637193357 -0.073532872616301467 0.11309672469527209 -0.059317899564103715 -0.014979184855307852 -0.025540321598629397 -0.048003373979716692 -0.014390838128513548 -0.031476816624365377 -0.057510168948832624 -0.077280215373997332 -0.028102237700515398 0.091463922846074019 0.049744787680752141 0.051795043009333311 0.076289705336093916 0.13609945390839129 0.085115477144718177 0.09053063923493028 0.0071479789382583427 -0.01032743604684418 0.06150884153008096 0.05357847337483776 0.027787117211654746 -0.0061960828705475883 -0.024978308822657613 -0.037525771311758195 0.021849690479817007 0.085979971989537732 0.11808451223373413 0.086046142142731707 0.0034364159684628251 0.08705164494310938 0.14208266511559486 -0.014455523820593952 -0.029881658359904424 0.055717902677133682 -0.02647059585858327 -0.012019133083421091 0.087063085723837669 0.030605067356332196 -0.026505082882940768 0.046655187403990162 0.05664462698523396 -0.0041725319501374316 -0.16114245155363677 0.023434224970904846
leaf_weight=85 30 30 66 177 113 89 41 46 42 164 1148 100 48 50 324 95 234 55 105 35 241 37 140 99 161 142 91 49 34 20 20 160 20 24 177 22 327 430 364 26 37 34 205 33 25 64 28 205 36 100 232 24 137 138 33 71 20 27 93 363 149 28
leaf_count=85 30 30 66 177 113 89 41 46 42 164 1148 100 48 50 324 95 234 55 105 35 241 37 140 99 161 142 91 49 34 20 20 160 20 24 177 22 327 430 364 26 37 34 205 33 25 64 28 205 36 100 232 24 137 138 33 71 20 27 93 363 149 28
internal_value=5.60382e-11 -0.0393355 0.0412398 -0.0296961 0.0250336 0.095609 -0.152135 -0.0599114 0.0138996 0.0438924 -0.0185635 -0.00135172 -0.0567891 0.131389 0.024174 -0.0129499 -0.0664402 0.0768074 -0.056852 0.0288183 -0.0346151 -0.0891262 0.0103102 -0.0169091 -0.0345306 -0.0907167 -0.00938352 0.0370492 0.0400741 -0.00412179 0.00259818 0.147731 0.0199428 0.00721218 0.0178781 0.0414931 0.0489781 0.0425857 0.035877 0.0523278 0.0160979 0.0211304 0.013403 0.0504454 0.0787023 0.0832682 0.0772443 0.0711956 0.106219 -0.0275893 -0.0197777 -0.00087357 -0.0407225 -0.0258025 0.0375765 0.0485196 0.0498288 0.0155232 0.044332 -0.00124994 -0.173138 0.0544018
internal_weight=7743 3963 3780 3651 2912 868 312 983 1831 1081 2668 737 953 299 1094 1974 664 569 476 961 289 78 499 1650 694 188 133 637 602 502 403 210 359 324 229 88 968 641 543 179 339 302 239 63 59 481 381 326 100 533 356 124 242 238 130 104 477 47 121 383 234 52
internal_count=7743 3963 3780 3651 2912 868 312 983 1831 1081 2668 737 953 299 1094 1974 664 569 476 961 289 78 499 1650 694 188 133 637 602 502 403 210 359 324 229 88 968 641 543 179 339 302 239 63 59 481 381 326 100 533 356 124 242 238 130 104 477 47 121 383 234 52
is_linear=0
shrinkage=0.05


Tree=10
num_leaves=63
num_cat=0
split_feature=44 23 44 44 44 4 44 4 16 0 18 17 17 19 4 22 4 17 4 17 16 29 0 19 4 19 45 0 0 0 45 12 43 12 0 0 19 28 4 32 31 4 4 45 36 41 31 29 7 45 23 7 23 0 18 25 42 22 36 31 35 40
split_gain=4304.23 1705.2 1034.69 597.154 175.648 168.727 168.145 160.115 104.549 101.793 93.3778 87.2321 73.251 70.8281 70.6156 67.821 199.187 98.6892 61.2148 60.3511 59.6341 65.3633 65.167 58.2338 57.4024 50.0993 46.4389 42.4648 37.2667 36.4912 35.1071 34.6527 33.4382 32.7589 32.6742 32.116 31.2833 30.3545 30.2209 29.2435 28.3503 27.0529 51.0178 41.6738 27.0234 25.7935 23.7311 23.1321 22.1724 21.937 54.0288 31.7458 25.8004 21.4726 21.4214 21.1838 21.0562 20.8643 24.4573 20.7335 19.63 23.2642
threshold=7.8529930114746103 -7.4049348831176749 9.6476273536682147 6.4707162380218515 8.5469722747802752 202.50000000000003 10.772963523864748 92.500000000000014 69.500000000000014 6022.5000000000009 0.0016659298803416839 0.029447709383012239 0.048053533238228203 22.500000000000004 121.50000000000001 1.0000000180025095e-35 475.50000000000006 0.03289801318314093 577.50000000000011 0.032100255541590898 102.50000000000001 0.044468166306614883 189.50000000000003 20.500000000000004 463.00000000000006 27.500000000000004 1.6240698695182803 31659.500000000004 22.500000000000004 231.50000000000003 2.0571410655975346 0.1635998661759786 6.0625939369201669 0.11715686274509805 325.50000000000006 420.50000000000006 19.500000000000004 -0.054256588220596307 73.500000000000014 -0.021717421710491177 0.037332423031330116 2.5000000000000004 28.500000000000004 1.4477698206901553 -0.021734103560447689 0.0881689488887787 -0.006687615066766738 0.094464056193828597 1.0000000180025095e-35 1.8247222900390627 -0.766252040863037 0.6078576107927941 3.2859048843383794 591.50000000000011 0.00051653009257040931 0.026671481318771843 0.016445335000753406 1.0000000180025095e-35 0.0027446597814559941 0.096174959093332305 -0.009084332734346388 0.037451505661010749
decision_type=2 2 2 2 2 2 2 2 2 2 2 2 2 2 2 2 2 2 2 2 2 2 2 2 2 2 2 2 2 2 2 2 2 2 2 2 2 2 2 2 2 2 2 2 2 2 2 2 2 2 2 2 2 2 2 2 2 2 2 2 2 2
left_child=1 7 4 8 19 9 29 -1 -3 12 18 47 20 26 53 16 32 -17 31 25 21 -5 -22 38 45 27 33 28 -2 -4 56 35 -10 -6 -8 -7 -30 60 -21 -27 -15 43 -43 -39 -31 -13 -11 -12 -29 52 -51 -52 -38 -9 -34 -40 -19 -46 -59 -25 61 -24
right_child=2 3 6 5 13 10 34 14 15 46 11 24 -14 40 -16 17 -18 30 -20 23 22 -23 37 59 -26 39 -28 48 36 44 -32 -33 54 -35 -36 -37 49 41 55 -41 -42 42 -44 -45 57 -47 -48 -49 -50 50 51 -53 -54 -55 -56 -57 -58 58 -60 -61 -62 -63
leaf_value=-0.048418516922576704 -0.039614145979285247 -0.14428732308649247 0.021169619362003039 0.090489180694733357 0.047343076189615946 -0.10482214632733117 0.086056245559745503 -0.18507166712180428 -0.056301172819121219 0.023358188913617697 0.0019820426228832661 -0.02904796114776197 -0.028619347988744454 0.054157046035009197 -0.076093405042774981 -0.018784222254422882 -0.11124504800422537 -0.039216792997162443 -0.108349171636063 -0.006191708000644329 -0.019694060460640143 -0.021091062087743057 -0.011917046469493977 -0.017268653698813387 -0.11249262209121998 0.11622783668339252 -0.0031800595217227807 0.076553333182819192 -0.03054410711382375 0.024823021746817091 -0.1311199162900448 -0.016796173005714083 -0.061549508978020064 0.0076266531329098582 0.13186716217061747 -0.046142255530512634 0.028094381694535566 0.01330888978420542 0.078935596187199863 0.039155863531050272 0.031288171416920141 -0.025079160354140664 0.011434380759534988 0.096763721596272223 0.07586445316782274 -0.087104596089782382 0.069034065104069869 -0.022776469904484283 0.021599767544877628 -0.069396155165589377 -0.0010151818730971881 0.064382550943642855 0.0043764987262949109 -0.1546150461651194 -0.022156206786166879 0.017430952705243336 -0.080766588561236863 0.13325814730368366 0.084329280901599579 -0.067675715405493983 0.001621848056466056 -0.056855473276745117
leaf_weight=38 30 31 28 35 174 29 46 92 337 72 308 215 308 701 24 288 153 62 43 47 462 21 144 136 26 20 113 45 33 21 20 80 44 74 253 119 509 52 28 32 168 115 569 21 288 21 47 136 31 23 72 25 148 156 160 28 60 39 74 24 209 36
leaf_count=38 30 31 28 35 174 29 46 92 337 72 308 215 308 701 24 288 153 62 43 47 462 21 144 136 26 20 113 45 33 21 20 80 44 74 253 119 509 52 28 32 168 115 569 21 288 21 47 136 31 23 72 25 148 156 160 28 60 39 74 24 209 36
internal_value=-7.07487e-11 -0.0313706 0.0443 -0.0230619 0.0286394 -0.0115256 0.0957562 -0.144557 -0.0537054 -0.00351054 -0.0286796 -0.0191026 -0.00622055 0.0420026 -0.157988 -0.0512072 -0.0608749 -0.0356039 -0.0536291 0.015287 -0.00207462 0.0486466 -0.00384103 -0.00595248 -0.0419821 0.0210576 0.023387 0.0183474 0.0151092 0.0764454 -0.0697171 -0.0433091 -0.0466297 0.0354922 0.124819 -0.0576403 0.017136 0.00254998 0.0233714 0.0687989 0.0497359 0.0083833 0.00529541 0.0373164 0.080113 -0.034214 0.0413982 -0.00560165 0.0541381 0.019161 -0.000497007 0.0158399 0.0227515 -0.165913 -0.0306528 0.0481833 -0.0596511 0.0830085 0.101216 -0.0248297 -0.00880176 -0.0209047
internal_weight=7743 4533 3210 4223 2461 3068 749 310 1155 2091 977 706 1972 1230 272 1124 694 430 271 1231 1664 56 1608 263 262 968 361 916 840 450 142 228 541 248 299 148 810 1146 103 52 869 757 684 73 422 236 119 444 76 777 120 97 657 248 204 56 122 401 113 160 389 180
internal_count=7743 4533 3210 4223 2461 3068 749 310 1155 2091 977 706 1972 1230 272 1124 694 430 271 1231 1664 56 1608 263 262 968 361 916 840 450 142 228 541 248 299 148 810 1146 103 52 869 757 684 73 422 236 119 444 76 777 120 97 657 248 204 56 122 401 113 160 389 180
is_linear=0
shrinkage=0.05


Tree=11
num_leaves=63
num_cat=0
split_feature=44 44 44 44 13 21 4 44 21 44 13 0 13 17 4 13 20 16 4 13 4 4 17 12 38 45 44 15 0 32 45 15 17 21 14 21 15 0 27 28 45 21 25 18 12 21 0 13 4 4 45 17 12 13 39 21 39 30 5 31 15 7
split_gain=3884.57 1479.73 933.81 661.184 238.862 178.193 161.707 151.751 110.641 102.952 95.9313 90.5967 89.7922 65.9972 60.6931 68.8137 59.8845 56.1919 52.1612 51.4285 50.8121 66.751 44.3789 43.7149 43.4528 39.8416 40.1884 38.428 37.1438 36.137 35.3081 35.0299 37.2137 49.5663 34.1033 32.9539 32.246 32.2036 47.4866 35.9386 33.7464 42.0922 32.1876 31.4403 30.2399 40.6995 29.4885 27.9577 27.1359 26.9739 45.9174 26.8357 26.199 26.1248 25.4133 22.8628 22.5856 23.4267 22.2951 22.1426 25.4384 21.9661
threshold=7.8529930114746103 4.1147735118865976 9.6476273536682147 6.3791193962097177 12.180897210107679 174.50000000000003 202.50000000000003 10.772963523864748 664.50000000000011 8.5469722747802752 14.406537764492628 6022.5000000000009 14.813605153520735 0.041222055179835175 49.500000000000007 15.959648514905608 15.019697306921881 171.50000000000003 577.50000000000011 15.565478029821929 414.00000000000006 162.50000000000003 0.025209392124131213 0.12599206349206352 -0.017841180786490437 2.119835734367371 5.7302925586700448 8.8262193922525274 189.50000000000003 0.058604963123798377 1.5584090948104861 9.9087950159321476 0.03945447960503097 1.0000000180025095e-35 11.724623757394109 127.50000000000001 9.0991853163652294 1927.5000000000002 0.047155678272247321 -0.0027600899338722225 1.6351228356361391 202.50000000000003 0.22024074941873553 0.00087216454761796034 0.11396103896103897 24.500000000000004 325.50000000000006 15.581931787474788 703.50000000000011 2.5000000000000004 1.4647178649902346 0.012549106458077176 0.22792207792207794 13.569879797775878 -0.017146214842796322 19.500000000000004 0.01355346664786339 0.013156842440366747 -0.37940952255126059 -0.10329552739858626 9.4589567185031616 1.0000000180025095e-35
decision_type=2 2 2 2 2 2 2 2 2 2 2 2 2 2 2 2 2 2 2 2 2 2 2 2 2 2 2 2 2 2 2 2 2 2 2 2 2 2 2 2 2 2 2 2 2 2 2 2 2 2 2 2 2 2 2 2 2 2 2 2 2 2
left_child=1 -1 4 5 22 12 11 27 10 31 29 13 25 14 28 23 -12 -7 42 34 21 -19 52 51 -13 26 58 30 -5 48 -4 32 37 -34 53 -25 -36 38 40 56 47 -42 -10 -14 45 -24 -9 -6 -8 50 -30 54 -2 -11 -16 -53 57 -39 -3 -15 -61 -40
right_child=2 3 7 6 9 17 8 46 18 19 16 24 43 59 15 -17 -18 20 -20 -21 -22 -23 44 35 -26 -27 -28 -29 49 -31 -32 -33 33 -35 36 -37 -38 39 61 -41 41 -43 -44 -45 -46 -47 -48 -49 -50 -51 -52 55 -54 -55 -56 -57 -58 -59 -60 60 -62 -63
leaf_value=-0.15720497210325529 0.01435075197351398 -0.10178037332370878 0.06017493227698717 -0.021185458024377525 0.013508050193496305 -0.14502007888584603 -0.02677855716485187 0.081753433402627709 -0.063662168329183977 0.029392158197614746 -0.072189459519396579 0.087771567213349055 -0.08107247877688635 -0.0024674714929590535 0.095464225970208649 0.097620881111784422 0.0023801365957045531 -0.13780948356503533 -0.10816451504218334 0.070078610175234438 -0.10270666000016256 -0.039113368416800895 -0.024264388914503485 -0.0198904210138558 0.019835318300580041 -0.12168379542620288 -0.042972462497530908 0.080583650938313059 0.0049813759234814863 -0.067882283572107557 -0.013831886919215323 0.079488904315691736 -0.033784004458875368 0.037313379375980449 -0.028362106509944973 0.04806942515075207 0.040500473315991901 0.049044889861463825 0.025199621582041167 0.024839107066844449 0.00088173225039133319 -0.068593500669185944 -0.0081735505244216397 -0.017470590913379474 -0.052681257960871489 0.042017984210417192 0.12527380439622157 0.071074965409934521 -0.080556996457278734 -0.0083720984542993409 0.079913994064554572 0.0072322664919431462 -0.044355399915505023 0.048554236612547791 0.017589158661510076 0.043400306670981298 0.024151383641247567 0.10818291774348301 -0.062397956502317754 -0.030428127417886159 0.027404041402041914 0.060488890199018513
leaf_weight=217 200 48 83 394 174 41 380 46 89 253 29 32 21 112 20 22 376 21 49 170 134 93 115 165 89 23 301 347 138 75 20 26 66 39 34 20 34 33 129 165 135 26 37 260 62 29 253 24 25 371 24 305 21 599 22 51 26 34 143 386 20 67
leaf_count=217 200 48 83 394 174 41 380 46 89 253 29 32 21 112 20 22 376 21 49 170 134 93 115 165 89 23 301 347 138 75 20 26 66 39 34 20 34 33 129 165 135 26 37 260 62 29 253 24 25 371 24 305 21 599 22 51 26 34 143 386 20 67
internal_value=-5.76446e-11 -0.0298021 0.042085 -0.0233965 0.0272074 -0.0571675 -0.0120559 0.0909684 -0.0280641 0.0343446 -0.0208808 -0.00423981 -0.0449581 -0.0067213 -0.00150465 0.0108143 -0.00295941 -0.090796 -0.0643909 0.0448131 -0.0818316 -0.0572942 -0.00679024 0.00753855 0.0378019 -0.0573627 -0.0543558 0.0726231 -0.0095445 -0.036002 0.0458047 0.022257 0.020636 -0.0073764 0.0401445 -0.0125434 0.00606918 0.0242539 0.017469 0.0388492 0.0066624 -0.0103379 -0.0473679 -0.0222238 -0.023486 -0.0109159 0.118578 0.0204859 -0.0300982 -0.000939367 0.0160825 0.0168731 0.00877234 0.0428641 0.0546725 0.0124136 0.0637058 0.0790552 -0.0722951 -0.0221497 -0.0275793 0.0372628
internal_weight=7743 4533 3210 4316 2461 1085 3231 749 1060 2034 885 2171 796 2050 1532 605 405 289 175 1090 248 114 427 583 121 515 492 450 927 480 103 944 918 105 920 185 68 813 555 258 359 161 126 281 206 144 299 198 405 533 162 398 221 852 42 356 93 67 191 518 406 196
internal_count=7743 4533 3210 4316 2461 1085 3231 749 1060 2034 885 2171 796 2050 1532 605 405 289 175 1090 248 114 427 583 121 515 492 450 927 480 103 944 918 105 920 185 68 813 555 258 359 161 126 281 206 144 299 198 405 533 162 398 221 852 42 356 93 67 191 518 406 196
is_linear=0
shrinkage=0.05


Tree=12
num_leaves=63
num_cat=0
split_feature=47 47 43 23 47 47 13 22 18 0 23 4 4 22 0 17 4 23 4 17 9 14 4 23 13 15 19 15 38 19 18 19 23 9 4 0 2 0 19 13 17 37 0 4 42 37 38 9 4 4 39 13 4 19 40 19 25 37 4 6 0 3
split_gain=3751.3 1520.19 601.931 536.473 246.978 134.393 105.927 102.946 92.5869 80.6855 76.913 74.1274 65.4054 85.9601 64.9185 61.5548 62.9298 61.0326 60.8893 54.8296 54.2674 52.4793 50.1187 46.8992 44.7837 44.0935 43.9657 43.0125 46.3079 39.1409 37.1846 35.8452 44.0698 32.7319 55.5714 34.7062 30.4494 30.3226 29.344 28.7299 27.6821 31.7365 26.786 26.1851 25.8776 25.8436 25.6824 24.3576 96.18 23.2726 23.1338 22.8325 22.6476 22.5799 22.4004 22.343 22.2541 21.5452 20.8042 20.2197 19.9923 22.5084
threshold=8.1530256271362322 5.6781299114227304 9.6077156066894549 -8.3267164230346662 7.1187846660614023 10.885709762573244 12.600584589708665 1.0000000180025095e-35 0.0024514937520926689 52663.500000000007 -1.3439035415649412 397.50000000000006 427.50000000000006 1.0000000180025095e-35 53.500000000000007 0.024417528107277646 501.50000000000006 0.2254295349121094 100.50000000000001 0.032100255541590898 1.0000000180025095e-35 12.399760536672401 184.50000000000003 -0.766252040863037 15.658099355415329 8.6149534247571857 20.500000000000004 8.6967608727286017 -0.0078426413238048536 26.500000000000004 0.00047420903919511066 20.500000000000004 -3.2787222862243648 1.0000000180025095e-35 47.500000000000007 108.50000000000001 31.500000000000004 1927.5000000000002 27.500000000000004 15.686319117687956 0.04435675077466146 0.07213174551725389 646.50000000000011 151.50000000000003 0.02827105671167374 0.043366381898522384 0.010140500962734224 1.0000000180025095e-35 31.500000000000004 2.5000000000000004 0.054611980915069587 14.406537764492628 222.50000000000003 24.500000000000004 0.031972050666809089 27.500000000000004 0.033234497532248504 -0.014945934526622294 3.5000000000000004 -0.60355339059327384 36126.500000000007 1.0000000180025095e-35
decision_type=2 2 2 2 2 2 2 2 2 2 2 2 2 2 2 2 2 2 2 2 2 2 2 2 2 2 2 2 2 2 2 2 2 2 2 2 2 2 2 2 2 2 2 2 2 2 2 2 2 2 2 2 2 2 2 2 2 2 2 2 2 2
left_child=1 3 6 18 10 27 29 11 -9 12 15 14 19 54 -5 30 -17 22 -1 21 58 31 40 -24 33 38 36 28 -4 -2 43 51 -33 35 -35 -19 -21 50 53 -27 41 -8 -26 -3 -31 -18 -32 -29 -49 -37 -36 -6 -53 -12 -14 -34 -22 -39 -7 -20 61 -51
right_child=2 4 5 7 9 20 17 8 -10 -11 25 -13 13 -15 -16 16 45 24 59 26 56 -23 23 -25 42 39 -28 47 -30 44 46 32 55 34 37 49 -38 57 -40 -41 -42 -43 -44 -45 -46 -47 -48 48 -50 60 -52 52 -54 -55 -56 -57 -58 -59 -60 -61 -62 -63
leaf_value=-0.066824149347841741 -5.5188337625907877e-05 -0.0083850964021328234 -0.026363901119856609 -0.14737366855144501 -0.018491157066212814 0.0575870455077125 0.02836571052466752 -0.01820182403941915 -0.079545832643025505 0.074608571376455463 -0.016428550033862784 -0.1060133546620371 -0.051676594998155329 0.0088942734228277757 -0.054140723905744849 -0.036082824780439969 -0.11375832219536489 -0.030148949474096298 -0.16194660397190039 0.04397146247198528 0.11946662336394386 0.088511972129344946 -0.060420628417940707 0.022031845833574024 0.049320214159315694 0.0014916827003635354 -0.023735245024898086 0.051721795658542694 0.059543614675320926 0.050501677145963757 0.0013766017977568303 -0.05003562971417394 0.011835812311085232 0.12159260859092076 0.043322139810936695 0.05193608967347605 -0.0088563669243684178 0.11899492345750332 0.042305675434763546 0.064357903748750694 -0.012123351261740731 0.084036769345402718 0.08927573775987567 -0.064517030734864492 -0.0099380413394259386 -0.045983571085062902 -0.023902016142830065 0.18217237617658533 0.075750812521015398 0.036872053685549064 0.0060840469433201686 0.045939844209821001 -0.0030328405277822356 -0.04316561446717844 -0.12238787064949673 0.047221536692628206 0.15943671305974327 0.05792954699494518 0.1062217390814493 -0.13277471411145397 0.046603213997221872 -0.0035507922007263389
leaf_weight=25 268 31 21 20 192 45 128 216 86 38 855 126 21 44 281 618 39 24 132 47 154 20 34 35 87 199 281 73 62 77 204 28 877 24 570 101 65 20 20 20 31 32 81 63 23 22 198 23 276 57 45 31 99 87 24 47 45 52 43 108 61 87
leaf_count=25 268 31 21 20 192 45 128 216 86 38 855 126 21 44 281 618 39 24 132 47 154 20 34 35 87 199 281 73 62 77 204 28 877 24 570 101 65 20 20 20 31 32 81 63 23 22 198 23 276 57 45 31 99 87 24 47 45 52 43 108 61 87
internal_value=4.71583e-11 -0.0245945 0.0492463 -0.0801594 -0.0113496 0.0872539 0.0338943 -0.0580127 -0.0356706 0.00251797 -0.0220269 -0.0738143 0.000975487 -0.0407997 -0.0603356 -0.031084 -0.0408651 0.0399037 -0.141084 0.00317939 0.114047 0.00814702 0.0179268 -0.0185969 0.0446299 -0.0130158 -0.0131771 0.0703537 0.037808 0.00990561 -0.0176941 0.0068854 0.011763 0.0407641 0.0468043 0.0277502 0.0133125 0.0441916 -0.0176255 0.00723289 0.0311213 0.0394999 0.0685845 -0.0460054 0.0366005 -0.089315 -0.0110741 0.0776153 0.0839371 0.0322913 0.0405974 -0.00753546 0.00864526 -0.0188979 -0.0893893 0.0136357 0.128505 0.0748922 0.0813517 -0.148819 0.0226126 0.0124499
internal_weight=7743 5164 2579 994 4170 742 1837 729 302 1814 2356 427 1776 89 301 1175 679 1469 265 1687 287 1294 260 69 1209 1181 393 455 83 368 496 1274 952 1041 711 330 112 687 962 219 191 160 168 94 100 61 402 372 299 306 615 322 130 942 45 924 199 72 88 240 205 144
internal_count=7743 5164 2579 994 4170 742 1837 729 302 1814 2356 427 1776 89 301 1175 679 1469 265 1687 287 1294 260 69 1209 1181 393 455 83 368 496 1274 952 1041 711 330 112 687 962 219 191 160 168 94 100 61 402 372 299 306 615 322 130 942 45 924 199 72 88 240 205 144
is_linear=0
shrinkage=0.05


Tree=13
num_leaves=63
num_cat=0
split_feature=43 23 43 23 21 13 21 17 15 15 23 43 8 23 13 43 19 33 35 43 16 18 17 4 43 13 4 16 19 27 16 4 2 41 13 0 15 16 0 21 4 20 0 0 38 18 38 4 7 21 4 21 46 33 21 21 4 17 21 17 33 20
split_gain=3012.98 1309.6 733.124 413.763 229.053 191.693 152.813 149.568 115.264 113.802 85.0583 83.1153 82.0625 74.6421 65.3084 58.8651 56.8698 55.9832 53.0971 52.6111 68.993 50.7403 48.5344 47.5818 52.476 38.1798 36.8435 32.5869 32.1452 31.9287 31.1873 34.1945 31.0036 30.5333 30.4928 30.4922 29.6621 27.6567 26.9403 33.6644 36.6598 36.8615 27.8188 26.7689 26.4429 25.6126 25.3988 24.5797 24.5213 24.281 24.0362 27.499 23.8725 23.4961 23.4382 23.5652 23.0488 22.8129 26.9389 29.649 23.0358 22.6587
threshold=7.7983679771423349 -7.4049348831176749 9.6077156066894549 -1.5452527999877927 689.00000000000011 12.180897210107679 1.0000000180025095e-35 0.029447709383012239 8.6967608727286017 8.6001545045882448 1.3662195205688479 10.674669265747072 -0.22252093395631442 2.9172315597534184 15.658099355415329 7.0040054321289071 27.500000000000004 -0.012610986828804014 -0.01499093137681484 6.3575525283813485 180.50000000000003 0.0014296209982330769 0.030158064637477285 463.00000000000006 5.585134983062745 15.053747065780728 101.50000000000001 901.50000000000011 23.500000000000004 -0.096004839986562715 171.50000000000003 501.50000000000006 40.500000000000007 -0.01063687354326248 15.488335989940891 1959.0000000000002 7.2584119026285725 2808.0000000000005 90842.000000000015 8.5000000000000018 2.5000000000000004 5.5000000000000009 225.50000000000003 182.50000000000003 0.1084469184279442 0.00050079126946623762 -0.0048073567450046531 49.500000000000007 -0.8783796973249266 110.00000000000001 342.50000000000006 2.5000000000000004 8.7028422355651873 -0.00439503788948059 49.500000000000007 1.5000000000000002 246.50000000000003 0.012345540759554656 17.500000000000004 0.026142606981051766 0.048454254865646369 4.5000000000000009
decision_type=2 2 2 2 2 2 2 2 2 2 2 2 2 2 2 2 2 2 2 2 2 2 2 2 2 2 2 2 2 2 2 2 2 2 2 2 2 2 2 2 2 2 2 2 2 2 2 2 2 2 2 2 2 2 2 2 2 2 2 2 2 2
left_child=1 6 5 4 7 22 -1 19 13 15 25 -10 30 -4 16 27 38 35 -19 21 -21 34 47 24 -9 32 -8 36 43 -27 -6 -32 50 -18 -3 -11 -5 52 39 40 42 -42 -12 -22 61 -17 -38 -2 -31 -45 51 -7 -29 -35 55 -50 -13 -47 59 -59 -61 -26
right_child=2 3 8 9 12 10 26 23 11 17 14 56 -14 -15 -16 45 33 18 -20 20 28 -23 -24 -25 44 29 -28 37 -30 48 31 -33 -34 53 -36 -37 46 -39 -40 -41 41 -43 -44 49 -46 57 -48 -49 54 -51 -52 -53 -54 -55 -56 -57 -58 58 -60 60 -62 -63
leaf_value=-0.025974019342767343 -0.017315603504692644 -0.041979221280102869 -0.044370384545375903 -0.015272347220382759 -0.13088707469403746 0.0020853125881995001 -0.082542514282145679 -0.067650309426624797 0.071451789538202692 -0.0054513489235995007 -0.0028437378705434856 0.098760480930542821 -0.013167023107409479 0.056167091364040966 0.068467205328634012 -0.023730071529539098 0.098746382798019214 -0.0058662418307115632 0.048639825727524504 0.085200041336938745 -0.034275933946841038 -0.016369101753813033 -0.030129943553927459 -0.099641534901763265 -0.020335045388962768 -0.0012353527528995818 -0.14306116825655887 0.012078517824411392 -0.035588212201813449 -0.0051154345673109806 -0.055924451274267574 -0.093272713247154443 -0.025774055058001611 0.057379091745647405 -0.10512375249104067 0.0280082788019765 -0.013641202472150327 0.0073506240112086139 0.081432919770789647 0.039308678332435953 0.060138859683408957 0.0092368121774426878 0.062360451902841799 0.0068333416373968937 0.0038150835649243425 0.048919332905539445 0.055129672792451137 0.01682827498348901 0.044254466368924494 -0.019418653319863713 -0.033366188220679764 0.03760618978897886 -0.045253931964584514 0.0063769375663940558 -0.0060945552401244643 0.1021026647090912 0.12782201588768322 0.0071438321409646541 0.03093130070011358 -0.032008786766197193 0.0063008860516987871 -0.044912449731352395
leaf_weight=35 76 146 24 651 30 126 28 153 317 262 21 230 50 80 160 90 38 60 175 20 65 323 144 38 133 66 247 20 97 28 109 140 69 138 22 92 25 36 24 373 39 404 74 339 42 28 29 172 147 119 26 96 197 27 20 20 97 343 74 110 61 318
leaf_count=35 76 146 24 651 30 126 28 153 317 262 21 230 50 80 160 90 38 60 175 20 65 323 144 38 133 66 247 20 97 28 109 140 69 138 22 92 25 36 24 373 39 404 74 339 42 28 29 172 147 119 26 96 197 27 20 20 97 343 74 110 61 318
internal_value=-1.8031e-11 -0.0250491 0.038836 -0.0180463 -0.0337694 0.0247875 -0.124375 -0.0268113 0.0818079 -0.00308399 0.0313681 0.0896954 -0.0721547 0.0329661 0.0385564 -0.00976967 0.034351 0.0158039 0.0347234 -0.0156492 -0.00620361 -0.0279611 -0.00704141 -0.0452681 -0.0420696 0.0157656 -0.136899 -0.0178428 -0.00915211 0.0291844 -0.082726 -0.0769235 0.0038707 0.0583392 -0.0502481 0.00324437 -0.0123185 -0.0332365 0.0291429 0.0277653 0.0197622 0.013718 0.0479469 -0.00424905 -0.0341308 0.00118509 0.0232913 0.00636483 0.0385225 1.24084e-05 0.0121186 0.0174457 -0.0399698 0.0490333 0.0450565 0.0511824 0.107381 0.00482529 0.00272558 -0.00133517 -0.0183428 -0.0376646
internal_weight=7743 4707 3036 4397 2144 2288 310 1815 748 2253 1896 644 329 104 1298 1664 1138 589 235 1131 640 491 392 684 646 598 275 958 620 281 279 249 317 203 168 354 705 253 935 911 538 443 95 523 493 706 54 248 215 458 248 222 217 165 187 167 327 616 588 514 171 451
internal_count=7743 4707 3036 4397 2144 2288 310 1815 748 2253 1896 644 329 104 1298 1664 1138 589 235 1131 640 491 392 684 646 598 275 958 620 281 279 249 317 203 168 354 705 253 935 911 538 443 95 523 493 706 54 248 215 458 248 222 217 165 187 167 327 616 588 514 171 451
is_linear=0
shrinkage=0.05


Tree=14
num_leaves=63
num_cat=0
split_feature=44 44 44 44 13 44 21 21 17 13 44 9 17 2 13 1 16 12 13 13 14 17 13 7 13 15 38 2 44 40 18 43 44 35 15 17 13 35 12 21 12 19 2 21 27 28 28 21 17 18 19 37 28 40 2 31 38 44 21 14 13 2
split_gain=2858.45 1090.43 689.985 494.99 176.549 139.738 134.691 106.694 113.056 69.1613 62.1082 57.2598 56.579 56.1906 54.5739 47.8806 46.1245 40.9877 44.1389 34.7569 44.9835 33.1601 33.1508 32.9422 32.5622 32.5611 32.4006 31.1981 30.3618 29.6594 28.7338 28.1109 40.7792 28.0417 27.6941 36.691 27.6519 30.7875 26.3317 32.3452 26.1382 25.607 26.7039 25.3588 25.0942 26.1911 29.3233 24.7829 31.0226 24.333 23.8957 23.836 23.8755 23.794 23.2892 23.0433 22.7478 21.4406 21.2748 30.7413 23.4597 20.7622
threshold=7.8529930114746103 4.1147735118865976 9.4585886001586932 6.3791193962097177 12.180897210107679 10.772963523864748 174.50000000000003 93.500000000000014 0.030158064637477285 14.758372665992852 8.4451174736022967 1.0000000180025095e-35 0.012034338879400466 28.500000000000004 14.312160986230813 1.0000000180025095e-35 171.50000000000003 0.26393188854489169 13.131692679532922 15.419336498144245 11.724623757394109 0.025209392124131213 15.581931787474788 -0.60785761079279388 15.15652435392342 5.7588967981835451 -0.058511357754468911 14.500000000000002 7.089731216430665 0.0094900801777839678 0.0012655970745032348 6.4445171356201181 5.7802321910858163 0.0026326607912778859 9.8346973029344316 0.03945447960503097 14.606532088232269 -0.018304210156202313 0.080322580645161304 4.5000000000000009 0.19478319783197837 22.500000000000004 13.500000000000002 95.500000000000014 -0.0092970356345176679 -0.02894380688667297 0.18867027759552005 461.00000000000006 0.012768604424168056 0.00087216454761796034 21.500000000000004 0.0089804059825837629 -0.11675631627440451 -0.0040529221296310416 41.500000000000007 -0.10329552739858626 1.0000000180025095e-35 5.0722532272338876 1327.0000000000002 11.541619806758149 15.245057375288296 36.500000000000007
decision_type=2 2 2 2 2 2 2 2 2 2 2 2 2 2 2 2 2 2 2 2 2 2 2 2 2 2 2 2 2 2 2 2 2 2 2 2 2 2 2 2 2 2 2 2 2 2 2 2 2 2 2 2 2 2 2 2 2 2 2 2 2 2
left_child=1 -1 4 6 21 22 9 8 12 31 34 53 14 29 -5 24 -8 18 -15 20 25 50 41 -20 -14 -12 -10 -13 -17 -9 -31 32 -3 -25 35 44 40 -38 39 -23 55 56 -43 -21 45 51 54 48 -46 -11 -2 52 -6 -7 -47 -28 -4 -18 60 -60 -59 -39
right_child=2 3 5 7 10 11 16 13 26 49 19 27 15 17 -16 28 57 -19 23 43 -22 38 -24 33 -26 -27 36 -29 -30 30 -32 -33 -34 -35 -36 -37 37 61 -40 -41 -42 42 -44 -45 47 46 -48 -49 -50 -51 -52 -53 -54 -55 -56 -57 -58 58 59 -61 -62 -63
leaf_value=-0.13493204881793344 -0.042204009401409524 -0.063474504250722638 -0.022981031872332098 0.011050365180155989 0.020277615713134203 0.10189971923828126 -0.12764992692121646 0.018539447464637409 -0.041784215297508961 -0.069388751685619351 -0.021706744484603406 0.15100991531294219 -0.017468966836936332 -0.017314798426605875 0.092986738970202792 -0.0061928110751772805 -0.10929763386807134 -0.017253847252352222 -0.093732664272829433 0.067742470065637148 -0.016667895567499931 -0.021116901035833208 0.073416190289775377 -0.068673493744587741 0.047690181434154516 0.036165007421731885 0.0042990097275249798 0.1054447409667954 0.0096233996516595244 -0.05446237768977881 0.013055917663642995 -0.099302508202553902 -0.034213840890993281 -0.020584757333621386 0.074440215173221774 -0.01417682362106544 -0.024057852235787058 0.075172266186702821 -0.042047960664175696 0.044137221485376361 -0.049281581402148888 0.091785181072455924 0.04896388758256396 0.02450310549820247 0.080666186236615839 -0.0052762494309917911 0.041503378756057759 -0.018629763965253478 0.026958232253925879 -0.014641188843200651 0.011819433810950448 -0.012335523749318194 0.072652233141143954 0.048375814266702427 -0.058934040797444492 -0.021705085968315465 0.04048753312866514 -0.038999965376755659 -0.10275928131748169 -0.041263985559344296 -0.089782876123984667 0.005666662549430674
leaf_weight=217 23 210 20 59 73 33 41 72 159 22 25 49 464 67 31 487 31 124 64 129 45 79 247 77 20 875 106 161 805 40 26 27 275 50 21 88 34 21 93 25 69 44 211 46 29 91 26 27 369 262 186 34 31 56 26 434 48 94 63 30 30 22
leaf_count=217 23 210 20 59 73 33 41 72 159 22 25 49 464 67 31 487 31 124 64 129 45 79 247 77 20 875 106 161 805 40 26 27 275 50 21 88 34 21 93 25 69 44 211 46 29 91 26 27 369 262 186 34 31 56 26 434 48 94 63 30 30 22
internal_value=-5.85565e-11 -0.0255647 0.0361012 -0.0200659 0.0219775 0.0741488 -0.049286 -0.0102535 -0.00627422 -0.0386711 0.0282671 0.101832 0.000596839 -0.0309995 0.0392729 -0.0013631 -0.0785229 -0.0408784 -0.0522329 0.0359086 0.0321182 -0.00799887 0.0596272 -0.0644816 -0.0147764 0.0345575 -0.0214475 0.116077 0.00366172 -0.00365363 -0.0278643 -0.0496477 -0.0468834 -0.0497409 0.017766 0.0162671 -0.0167339 0.0114976 -0.0227171 -0.00543081 -0.0203034 0.0490827 0.0563527 0.0563767 0.0200618 0.00846883 -0.00652682 0.0277268 0.0308716 -0.0188822 0.00587427 0.0240078 0.0358893 0.0682218 -0.0172002 -0.0166006 0.0218203 -0.0704011 -0.0648444 -0.0829221 -0.0512862 0.0396113
internal_weight=7743 4533 3210 4316 2341 869 1085 3231 2711 796 1935 299 1866 520 90 1776 289 382 258 1120 945 406 570 191 484 900 845 210 1292 138 66 512 485 127 815 794 686 77 197 104 609 323 255 175 706 281 143 425 398 284 209 138 104 89 117 540 68 248 217 93 124 43
internal_count=7743 4533 3210 4316 2341 869 1085 3231 2711 796 1935 299 1866 520 90 1776 289 382 258 1120 945 406 570 191 484 900 845 210 1292 138 66 512 485 127 815 794 686 77 197 104 609 323 255 175 706 281 143 425 398 284 209 138 104 89 117 540 68 248 217 93 124 43
is_linear=0
shrinkage=0.05


Tree=15
num_leaves=63
num_cat=0
split_feature=47 47 47 47 47 15 23 4 23 15 16 4 23 15 4 15 23 4 16 13 13 4 4 17 4 4 35 15 30 23 33 19 24 4 45 17 28 17 4 4 4 41 14 27 45 47 45 0 17 18 24 43 13 15 20 37 36 0 40 33 20 8
split_gain=2808.35 958.918 716.734 277.677 149.613 132.391 78.9291 76.7852 70.6812 68.8339 66.2938 58.428 65.9486 55.8634 59.4809 52.2713 47.803 47.6055 44.2761 40.3807 39.6005 38.8484 38.0323 43.7532 34.7547 34.6915 34.29 36.6539 33.6949 30.47 34.4569 25.7873 34.2102 25.6805 36.1069 26.5635 25.3921 24.9989 25.775 24.8744 34.3259 25.9295 24.7998 52.5492 24.317 33.9759 24.0767 27.9704 23.9814 23.9443 25.4587 23.6747 23.3378 23.1382 23.8057 23.0931 23.5994 22.5239 21.5574 22.9018 21.4674 21.1269
threshold=7.4199252128601083 4.1940519809722909 9.464820861816408 5.9492290019989023 11.070588588714601 7.0035197977545716 1.3662195205688479 255.50000000000003 -0.26812553405761713 8.8063487032103716 913.50000000000011 377.50000000000006 -5.9484853744506827 8.8662290290699683 501.50000000000006 8.7776324532243422 0.2879099845886231 65.500000000000014 882.50000000000011 15.686319117687956 15.581931787474788 57.500000000000007 190.50000000000003 0.031727787727381523 59.500000000000007 601.50000000000011 0.081316165626049056 7.8760690208997692 -0.07283842563629149 -4.7070341110229483 0.12453164532780649 27.500000000000004 -0.062336534261703484 187.50000000000003 1.2014532089233401 0.015195634977870942 -0.052944414317607873 0.027010199954072434 217.50000000000003 1.0000000180025095e-35 10.500000000000002 0.060649894177913673 12.239686048852887 -0.088892810046672807 1.8455696105957033 9.0483660697937029 1.1150743365287783 90842.000000000015 0.04920980399159483 0.0018510882715201684 -0.11386635899543761 1.2424533367156985 15.686319117687956 7.2584119026285725 6.2901360544217697 0.019893023185431961 -0.023567251861095425 428.50000000000006 0.067739754915237441 -0.013216152787208555 18.958525345622125 1.0000000180025095e-35
decision_type=2 2 2 2 2 2 2 2 2 2 2 2 2 2 2 2 2 2 2 2 2 2 2 2 2 2 2 2 2 2 2 2 2 2 2 2 2 2 2 2 2 2 2 2 2 2 2 2 2 2 2 2 2 2 2 2 2 2 2 2 2 2
left_child=1 7 5 10 9 16 22 51 13 17 11 12 -3 14 29 25 37 -4 -16 48 31 55 23 26 -25 -12 27 -7 -24 -5 33 39 -33 35 -35 -31 -11 38 -2 -8 -41 46 43 -15 45 -29 -42 61 53 50 -23 -1 -38 -10 -55 56 -18 -6 59 -36 -40 -48
right_child=2 3 4 8 57 6 20 -9 19 36 15 -13 -14 42 18 -17 21 -19 -20 -21 -22 49 28 24 -26 -27 -28 44 -30 30 -32 32 -34 34 58 -37 52 -39 60 40 41 -43 -44 -45 -46 -47 47 -49 -50 -51 -52 -53 -54 54 -56 -57 -58 -59 -60 -61 -62 -63
leaf_value=-0.1610742062330246 0.013235388386044733 -0.11338005185127259 -0.010287806254868605 -0.047862563898129262 0.070122243103317244 -0.034779227298239006 0.053255362340851743 -0.050652726322767287 -0.0095417078112896795 0.092198268111007148 -0.042190362090514744 -0.093155516040752895 -0.039666181960420911 0.082748075989075021 -0.10807238398371517 -0.017237725836177605 0.054654786936854098 0.044596177752585696 -0.034238683881445069 0.051875696778297425 0.060776888005303467 0.067838398935763461 -0.053956122227526951 -0.025065964674669025 0.027684608889075948 -0.093673178573717944 0.081937853445609415 0.029842416740436525 0.0036081782822470067 0.015893268179691708 0.01133165498240254 0.080689275787587764 0.02834479702177687 -0.017167838313395068 -0.020484394676041913 -0.019749132451415522 0.048297297584455619 -0.028742117102172046 -0.0020010761788179137 -0.019774358755931622 0.036306761335312569 0.072011272392926678 -0.030789834184882542 -0.0020017920354616211 -0.015066794768119089 0.093643180361908426 0.0032536942188730513 0.070129681423144505 -0.028892317028450118 0.0053690705566259572 0.023363774248421017 -0.11751949617750623 0.071980638899337826 0.052004023526723564 0.0022947711280165441 -0.024911107810149935 5.4094099988073567e-05 0.10599625149619914 -0.074236736475275109 -0.057063262440497059 -0.068380970756212869 0.028745566671224018
leaf_weight=36 113 35 49 114 55 23 85 42 758 78 283 108 228 20 37 239 22 204 45 30 127 38 29 76 53 37 30 225 206 60 78 57 69 210 92 406 192 141 29 41 277 31 60 214 26 23 209 23 112 160 210 234 227 26 327 87 197 214 52 80 21 133
leaf_count=36 113 35 49 114 55 23 85 42 758 78 283 108 228 20 37 239 22 204 45 30 127 38 29 76 53 37 30 225 206 60 78 57 69 210 92 406 192 141 29 41 277 31 60 214 26 23 209 23 112 160 210 234 227 26 327 87 197 214 52 80 21 133
internal_value=7.92517e-11 -0.0294086 0.0308324 -0.0222188 0.0666708 0.0176055 0.0259729 -0.113544 -0.0141574 0.0551969 -0.0458049 -0.0621913 -0.049476 -0.0216025 -0.0264835 -0.0349295 0.00327901 0.0339665 -0.0675539 -0.00543479 0.0345962 0.0103489 0.0128446 0.0212655 -0.00339325 -0.0481431 0.0309933 0.0258474 -0.0034955 -0.0233994 -0.0205479 0.0310016 0.0520244 -0.0233108 -0.0320626 -0.01516 0.0660043 -0.0133259 9.61529e-06 0.0276864 0.0246425 0.0273484 -0.00211161 0.00524179 0.0309365 0.0357594 0.0251918 0.0167566 -0.0068406 0.0204493 0.0301784 -0.123327 0.0611281 -0.00461757 0.00595608 -0.00311832 0.0055391 0.0986614 -0.0460265 -0.0374978 -0.0298806 0.0131672
internal_weight=7743 3963 3780 3651 1019 2761 1743 312 2721 750 930 371 263 1468 1174 559 1018 253 82 1253 1052 714 691 456 129 320 327 297 235 1092 978 925 126 900 434 466 497 304 163 799 714 673 294 234 274 248 642 365 1223 408 248 270 419 1111 353 306 219 269 224 172 50 342
internal_count=7743 3963 3780 3651 1019 2761 1743 312 2721 750 930 371 263 1468 1174 559 1018 253 82 1253 1052 714 691 456 129 320 327 297 235 1092 978 925 126 900 434 466 497 304 163 799 714 673 294 234 274 248 642 365 1223 408 248 270 419 1111 353 306 219 269 224 172 50 342
is_linear=0
shrinkage=0.05


Tree=16
num_leaves=63
num_cat=0
split_feature=47 47 44 47 47 21 21 13 13 14 0 13 47 4 22 19 4 13 8 9 17 14 34 19 4 47 19 30 6 4 21 41 43 35 19 18 17 46 27 25 4 5 40 38 27 6 13 6 0 25 31 8 40 38 30 12 0 41 5 46 13 19
split_gain=2538.73 1029.27 394.422 352.164 167.336 116.015 97.8011 80.0186 74.9202 73.1182 63.5339 53.9767 49.8945 49.499 65.9209 41.6744 50.7336 51.8892 41.6684 41.2245 38.045 44.3293 36.0127 35.599 35.2335 33.2182 33.0068 27.8035 27.7026 25.4665 27.8627 24.7876 24.7671 24.7669 24.2203 25.2175 31.3357 42.4707 24.0122 23.903 23.5286 23.2064 22.4258 21.9106 20.8308 20.2484 19.9872 18.6981 30.5578 21.7169 23.8702 21.6585 18.6672 18.6333 28.2604 18.4503 21.0389 22.0191 18.4361 23.3089 18.4048 17.9496
threshold=8.1530256271362322 5.6781299114227304 9.8729362487792987 3.5661256313323979 7.1187846660614023 20.500000000000004 689.00000000000011 13.259246964525266 14.406537764492628 11.182645591991227 52663.500000000007 15.15652435392342 10.715637207031252 427.50000000000006 1.0000000180025095e-35 27.500000000000004 2.5000000000000004 15.565478029821929 -0.22252093395631442 1.0000000180025095e-35 0.032308782067247424 12.399760536672401 0.038204057142138488 20.500000000000004 28.500000000000004 4.989753484725953 26.500000000000004 -0.14704377949237821 0.37940952255126048 59.500000000000007 57.500000000000007 -0.0097554102540016157 6.0148079395294198 0.046361863613128669 20.500000000000004 0.00050079126946623762 0.016046128682626216 11.002182960510256 -0.15690714120864865 0.05271528102457524 137.50000000000003 -0.91597561503675329 -0.0047670826315879813 -0.0078426413238048536 -0.052866533398628228 0.1294095225512602 13.655612824888005 0.25881904510252057 1927.5000000000002 0.10726002976298334 -0.010272927582263945 -0.22252093395631442 0.031972050666809089 -0.0048073567450046531 -0.0010430812835693357 0.10676291793313071 1993.5000000000002 0.01003473997116089 -0.91597561503675329 11.302099227905275 14.406537764492628 23.500000000000004
decision_type=2 2 2 2 2 2 2 2 2 2 2 2 2 2 2 2 2 2 2 2 2 2 2 2 2 2 2 2 2 2 2 2 2 2 2 2 2 2 2 2 2 2 2 2 2 2 2 2 2 2 2 2 2 2 2 2 2 2 2 2 2 2
left_child=1 3 7 40 6 8 11 26 -5 61 13 22 -11 20 52 16 53 24 46 42 21 34 32 41 28 -7 58 -26 -18 -19 -31 -32 -3 -13 60 45 37 -37 -29 -35 -1 -22 -14 -21 -28 -36 -8 48 -40 50 -49 -50 -15 -9 -55 56 -34 -58 -2 -60 -6 -4
right_child=2 4 9 5 10 25 18 15 -10 12 -12 33 19 14 -16 -17 17 29 -20 43 23 -23 -24 -25 27 -27 44 38 -30 30 31 -33 55 39 35 36 -38 -39 47 -41 -42 -43 -44 -45 -46 -47 -48 49 51 -51 -52 -53 -54 54 -56 -57 57 -59 59 -61 -62 -63
leaf_value=-0.12263247944715312 0.018374472776842645 -0.043160855770111084 -0.013697513354709374 -0.054119750342533905 -0.016040109018578046 -0.10707786772400141 -0.021819874498507252 0.042554855786235725 -0.016001362522110433 0.065180505098095129 0.066051535256893223 -0.0027031643336740178 0.10167879480868579 -0.043754082066672195 0.0078874039929360158 0.060514928160333319 -0.040938324346724488 -0.003631802164018154 -0.010310897945790836 0.13492667906814151 0.057604248206252644 0.080609167665243162 -0.029953093646664566 -0.020592360938006288 -0.028827623535868374 -0.065701918723614292 -0.0094088035325209304 -0.0091014328480857176 0.022999548073858025 0.068526523001492021 -0.012580522862465485 0.050138534456491468 -0.011256494098928146 0.069221954686301088 0.0041935596743534354 0.007300907792523504 0.0083104215883790505 0.073255814245456588 0.030366256440528941 0.0086707837688617222 -0.073212414359052985 0.0011976523906923832 0.049305657023360261 0.097784286767244349 0.038274072463753701 -0.057893096593519058 -0.072475314115753448 0.010813977085585381 0.041179677713266083 -0.01933719597216095 0.041373851038554704 0.092321218167607855 -0.10830467802782853 0.054411318642628749 0.11967808209635594 -0.021747915745079997 -0.0037160100807095801 0.047215463000543426 0.01258016256876638 -0.01977642950168329 0.0082979751269942007 0.042681378545239568
leaf_weight=223 151 69 20 265 193 70 23 66 251 263 38 147 31 21 44 152 36 20 46 54 23 20 457 279 22 158 27 41 32 139 23 50 935 28 29 52 803 46 378 39 27 88 60 150 151 24 127 138 47 31 119 37 24 43 27 390 63 32 107 116 130 48
leaf_count=223 151 69 20 265 193 70 23 66 251 263 38 147 31 21 44 152 36 20 46 54 23 20 457 279 22 158 27 41 32 139 23 50 935 28 29 52 803 46 378 39 27 88 60 150 151 24 127 138 47 31 119 37 24 43 27 390 63 32 107 116 130 48
internal_value=-3.20664e-11 -0.0202328 0.0405127 -0.0659539 -0.00933429 -0.0487022 -0.018123 0.0294423 -0.0355777 0.07505 0.00208044 -0.0150543 0.0810153 0.00071169 -0.0356304 0.0357951 0.0327868 0.0292642 -0.0519414 0.0951324 0.00262896 0.00674637 -0.0176754 -0.011064 0.0237242 -0.0784051 0.0133187 0.026616 -0.0108499 0.0503023 0.0553904 0.0303777 -0.0139072 0.00878042 0.00558955 0.00959629 0.0115679 0.0382593 0.028158 0.0339758 -0.117295 0.0128855 0.0671471 0.107616 0.0310413 -0.0239212 -0.0647081 0.0301949 0.0364281 0.0201957 0.0249643 0.0637063 -0.0781811 0.0616148 0.0795856 -0.0124857 -0.00897868 0.0134399 0.00488384 -0.00425107 -0.0062446 0.0260994
internal_weight=7743 5164 2579 994 4170 744 2356 1953 516 626 1814 2160 558 1776 89 1401 1249 1113 196 295 1687 1297 1946 390 881 228 552 813 68 232 212 73 1489 214 1277 954 901 98 791 67 250 111 91 204 178 53 150 750 462 288 257 84 45 136 70 1420 1030 95 374 223 323 68
internal_count=7743 5164 2579 994 4170 744 2356 1953 516 626 1814 2160 558 1776 89 1401 1249 1113 196 295 1687 1297 1946 390 881 228 552 813 68 232 212 73 1489 214 1277 954 901 98 791 67 250 111 91 204 178 53 150 750 462 288 257 84 45 136 70 1420 1030 95 374 223 323 68
is_linear=0
shrinkage=0.05


Tree=17
num_leaves=63
num_cat=0
split_feature=47 47 44 47 44 0 13 14 15 17 13 13 4 44 9 16 4 18 4 4 13 4 4 45 34 45 15 4 17 0 47 12 31 35 0 17 25 6 37 46 12 20 47 29 38 30 17 38 13 42 12 31 25 4 39 24 17 7 39 16 45 18
split_gain=2291.2 933.18 355.965 278.505 158.998 90.3174 72.2168 65.9892 59.6914 59.1429 48.3128 46.7155 90.1744 45.2241 45.6535 41.9382 49.6494 46.8713 39.8244 38.9522 37.7766 45.4637 39.2983 35.0145 33.9914 33.6581 33.364 31.3749 38.6287 29.5021 28.6013 28.5303 28.3931 27.597 27.539 27.4404 26.3188 25.0016 24.858 24.7349 24.3394 24.9589 23.1792 22.6154 22.3762 22.3707 22.3351 21.9824 21.7811 21.3557 21.1351 21.0794 20.4251 20.0096 22.6701 20.0079 19.2281 24.335 18.8648 18.6727 18.6655 18.6128
